{"learner":{"attributes":{"scikit_learn":"{\"_estimator_type\": \"regressor\"}"},"feature_names":["load_mw","wind_mw","solar_mw","renewables_share","hour","dow","is_weekend","is_holiday_de","price_eur_mwh_lag1","price_eur_mwh_lag24","price_eur_mwh_lag48","price_eur_mwh_lag168","price_eur_mwh_roll24_mean","price_eur_mwh_roll168_mean","load_mw_lag1","load_mw_lag24","load_mw_lag48","load_mw_lag168","load_mw_roll24_mean","load_mw_roll168_mean"],"feature_types":["float","float","float","float","int","int","int","int","float","float","float","float","float","float","float","float","float","float","float","float"],"gradient_booster":{"model":{"gbtree_model_param":{"num_parallel_tree":"1","num_trees":"400"},"iteration_indptr":[0,1,2,3,4,5,6,7,8,9,10,11,12,13,14,15,16,17,18,19,20,21,22,23,24,25,26,27,28,29,30,31,32,33,34,35,36,37,38,39,40,41,42,43,44,45,46,47,48,49,50,51,52,53,54,55,56,57,58,59,60,61,62,63,64,65,66,67,68,69,70,71,72,73,74,75,76,77,78,79,80,81,82,83,84,85,86,87,88,89,90,91,92,93,94,95,96,97,98,99,100,101,102,103,104,105,106,107,108,109,110,111,112,113,114,115,116,117,118,119,120,121,122,123,124,125,126,127,128,129,130,131,132,133,134,135,136,137,138,139,140,141,142,143,144,145,146,147,148,149,150,151,152,153,154,155,156,157,158,159,160,161,162,163,164,165,166,167,168,169,170,171,172,173,174,175,176,177,178,179,180,181,182,183,184,185,186,187,188,189,190,191,192,193,194,195,196,197,198,199,200,201,202,203,204,205,206,207,208,209,210,211,212,213,214,215,216,217,218,219,220,221,222,223,224,225,226,227,228,229,230,231,232,233,234,235,236,237,238,239,240,241,242,243,244,245,246,247,248,249,250,251,252,253,254,255,256,257,258,259,260,261,262,263,264,265,266,267,268,269,270,271,272,273,274,275,276,277,278,279,280,281,282,283,284,285,286,287,288,289,290,291,292,293,294,295,296,297,298,299,300,301,302,303,304,305,306,307,308,309,310,311,312,313,314,315,316,317,318,319,320,321,322,323,324,325,326,327,328,329,330,331,332,333,334,335,336,337,338,339,340,341,342,343,344,345,346,347,348,349,350,351,352,353,354,355,356,357,358,359,360,361,362,363,364,365,366,367,368,369,370,371,372,373,374,375,376,377,378,379,380,381,382,383,384,385,386,387,388,389,390,391,392,393,394,395,396,397,398,399,400],"tree_info":[0,0,0,0,0,0,0,0,0,0,0,0,0,0,0,0,0,0,0,0,0,0,0,0,0,0,0,0,0,0,0,0,0,0,0,0,0,0,0,0,0,0,0,0,0,0,0,0,0,0,0,0,0,0,0,0,0,0,0,0,0,0,0,0,0,0,0,0,0,0,0,0,0,0,0,0,0,0,0,0,0,0,0,0,0,0,0,0,0,0,0,0,0,0,0,0,0,0,0,0,0,0,0,0,0,0,0,0,0,0,0,0,0,0,0,0,0,0,0,0,0,0,0,0,0,0,0,0,0,0,0,0,0,0,0,0,0,0,0,0,0,0,0,0,0,0,0,0,0,0,0,0,0,0,0,0,0,0,0,0,0,0,0,0,0,0,0,0,0,0,0,0,0,0,0,0,0,0,0,0,0,0,0,0,0,0,0,0,0,0,0,0,0,0,0,0,0,0,0,0,0,0,0,0,0,0,0,0,0,0,0,0,0,0,0,0,0,0,0,0,0,0,0,0,0,0,0,0,0,0,0,0,0,0,0,0,0,0,0,0,0,0,0,0,0,0,0,0,0,0,0,0,0,0,0,0,0,0,0,0,0,0,0,0,0,0,0,0,0,0,0,0,0,0,0,0,0,0,0,0,0,0,0,0,0,0,0,0,0,0,0,0,0,0,0,0,0,0,0,0,0,0,0,0,0,0,0,0,0,0,0,0,0,0,0,0,0,0,0,0,0,0,0,0,0,0,0,0,0,0,0,0,0,0,0,0,0,0,0,0,0,0,0,0,0,0,0,0,0,0,0,0,0,0,0,0,0,0,0,0,0,0,0,0,0,0,0,0,0,0,0,0,0,0,0,0,0,0,0,0,0,0,0,0,0,0,0,0,0,0,0,0,0,0,0,0,0,0,0,0],"trees":[{"base_weights":[-2.3238582E-3,-4.080741E-1,4.180609E-1,-4.623656E-1,-1.9060224E-1,1.6192937E-1,4.664873E-1,-4.819969E-1,-3.5077092E-1,-2.974138E-1,4.8076924E-2,2.2103658E-1,-1.6573034E-1,3.5416666E-1,4.8911977E-1,-4.9420848E-1,-4.4377992E-1,-4.1414836E-1,-9.392265E-2,-3.7054795E-1,-1.2698413E-1,1.8030304E-1,-2.6618704E-1,-1.1320755E-1,2.8510895E-1,-2.8057554E-1,2.375E-1,4.0949368E-1,1.7283951E-1,2.0689656E-1,4.906367E-1,-2.9893821E-2,-4.7750643E-1,-4.526749E-1,-1.625E-1,-3.374613E-1,-4.7413793E-1,1.3372093E-1,-2.96875E-1,-4.55E-1,-3.1090486E-1,-2.6595744E-3,-3.0859375E-1,2.597865E-1,-2.7E-1,-3.1048387E-1,9.375E-2,-2.4242425E-1,9.836066E-2,3.4439835E-1,-1.298077E-1,-3.7623763E-1,-2.5641026E-2,-2.857143E-1,3.382353E-1,2.1363637E-1,4.4052863E-1,2.849162E-1,-1.3846155E-1,-1.5E-1,3.75E-1,4.919563E-1,3.0769232E-1,-2.8792208E-2,-1.3333333E-2,-2.950301E-2,-2.4293479E-2,-1.8620688E-2,1.2499999E-2,-2.8941175E-2,-1.707113E-2,-2.8589109E-2,-0E0,-2.4E-2,1.4583332E-2,-1.0526315E-2,-2.775E-2,-2.7842464E-2,-6.6666664E-3,-1.2E-2,-2.649746E-2,-2.2499999E-2,6.6206893E-3,-2.0080645E-2,2.4E-2,-1.8214285E-2,1.9251969E-2,2.4E-2,-2.021739E-2,-2.0624999E-2,-0E0,-2.4E-2,1.7499998E-2,-1.9480519E-2,2.6086955E-3,-5.5263154E-3,2.375E-2,2.3382353E-2,5.6249998E-3,-1.4642856E-2,2E-2,-2.3636363E-2,2E-2,1.9285714E-2,-1.2692307E-2,-2.4999999E-2,1.5E-2,3E-3,2.64E-2,-1.5384615E-3,2.0416668E-2,2.7546294E-2,4.411765E-3,5.4545454E-3,2.5631066E-2,-1.11864405E-2,1.7142858E-2,5E-3,-2.4E-2,2.5263157E-2,-1.5E-2,2.9668057E-2,2.6463414E-2,-4.6153846E-3,2.8888889E-2],"categories":[],"categories_nodes":[],"categories_segments":[],"categories_sizes":[],"default_left":[0,0,0,0,0,0,0,0,0,0,0,0,0,0,0,0,0,0,0,0,0,0,0,0,0,0,0,0,0,0,0,0,0,0,0,0,0,0,0,0,0,0,0,0,0,0,0,0,0,0,0,0,0,0,0,0,0,0,0,0,0,0,0,0,0,0,0,0,0,0,0,0,0,0,0,0,0,0,0,0,0,0,0,0,0,0,0,0,0,0,0,0,0,0,0,0,0,0,0,0,0,0,0,0,0,0,0,0,0,0,0,0,0,0,0,0,0,0,0,0,0,0,0,0,0],"id":0,"left_children":[1,3,5,7,9,11,13,15,17,19,21,23,25,27,29,31,33,35,37,39,41,43,45,47,49,51,53,55,57,59,61,-1,63,65,67,69,71,73,75,77,79,81,83,85,87,89,91,93,95,97,99,101,103,105,107,109,111,113,115,117,119,121,123,-1,-1,-1,-1,-1,-1,-1,-1,-1,-1,-1,-1,-1,-1,-1,-1,-1,-1,-1,-1,-1,-1,-1,-1,-1,-1,-1,-1,-1,-1,-1,-1,-1,-1,-1,-1,-1,-1,-1,-1,-1,-1,-1,-1,-1,-1,-1,-1,-1,-1,-1,-1,-1,-1,-1,-1,-1,-1,-1,-1,-1,-1],"loss_changes":[2.5324712E3,8.911267E1,9.037097E1,1.3074097E1,3.853527E1,2.2521782E1,1.5414917E1,2.1785889E0,1.4741875E1,1.2965607E1,1.949522E1,2.1105434E1,8.309651E0,1.0282547E1,2.0821533E0,2.3010254E-2,3.063919E0,3.1891098E0,8.402042E0,3.53553E0,7.1114173E0,1.1881383E1,2.2453337E0,4.37061E0,2.0364433E1,3.3802252E0,2.2048845E0,4.70784E0,8.517621E0,1.7961206E0,1.0733643E0,0E0,3.628235E-1,2.0675812E0,2.2576866E0,2.3404655E0,4.5183563E-1,5.1156816E0,1.8496981E0,8.811798E-1,6.1600685E0,7.9516873E0,2.4996595E0,9.766535E0,2.3778262E0,1.2807455E0,1.6802084E0,2.3421793E0,3.4926212E0,8.174042E0,5.5839057E0,1.3999395E0,2.584249E0,5.9523803E-1,9.7529435E-1,3.3419924E0,4.608963E0,4.9017534E0,1.3761222E0,6.166667E-1,6.809211E-1,4.2541504E-1,2.6438744E0,0E0,0E0,0E0,0E0,0E0,0E0,0E0,0E0,0E0,0E0,0E0,0E0,0E0,0E0,0E0,0E0,0E0,0E0,0E0,0E0,0E0,0E0,0E0,0E0,0E0,0E0,0E0,0E0,0E0,0E0,0E0,0E0,0E0,0E0,0E0,0E0,0E0,0E0,0E0,0E0,0E0,0E0,0E0,0E0,0E0,0E0,0E0,0E0,0E0,0E0,0E0,0E0,0E0,0E0,0E0,0E0,0E0,0E0,0E0,0E0,0E0,0E0],"parents":[2147483647,0,0,1,1,2,2,3,3,4,4,5,5,6,6,7,7,8,8,9,9,10,10,11,11,12,12,13,13,14,14,15,15,16,16,17,17,18,18,19,19,20,20,21,21,22,22,23,23,24,24,25,25,26,26,27,27,28,28,29,29,30,30,32,32,33,33,34,34,35,35,36,36,37,37,38,38,39,39,40,40,41,41,42,42,43,43,44,44,45,45,46,46,47,47,48,48,49,49,50,50,51,51,52,52,53,53,54,54,55,55,56,56,57,57,58,58,59,59,60,60,61,61,62,62],"right_children":[2,4,6,8,10,12,14,16,18,20,22,24,26,28,30,32,34,36,38,40,42,44,46,48,50,52,54,56,58,60,62,-1,64,66,68,70,72,74,76,78,80,82,84,86,88,90,92,94,96,98,100,102,104,106,108,110,112,114,116,118,120,122,124,-1,-1,-1,-1,-1,-1,-1,-1,-1,-1,-1,-1,-1,-1,-1,-1,-1,-1,-1,-1,-1,-1,-1,-1,-1,-1,-1,-1,-1,-1,-1,-1,-1,-1,-1,-1,-1,-1,-1,-1,-1,-1,-1,-1,-1,-1,-1,-1,-1,-1,-1,-1,-1,-1,-1,-1,-1,-1,-1,-1,-1,-1],"split_conditions":[3.61E1,3.286E1,3.874E1,3.803E1,3.729E1,2E1,4.129E1,2.859E1,3.071E1,3.679E1,4.5819327E-1,2E0,1E0,2E1,1.883512E1,2.595E1,4.763E1,5.529676E-1,4.3184015E-1,4E0,3.5935968E-1,2E1,5.31E1,4.0540833E1,1.9176E4,4.07E1,3.636E1,2E0,3.489377E-1,4.536E1,5.605292E-1,-1.0746E0,6.5140082E4,4.9388E4,1.7E1,4.7974E4,6.803E1,4.8618E4,6.3902E4,3.958E1,3.4277418E-1,4.4802E4,5.692E1,4.5384E4,4.3655918E4,6.160998E4,6.1439E4,5.652675E4,3.779E1,4.698252E-1,1.4E1,1E0,1.4763E4,1.08E2,2.9354525E1,3.387E1,5.529676E-1,3.752E1,6.2406387E4,2.226E1,7.104E3,2.3E1,4.56E1,-5.3459996E-1,-5.7119995E-1,-3.5459998E-1,-3.3719993E-1,-2.1209998E-1,9.660003E-2,-5.3879994E-1,-2.4569996E-1,-7.914E-1,1.7189999E-1,-1.9979998E-1,1.20599896E-1,-2.3219994E-1,-2.9819995E-1,-1.6979988E-1,-5.5500068E-2,-8.09999E-2,-1.698E-1,-1.00199886E-1,4.4699933E-2,-1.0860008E-1,1.5810001E-1,-9.780006E-2,1.4759994E-1,5.5200003E-2,-1.505999E-1,-1.5419997E-1,4.1999817E-3,-8.550007E-2,1.8900008E-1,-9.630009E-2,2.3999405E-3,-3E-2,8.339996E-2,1.5299995E-1,5.339996E-2,-6.0599897E-2,5.220005E-2,-1.2239994E-1,1.4910004E-1,7.5599894E-2,-8.820007E-2,-2.2199936E-2,9.660003E-2,2.3399962E-2,1.0590008E-1,-3.2999038E-3,1.1339996E-1,2.544001E-1,8.459999E-2,4.3199956E-2,1.8839996E-1,-7.109997E-2,2.1180004E-1,1.5419997E-1,-2.4299996E-1,4.7280005E-1,-1.5240005E-1,8.424E-1,3.1200004E-1,-9.2699885E-2,3.7260005E-1],"split_indices":[8,8,8,11,11,4,8,8,8,9,3,4,2,4,13,8,9,3,3,4,3,4,10,13,2,10,8,4,3,8,3,0,18,0,4,0,11,0,14,10,3,0,10,0,18,19,16,19,8,3,4,7,1,2,13,9,3,10,19,9,1,4,10,0,0,0,0,0,0,0,0,0,0,0,0,0,0,0,0,0,0,0,0,0,0,0,0,0,0,0,0,0,0,0,0,0,0,0,0,0,0,0,0,0,0,0,0,0,0,0,0,0,0,0,0,0,0,0,0,0,0,0,0,0,0],"split_type":[0,0,0,0,0,0,0,0,0,0,0,0,0,0,0,0,0,0,0,0,0,0,0,0,0,0,0,0,0,0,0,0,0,0,0,0,0,0,0,0,0,0,0,0,0,0,0,0,0,0,0,0,0,0,0,0,0,0,0,0,0,0,0,0,0,0,0,0,0,0,0,0,0,0,0,0,0,0,0,0,0,0,0,0,0,0,0,0,0,0,0,0,0,0,0,0,0,0,0,0,0,0,0,0,0,0,0,0,0,0,0,0,0,0,0,0,0,0,0,0,0,0,0,0,0],"sum_hessian":[1.4845E4,7.554E3,7.291E3,6.044E3,1.51E3,1.16E3,6.131E3,5.137E3,9.07E2,1.043E3,4.67E2,9.83E2,1.77E2,1.031E3,5.1E3,3.884E3,1.253E3,7.27E2,1.8E2,7.29E2,3.14E2,3.29E2,1.38E2,1.58E2,8.25E2,1.38E2,3.9E1,7.89E2,2.42E2,2.8E1,5.072E3,3.107E3,7.77E2,1.214E3,3.9E1,3.22E2,4.05E2,8.5E1,9.5E1,2.99E2,4.3E2,1.87E2,1.27E2,2.8E2,4.9E1,1.23E2,1.5E1,9.8E1,6E1,7.22E2,1.03E2,1E2,3.8E1,6E0,3.3E1,1.09E2,6.8E2,1.78E2,6.4E1,9E0,1.9E1,5.034E3,3.8E1,7.69E2,8E0,6.63E2,5.51E2,2.8E1,1.1E1,8.4E1,2.38E2,4.03E2,2E0,1.4E1,7.1E1,5.6E1,3.9E1,2.91E2,8E0,2.34E2,1.96E2,4.3E1,1.44E2,1.23E2,4E0,2.7E1,2.53E2,4E0,4.5E1,1.11E2,1.2E1,4E0,1.1E1,7.6E1,2.2E1,3.7E1,2.3E1,6.11E2,1.11E2,8.3E1,2E1,9.8E1,2E0,1.3E1,2.5E1,5E0,1E0,9E0,2.4E1,3.8E1,7.1E1,6.47E2,3.3E1,7.6E1,1.02E2,5.8E1,6E0,5E0,4E0,1.8E1,1E0,4.789E3,2.45E2,1.2E1,2.6E1],"tree_param":{"num_deleted":"0","num_feature":"20","num_nodes":"125","size_leaf_vector":"1"}},{"base_weights":[-8.726589E-4,-4.0320233E-1,4.1329518E-1,-4.5782235E-1,-1.866798E-1,2.283342E-1,4.790397E-1,-4.7903544E-1,-3.4450263E-1,-2.922923E-1,1.4258555E-2,2.5688326E-1,-2.3660715E-1,3.9443004E-1,4.9300173E-1,-4.932877E-1,-4.3642744E-1,-1.4260563E-1,-4.2931548E-1,-3.5629922E-1,-8.6134456E-2,1.3404825E-1,-2.7597404E-1,1.4889705E-1,3.4465533E-1,-4.5E-1,-6.349207E-2,4.3915343E-1,2.6941746E-1,3.018868E-1,4.9510017E-1,-2.9925847E-2,-4.767562E-1,-4.8040542E-1,-3.756906E-1,-2.8869048E-1,6.837607E-2,-4.622824E-1,-3.1730768E-1,-4.4850498E-1,-2.9545453E-1,6.7857146E-2,-3.030303E-1,-1.14503816E-1,2.674897E-1,-3.2246378E-1,1.1764706E-1,2.07478E-1,-1.4814815E-1,3.823185E-1,1.25E-1,1.25E-1,-2.93617E-2,1.3793103E-1,-2.2857143E-1,1.627907E-1,4.6095237E-1,3.220339E-1,-5E-2,3.5714287E-2,3.875E-1,4.959554E-1,2.631579E-1,-2.9546702E-2,-2.5643153E-2,-2.9132232E-2,-1.2E-2,-8.671875E-3,-2.6754808E-2,-2.590909E-2,-1.1650485E-2,-1.7307691E-2,1.0108695E-2,-1.1666667E-2,-2.8259998E-2,2.4E-2,-2.0328946E-2,-2.8470587E-2,-1.787234E-2,-1.0357142E-2,-2.6445497E-2,-1.8214285E-2,9.557522E-3,-1.96875E-2,2.2499999E-2,-1.5899999E-2,2.15625E-2,1.9954126E-2,-1.7307691E-2,-2.007353E-2,2E-2,2.1818181E-2,-1.7142858E-2,-2.7717391E-3,1.8036073E-2,-1.8305084E-2,-1.5584416E-3,8.92562E-3,2.5217984E-2,1.8947367E-2,-1.2777778E-2,2E-2,-1.5E-2,-9.000001E-3,1.65E-2,1.5E-2,-1.9E-2,-9.230769E-3,1.7419353E-2,2.7988505E-2,-2.2499999E-2,-8E-3,2.171779E-2,-2.7272727E-2,1.05E-2,-9.000001E-3,2.4E-2,-1.5E-2,2.4615385E-2,2.9856622E-2,2.7182318E-2,-1.5E-2,2.7857142E-2],"categories":[],"categories_nodes":[],"categories_segments":[],"categories_sizes":[],"default_left":[0,0,0,0,0,0,0,0,0,0,0,0,0,0,0,0,0,0,0,0,0,0,0,0,0,0,0,0,0,0,0,0,0,0,0,0,0,0,0,0,0,0,0,0,0,0,0,0,0,0,0,0,0,0,0,0,0,0,0,0,0,0,0,0,0,0,0,0,0,0,0,0,0,0,0,0,0,0,0,0,0,0,0,0,0,0,0,0,0,0,0,0,0,0,0,0,0,0,0,0,0,0,0,0,0,0,0,0,0,0,0,0,0,0,0,0,0,0,0,0,0,0,0],"id":1,"left_children":[1,3,5,7,9,11,13,15,17,19,21,23,25,27,29,31,33,35,37,39,41,43,45,47,49,51,53,55,57,59,61,-1,63,65,67,69,71,73,75,77,79,81,83,85,87,89,91,93,95,97,99,101,-1,103,105,107,109,111,113,115,117,119,121,-1,-1,-1,-1,-1,-1,-1,-1,-1,-1,-1,-1,-1,-1,-1,-1,-1,-1,-1,-1,-1,-1,-1,-1,-1,-1,-1,-1,-1,-1,-1,-1,-1,-1,-1,-1,-1,-1,-1,-1,-1,-1,-1,-1,-1,-1,-1,-1,-1,-1,-1,-1,-1,-1,-1,-1,-1,-1,-1,-1],"loss_changes":[2.482484E3,8.928699E1,8.915845E1,1.4339844E1,3.234589E1,2.5639084E1,6.2023926E0,2.869629E0,1.629168E1,1.3151642E1,1.832437E1,1.7161041E1,4.108879E0,4.1979218E0,1.7130127E0,1.0620117E-1,3.2438354E0,8.772968E0,2.3347168E0,4.142479E0,7.9697957E0,1.2401976E1,2.8560362E0,1.4230106E1,8.233391E0,1.1928196E0,2.1263273E0,3.340805E0,3.478263E0,1.1939182E0,7.803955E-1,0E0,5.393219E-1,9.677429E-1,8.749893E0,2.1888256E0,4.227866E0,1.1155624E0,2.5422812E0,1.0377274E0,8.169907E0,4.802971E0,1.8075285E0,9.437756E0,8.887869E0,1.2061214E0,1.7906799E0,1.6124704E1,2.5805109E0,7.5131607E0,9.610258E0,3.9583334E-1,0E0,1.185776E0,1.554762E0,1.7810606E0,2.598709E0,3.2665615E0,2.8102272E0,1.0071428E0,6.8285275E-1,9.9365234E-2,2.0770676E0,0E0,0E0,0E0,0E0,0E0,0E0,0E0,0E0,0E0,0E0,0E0,0E0,0E0,0E0,0E0,0E0,0E0,0E0,0E0,0E0,0E0,0E0,0E0,0E0,0E0,0E0,0E0,0E0,0E0,0E0,0E0,0E0,0E0,0E0,0E0,0E0,0E0,0E0,0E0,0E0,0E0,0E0,0E0,0E0,0E0,0E0,0E0,0E0,0E0,0E0,0E0,0E0,0E0,0E0,0E0,0E0,0E0,0E0,0E0,0E0],"parents":[2147483647,0,0,1,1,2,2,3,3,4,4,5,5,6,6,7,7,8,8,9,9,10,10,11,11,12,12,13,13,14,14,15,15,16,16,17,17,18,18,19,19,20,20,21,21,22,22,23,23,24,24,25,25,26,26,27,27,28,28,29,29,30,30,32,32,33,33,34,34,35,35,36,36,37,37,38,38,39,39,40,40,41,41,42,42,43,43,44,44,45,45,46,46,47,47,48,48,49,49,50,50,51,51,53,53,54,54,55,55,56,56,57,57,58,58,59,59,60,60,61,61,62,62],"right_children":[2,4,6,8,10,12,14,16,18,20,22,24,26,28,30,32,34,36,38,40,42,44,46,48,50,52,54,56,58,60,62,-1,64,66,68,70,72,74,76,78,80,82,84,86,88,90,92,94,96,98,100,102,-1,104,106,108,110,112,114,116,118,120,122,-1,-1,-1,-1,-1,-1,-1,-1,-1,-1,-1,-1,-1,-1,-1,-1,-1,-1,-1,-1,-1,-1,-1,-1,-1,-1,-1,-1,-1,-1,-1,-1,-1,-1,-1,-1,-1,-1,-1,-1,-1,-1,-1,-1,-1,-1,-1,-1,-1,-1,-1,-1,-1,-1,-1,-1,-1,-1,-1,-1],"split_conditions":[3.61E1,3.286E1,4.052E1,3.772E1,3.674E1,2.3E1,4.283E1,2.839E1,4.6123436E-1,3.8E1,4.6123436E-1,3.8E1,3.858E1,2E1,2.0973572E1,2.505E1,5.0191E4,3.023E1,2.928E1,4E0,3.5935968E-1,5.0865E4,5.31E1,4.6671113E-1,2E1,1.47E1,5.4138875E4,1E0,2.3195E4,2.872E1,5.8691144E-1,-1.095924E0,5.4692E4,4.71E1,3.107437E-1,2.697E1,4.8618E4,-9.97E0,1.197E1,4.1420296E1,3.3552477E-1,4.4802E4,5.188E1,5.6512E4,2E1,6.0448093E1,3.9924583E1,4E0,2.0896E4,2E0,3.3330348E-1,5.3974E4,-1.5435608E-1,4.6193457E4,3.246125E1,3.312E1,5.9844345E-1,2.8085833E1,5.5203E4,2.431E1,3.6148988E-2,4.5819327E-1,4.411E1,-5.27124E-1,-5.02224E-1,-3.3376795E-1,-2.1197398E-1,-1.4776795E-1,-3.3436796E-1,-3.9727202E-1,-1.19864956E-1,-1.6201217E-1,1.13363795E-1,-4.7331595E-1,-7.409159E-1,1.9810809E-1,-3.091081E-1,-1.6291203E-1,-5.041191E-2,-6.3539885E-2,-1.6171199E-1,-4.858795E-2,6.031803E-2,-1.0208404E-1,2.4791405E-1,-8.653198E-2,9.7115934E-2,1.8014419E-1,-1.0556396E-1,-1.5901199E-1,1.6954799E-1,1.8786015E-1,-4.6470106E-2,-7.979965E-3,9.972004E-2,-7.316402E-2,-6.8038558E-3,6.189594E-2,2.0192413E-1,1.2790798E-1,-6.2303923E-2,1.2743912E-2,-1.6665618E-1,-5.3591993E-2,4.5407865E-2,6.280792E-2,-6.6503905E-2,-3.6143873E-2,1.3902603E-1,3.195362E-1,-8.4275894E-2,-3.1368025E-2,1.7188796E-1,-2.7953407E-1,1.0425613E-1,-5.7144012E-2,4.4294402E-1,-2.5968017E-2,5.3350204E-1,8.4105605E-1,4.72668E-1,-2.278379E-1,2.9656196E-1],"split_indices":[8,8,8,11,11,4,8,8,3,9,3,8,8,4,13,8,0,8,8,4,3,0,10,3,4,11,18,4,1,11,3,0,0,9,3,8,0,9,12,13,3,0,9,16,4,13,12,4,1,4,3,0,0,18,12,9,3,12,17,10,3,3,8,0,0,0,0,0,0,0,0,0,0,0,0,0,0,0,0,0,0,0,0,0,0,0,0,0,0,0,0,0,0,0,0,0,0,0,0,0,0,0,0,0,0,0,0,0,0,0,0,0,0,0,0,0,0,0,0,0,0,0,0],"split_type":[0,0,0,0,0,0,0,0,0,0,0,0,0,0,0,0,0,0,0,0,0,0,0,0,0,0,0,0,0,0,0,0,0,0,0,0,0,0,0,0,0,0,0,0,0,0,0,0,0,0,0,0,0,0,0,0,0,0,0,0,0,0,0,0,0,0,0,0,0,0,0,0,0,0,0,0,0,0,0,0,0,0,0,0,0,0,0,0,0,0,0,0,0,0,0,0,0,0,0,0,0,0,0,0,0,0,0,0,0,0,0,0,0,0,0,0,0,0,0,0,0,0,0],"sum_hessian":[1.4896E4,7.556E3,7.34E3,6.033E3,1.523E3,1.926E3,5.414E3,5.079E3,9.54E2,9.98E2,5.25E2,1.815E3,1.11E2,7.71E2,4.643E3,3.798E3,1.281E3,2.83E2,6.71E2,7.61E2,2.37E2,3.72E2,1.53E2,8.15E2,1E3,4.9E1,6.2E1,5.66E2,2.05E2,5.2E1,4.591E3,2.831E3,9.67E2,7.39E2,5.42E2,1.67E2,1.16E2,5.16E2,1.55E2,3E2,4.61E2,1.39E2,9.8E1,1.3E2,2.42E2,1.37E2,1.6E1,6.81E2,1.34E2,8.53E2,1.47E2,3E0,4.6E1,2.8E1,3.4E1,4.2E1,5.24E2,1.76E2,2.9E1,1.3E1,3.9E1,4.573E3,1.8E1,7.27E2,2.4E2,7.25E2,1.4E1,1.27E2,4.15E2,6.5E1,1.02E2,2.5E1,9.1E1,1.7E1,4.99E2,4E0,1.51E2,2.54E2,4.6E1,2.51E2,2.1E2,2.7E1,1.12E2,9.5E1,3E0,9.9E1,3.1E1,2.17E2,2.5E1,1.35E2,2E0,1E1,6E0,1.83E2,4.98E2,5.8E1,7.6E1,1.2E2,7.33E2,9.4E1,5.3E1,2E0,1E0,9E0,1.9E1,5E0,2.9E1,1.2E1,3E1,5.21E2,3E0,1.4E1,1.62E2,1E1,1.9E1,9E0,4E0,1E0,3.8E1,4.393E3,1.8E2,5E0,1.3E1],"tree_param":{"num_deleted":"0","num_feature":"20","num_nodes":"123","size_leaf_vector":"1"}},{"base_weights":[-2.9277157E-3,-3.8929817E-1,4.168071E-1,-4.543345E-1,-1.5894428E-1,2.5454086E-1,4.792842E-1,-4.730111E-1,-3.1520224E-1,-2.5504202E-1,6.29845E-2,1.3081396E-1,3.49065E-1,4.1957605E-1,4.9020737E-1,-4.8676196E-1,-4.1666666E-1,-1.09375E-1,-4.0789473E-1,-3.250283E-1,-5.357143E-2,1.9220056E-1,-2.3101266E-1,5.175159E-2,3.4334764E-1,4.3048468E-1,1.6029412E-1,4.2418545E-1,-2.4E-2,3.243243E-1,4.915195E-1,-2.9805593E-2,-4.644727E-1,-4.4987625E-1,-3.0452675E-1,-3.581081E-1,1.3245033E-2,-4.7460938E-1,-3.3472803E-1,-4.3562874E-1,-2.5727272E-1,1.08571425E-1,-2.6492536E-1,2.6785713E-1,-2.596154E-1,-3.0072463E-1,2.3809524E-1,-7.1192056E-2,1.6513762E-1,3.7104073E-1,-1.5384616E-1,4.6352312E-1,3.4529147E-1,-4.6728972E-2,2.542735E-1,4.5854485E-1,3.2451922E-1,-5E-2,4.4642857E-1,4.938361E-1,4.315476E-1,-2.9114954E-2,-2.4338027E-2,-2.7133994E-2,2E-2,-2.2721894E-2,-8E-3,-5.6249998E-3,-2.5423728E-2,-2.4E-2,3.5036495E-3,-1.3333333E-2,-2.8911289E-2,-8.035714E-3,-2.3641305E-2,-2.6934983E-2,-2.5E-3,-7.0886076E-3,-2.1687899E-2,-1.7499998E-2,1.2642857E-2,-1.9159663E-2,9.374999E-3,-1.8214285E-2,1.9430604E-2,-1.9374998E-2,2.4E-2,-7.941177E-3,-2.1142857E-2,2.117647E-2,-1.2E-2,-1.1098266E-2,4.846154E-3,1.52521E-2,-4.3333336E-3,1.1803279E-2,2.6086954E-2,-2.625E-2,1.5E-2,-1.5E-2,2.7914437E-2,1.30693065E-2,2.6829267E-2,-9.374999E-3,1.6071428E-2,1.763889E-2,-1.2631578E-2,1.4594595E-2,2.8324323E-2,2.0849999E-2,-1.3333333E-2,2.2499999E-2,-1.7142858E-2,-1.5E-2,2.8888889E-2,2.9749999E-2,2.6797753E-2,-7.5E-3,2.6545454E-2],"categories":[],"categories_nodes":[],"categories_segments":[],"categories_sizes":[],"default_left":[0,0,0,0,0,0,0,0,0,0,0,0,0,0,0,0,0,0,0,0,0,0,0,0,0,0,0,0,0,0,0,0,0,0,0,0,0,0,0,0,0,0,0,0,0,0,0,0,0,0,0,0,0,0,0,0,0,0,0,0,0,0,0,0,0,0,0,0,0,0,0,0,0,0,0,0,0,0,0,0,0,0,0,0,0,0,0,0,0,0,0,0,0,0,0,0,0,0,0,0,0,0,0,0,0,0,0,0,0,0,0,0,0,0,0,0,0,0,0],"id":2,"left_children":[1,3,5,7,9,11,13,15,17,19,21,23,25,27,29,31,33,35,37,39,41,43,45,47,49,51,53,55,-1,57,59,-1,61,63,65,67,69,71,73,75,77,79,81,83,85,87,89,91,93,95,97,99,101,103,105,107,109,111,113,115,117,-1,-1,-1,-1,-1,-1,-1,-1,-1,-1,-1,-1,-1,-1,-1,-1,-1,-1,-1,-1,-1,-1,-1,-1,-1,-1,-1,-1,-1,-1,-1,-1,-1,-1,-1,-1,-1,-1,-1,-1,-1,-1,-1,-1,-1,-1,-1,-1,-1,-1,-1,-1,-1,-1,-1,-1,-1,-1],"loss_changes":[2.4097305E3,1.158385E2,7.208032E1,1.5527832E1,3.6378345E1,2.3134186E1,3.1473389E0,3.916626E0,1.3634773E1,1.6761803E1,1.9646805E1,1.4433168E1,1.7191132E1,3.1994324E0,7.8515625E-1,7.20459E-1,3.7733154E0,6.836668E0,2.2524948E0,6.504944E0,1.058378E1,1.2341185E1,5.2385864E0,8.766133E0,3.2652187E0,2.0466309E0,6.6268883E0,2.5839233E0,0E0,1.7134652E0,3.848877E-1,0E0,1.4375916E0,1.642334E0,3.0350418E0,1.2439804E0,2.8406634E0,3.6105728E-1,2.792799E0,1.7297325E0,7.9302025E0,7.215715E0,3.1202278E0,9.951895E0,2.300401E0,1.1536121E0,1.127171E0,5.2365227E0,6.9312153E0,2.370098E0,1.5985577E0,8.0503845E-1,2.79813E0,3.7284086E0,4.3806562E0,1.6064224E0,2.6906471E0,1.1089286E0,8.0390215E-1,1.685791E-1,1.0722675E0,0E0,0E0,0E0,0E0,0E0,0E0,0E0,0E0,0E0,0E0,0E0,0E0,0E0,0E0,0E0,0E0,0E0,0E0,0E0,0E0,0E0,0E0,0E0,0E0,0E0,0E0,0E0,0E0,0E0,0E0,0E0,0E0,0E0,0E0,0E0,0E0,0E0,0E0,0E0,0E0,0E0,0E0,0E0,0E0,0E0,0E0,0E0,0E0,0E0,0E0,0E0,0E0,0E0,0E0,0E0,0E0,0E0,0E0],"parents":[2147483647,0,0,1,1,2,2,3,3,4,4,5,5,6,6,7,7,8,8,9,9,10,10,11,11,12,12,13,13,14,14,15,15,16,16,17,17,18,18,19,19,20,20,21,21,22,22,23,23,24,24,25,25,26,26,27,27,29,29,30,30,32,32,33,33,34,34,35,35,36,36,37,37,38,38,39,39,40,40,41,41,42,42,43,43,44,44,45,45,46,46,47,47,48,48,49,49,50,50,51,51,52,52,53,53,54,54,55,55,56,56,57,57,58,58,59,59,60,60],"right_children":[2,4,6,8,10,12,14,16,18,20,22,24,26,28,30,32,34,36,38,40,42,44,46,48,50,52,54,56,-1,58,60,-1,62,64,66,68,70,72,74,76,78,80,82,84,86,88,90,92,94,96,98,100,102,104,106,108,110,112,114,116,118,-1,-1,-1,-1,-1,-1,-1,-1,-1,-1,-1,-1,-1,-1,-1,-1,-1,-1,-1,-1,-1,-1,-1,-1,-1,-1,-1,-1,-1,-1,-1,-1,-1,-1,-1,-1,-1,-1,-1,-1,-1,-1,-1,-1,-1,-1,-1,-1,-1,-1,-1,-1,-1,-1,-1,-1,-1,-1],"split_conditions":[3.652E1,3.286E1,4.116E1,3.999E1,3.784E1,1E0,4.373E1,2.949E1,4.724772E-1,3.8E1,4.6123436E-1,4.4681667E1,4.233916E-1,5.9844345E-1,4.8607445E4,2.505E1,3.873E1,2.764E1,2.558E1,4E0,3.5935968E-1,2E1,5.23E1,3.547E1,2.3E1,1.1206E4,3.779E1,2E1,-2.8533056E-1,3.002E1,2.3E1,-1.0193685E0,5.4256E4,5.101E1,5.4692E4,2.41E1,6E0,-9.97E0,8E0,3.973E1,2.7765426E-1,4.4802E4,5.079E1,4E0,5.001E1,4.9592248E-1,5.6515443E-1,5.6725633E4,3.617884E-1,3.793E1,4.75325E1,3.9549E4,3.89E1,1.4E1,5.9844345E-1,1E0,6.5302E4,2E0,3.6148988E-2,4.5264065E-1,4.31E0,-4.6795687E-1,-4.4874623E-1,-3.0309802E-1,1.3146995E-1,-2.0829803E-1,-9.640388E-2,-1.9962169E-1,-3.0321938E-1,-2.1083444E-1,3.3806305E-2,-4.8121697E-1,-1.0312608E0,-2.5852147E-1,-3.0772144E-1,-1.4593734E-1,-8.521271E-3,-4.7598496E-2,-1.2530914E-1,-4.567268E-2,7.109894E-2,-9.171169E-2,4.984108E-2,-9.9939875E-2,1.6453537E-1,-1.3637191E-1,3.239433E-2,-6.5807186E-2,-1.801014E-1,1.4449643E-1,-3.134445E-2,-5.766895E-2,2.9020613E-2,8.42823E-2,-5.1958463E-3,6.28577E-2,1.631924E-1,-9.2201844E-2,6.408623E-2,-3.9763182E-2,2.9162875E-1,5.9836805E-2,1.6372067E-1,-4.1773908E-2,5.3836897E-2,9.982063E-2,-7.460747E-2,1.635696E-1,3.262238E-1,1.6894294E-1,-4.8303336E-2,2.7639267E-1,-9.8000675E-2,-2.4410019E-2,4.518926E-1,8.3739257E-1,4.6589607E-1,-9.198349E-2,3.7511662E-1],"split_indices":[8,8,8,11,11,2,8,8,3,9,3,12,3,3,19,8,10,8,8,4,3,4,10,9,4,2,8,4,0,11,4,0,0,9,0,10,4,9,4,10,3,0,10,4,10,3,3,19,3,8,12,0,8,4,3,4,0,5,3,3,10,0,0,0,0,0,0,0,0,0,0,0,0,0,0,0,0,0,0,0,0,0,0,0,0,0,0,0,0,0,0,0,0,0,0,0,0,0,0,0,0,0,0,0,0,0,0,0,0,0,0,0,0,0,0,0,0,0,0],"split_type":[0,0,0,0,0,0,0,0,0,0,0,0,0,0,0,0,0,0,0,0,0,0,0,0,0,0,0,0,0,0,0,0,0,0,0,0,0,0,0,0,0,0,0,0,0,0,0,0,0,0,0,0,0,0,0,0,0,0,0,0,0,0,0,0,0,0,0,0,0,0,0,0,0,0,0,0,0,0,0,0,0,0,0,0,0,0,0,0,0,0,0,0,0,0,0,0,0,0,0,0,0,0,0,0,0,0,0,0,0,0,0,0,0,0,0,0,0,0,0],"sum_hessian":[1.4857E4,7.736E3,7.121E3,6.032E3,1.704E3,1.981E3,5.14E3,5.316E3,7.16E2,1.189E3,5.15E2,8.59E2,1.122E3,8.01E2,4.339E3,4.267E3,1.049E3,2.23E2,4.93E2,8.82E2,3.07E2,3.58E2,1.57E2,6.27E2,2.32E2,7.83E2,3.39E2,7.97E2,4E0,3.6E1,4.303E3,2.931E3,1.336E3,8.07E2,2.42E2,7.3E1,1.5E2,2.55E2,2.38E2,3.33E2,5.49E2,1.74E2,1.33E2,3.07E2,5.1E1,1.37E2,2E1,3.01E2,3.26E2,2.2E2,1.2E1,5.61E2,2.22E2,1.06E2,2.33E2,5.9E2,2.07E2,9E0,2.7E1,4.136E3,1.67E2,9.82E2,3.54E2,8.05E2,2E0,1.68E2,7.4E1,1.5E1,5.8E1,1.4E1,1.36E2,8E0,2.47E2,5.5E1,1.83E2,3.22E2,1.1E1,2.36E2,3.13E2,3.5E1,1.39E2,1.18E2,1.5E1,2.7E1,2.8E2,4.7E1,4E0,3.3E1,1.04E2,1.6E1,4E0,1.72E2,1.29E2,2.37E2,8.9E1,6E1,1.6E2,7E0,5E0,1E0,5.6E2,1E2,1.22E2,7.9E1,2.7E1,2.15E2,1.8E1,3.6E1,5.54E2,1.99E2,8E0,3E0,6E0,1E0,2.6E1,3.959E3,1.77E2,3E0,1.64E2],"tree_param":{"num_deleted":"0","num_feature":"20","num_nodes":"119","size_leaf_vector":"1"}},{"base_weights":[-3.2994412E-3,-3.8610464E-1,4.1129032E-1,-4.480892E-1,-1.5344404E-1,2.4009146E-1,4.7646716E-1,-4.7009364E-1,-3.1445086E-1,-2.4515845E-1,5.9063137E-2,1.1239861E-1,3.3951175E-1,4.10197E-1,4.8965356E-1,-4.9373853E-1,-4.3035713E-1,-1.1046512E-1,-4.004934E-1,-4.0606937E-1,-1.744627E-1,2.0062695E-1,-2.0231214E-1,3.3492822E-2,3.206751E-1,4.2251655E-1,1.6051136E-1,4.5E-1,3.0128205E-1,1.904762E-1,4.9100676E-1,-4.6303502E-1,-2.977137E-2,-2.9605735E-2,-3.830071E-1,-4.1E-1,-3.827751E-2,-4.718543E-1,-3.2899022E-1,-4.690476E-1,-3.0656934E-1,-5.153509E-2,-3.4077382E-1,2.6132405E-1,-3.3333334E-1,-2.6573426E-1,9.677419E-2,-6.638418E-2,1.6240875E-1,3.4666666E-1,-1.5384616E-1,-1.25E-1,4.3077958E-1,-2.6119404E-2,2.739726E-1,2.0238096E-1,4.6689305E-1,-2.1875E-1,3.3789954E-1,2.6666665E-2,-0E0,4.6979865E-1,2.9861068E-2,-2.8685259E-2,8.571429E-3,-6.818182E-3,-2.552008E-2,1.5E-2,-2.5714286E-2,-1.6730769E-2,2.4683545E-3,-1.8260868E-2,-2.9035714E-2,-2.4477612E-2,-1.0654205E-2,-2.8421052E-2,1.5E-2,-2.2162162E-2,-2.2222223E-3,1.3350786E-3,-2.56E-2,-2.1894408E-2,1.2E-2,-1.8749999E-2,1.8749999E-2,1.5E-2,-2.6785713E-2,-7.384615E-3,-2.2784809E-2,1.764706E-2,-8E-3,-1.8367346E-2,-1.6666666E-3,-2.8571428E-3,1.34433955E-2,5E-3,2.3112245E-2,-2.625E-2,1.5E-2,-2E-2,2.2499999E-2,1.6764706E-2,2.7247276E-2,-1.12499995E-2,9.52381E-3,1.9171596E-2,7.0588235E-3,-2.4E-2,1.6578946E-2,2.9054621E-2,2.3421053E-2,-2.7272727E-2,1.5E-2,2.1857142E-2,-1.5E-2,-1.7142858E-2,1.7142858E-2,2.9188143E-2,2.5186567E-2],"categories":[],"categories_nodes":[],"categories_segments":[],"categories_sizes":[],"default_left":[0,0,0,0,0,0,0,0,0,0,0,0,0,0,0,0,0,0,0,0,0,0,0,0,0,0,0,0,0,0,0,0,0,0,0,0,0,0,0,0,0,0,0,0,0,0,0,0,0,0,0,0,0,0,0,0,0,0,0,0,0,0,0,0,0,0,0,0,0,0,0,0,0,0,0,0,0,0,0,0,0,0,0,0,0,0,0,0,0,0,0,0,0,0,0,0,0,0,0,0,0,0,0,0,0,0,0,0,0,0,0,0,0,0,0,0,0,0,0],"id":3,"left_children":[1,3,5,7,9,11,13,15,17,19,21,23,25,27,29,31,33,35,37,39,41,43,45,47,49,51,53,55,57,59,61,63,-1,-1,65,67,69,71,73,75,77,79,81,83,85,87,89,91,93,95,97,99,101,103,105,107,109,111,113,-1,115,117,-1,-1,-1,-1,-1,-1,-1,-1,-1,-1,-1,-1,-1,-1,-1,-1,-1,-1,-1,-1,-1,-1,-1,-1,-1,-1,-1,-1,-1,-1,-1,-1,-1,-1,-1,-1,-1,-1,-1,-1,-1,-1,-1,-1,-1,-1,-1,-1,-1,-1,-1,-1,-1,-1,-1,-1,-1],"loss_changes":[2.3571182E3,1.1129321E2,7.94436E1,1.7781128E1,3.170517E1,2.4946114E1,4.310913E0,4.7043457E0,1.5137764E1,1.28519745E1,1.820822E1,1.4171992E1,1.6365005E1,3.6056519E0,1.6477051E0,1.6662598E-2,5.664459E0,5.562964E0,2.9470978E0,2.0243568E0,1.6153822E1,1.0425843E1,3.3072996E0,8.083869E0,2.976385E0,3.469574E0,7.460881E0,2.5408325E0,4.529806E0,1.015873E0,3.725586E-1,2.4122086E0,0E0,0E0,1.2767303E1,7.2000027E-1,4.004454E0,4.6351624E-1,3.5985565E0,8.185463E-1,2.3052683E0,1.2631395E1,4.4579506E0,8.525698E0,2.2886903E0,2.2791185E0,1.4469323E0,3.26792E0,3.5583563E0,2.2512417E0,1.5985577E0,1.375E0,2.5018158E0,4.027134E0,1.521965E0,1.9810776E0,5.932007E-1,1.8821023E0,3.4882908E0,0E0,1.1428572E0,6.655426E-1,0E0,0E0,0E0,0E0,0E0,0E0,0E0,0E0,0E0,0E0,0E0,0E0,0E0,0E0,0E0,0E0,0E0,0E0,0E0,0E0,0E0,0E0,0E0,0E0,0E0,0E0,0E0,0E0,0E0,0E0,0E0,0E0,0E0,0E0,0E0,0E0,0E0,0E0,0E0,0E0,0E0,0E0,0E0,0E0,0E0,0E0,0E0,0E0,0E0,0E0,0E0,0E0,0E0,0E0,0E0,0E0,0E0],"parents":[2147483647,0,0,1,1,2,2,3,3,4,4,5,5,6,6,7,7,8,8,9,9,10,10,11,11,12,12,13,13,14,14,15,15,16,16,17,17,18,18,19,19,20,20,21,21,22,22,23,23,24,24,25,25,26,26,27,27,28,28,29,29,30,30,31,31,34,34,35,35,36,36,37,37,38,38,39,39,40,40,41,41,42,42,43,43,44,44,45,45,46,46,47,47,48,48,49,49,50,50,51,51,52,52,53,53,54,54,55,55,56,56,57,57,58,58,60,60,61,61],"right_children":[2,4,6,8,10,12,14,16,18,20,22,24,26,28,30,32,34,36,38,40,42,44,46,48,50,52,54,56,58,60,62,64,-1,-1,66,68,70,72,74,76,78,80,82,84,86,88,90,92,94,96,98,100,102,104,106,108,110,112,114,-1,116,118,-1,-1,-1,-1,-1,-1,-1,-1,-1,-1,-1,-1,-1,-1,-1,-1,-1,-1,-1,-1,-1,-1,-1,-1,-1,-1,-1,-1,-1,-1,-1,-1,-1,-1,-1,-1,-1,-1,-1,-1,-1,-1,-1,-1,-1,-1,-1,-1,-1,-1,-1,-1,-1,-1,-1,-1,-1],"split_conditions":[3.652E1,3.3E1,4.116E1,3.879E1,3.784E1,1E0,4.39E1,2.64E1,4.6123436E-1,4E0,4.367095E-1,4.4681667E1,4.1474348E-1,2E1,1.883512E1,1.9533534E-1,6E0,4.7666E4,2.536E1,3.504E1,3.5935968E-1,2.1E1,4.941E1,3.721E1,2.3E1,1.883512E1,3.8E1,1E0,2.8085833E1,5.186825E4,4.711E1,5.2082E4,-9.2640644E-1,-3.4536642E-1,8E0,3.779E3,2.744E1,1.454E1,4.738E1,4.323E1,4.9118E4,2.1E1,5.079E1,4E0,2.2575349E-1,5.0644E-1,3.9924583E1,4.2306E4,3.41E1,3.724E1,4.75325E1,2.819E1,3.708E1,1.3E1,2.0951E4,3.4665417E1,4.3391794E-1,5.493E4,6.4671E4,3.9896014E-1,3.002E1,2E1,9.140491E-1,-6.0750645E-1,2.5963783E-2,-8.281929E-2,-3.1857318E-1,3.760803E-1,-2.9176924E-1,-2.4802859E-1,1.8133622E-2,-5.2951455E-1,-9.849852E-1,-3.0957365E-1,-2.580498E-1,-1.5800674E-1,2.292334E-1,-6.181297E-2,-5.2455137E-3,8.528595E-3,-2.3357145E-1,-1.2285598E-1,5.662994E-2,-9.39434E-2,1.3966323E-1,7.3662415E-2,-1.3058968E-1,-3.6658745E-2,-2.2270122E-1,1.358266E-1,-4.7076415E-2,-1.0428303E-1,-6.2063597E-3,-1.9892577E-2,9.236389E-2,8.665238E-3,1.2986526E-1,-8.6669765E-2,6.024101E-2,-2.077589E-1,3.3511505E-1,1.4133911E-1,2.3462665E-1,-4.4667434E-2,3.1196823E-2,1.12755544E-1,3.8631476E-2,-1.1954464E-1,1.5990028E-1,3.5581902E-1,2.0351028E-1,-1.7348923E-1,3.3026412E-1,1.6254912E-1,-5.4501113E-2,-1.0895805E-1,4.0944338E-1,4.3287894E-1,2.6230955E-1],"split_indices":[8,8,8,11,11,2,8,8,3,4,3,12,3,4,13,3,4,0,8,8,3,4,10,10,4,13,8,4,12,18,8,14,0,0,4,1,8,10,11,10,16,4,10,4,3,3,12,0,11,8,12,11,8,4,2,12,3,17,0,0,11,4,0,0,0,0,0,0,0,0,0,0,0,0,0,0,0,0,0,0,0,0,0,0,0,0,0,0,0,0,0,0,0,0,0,0,0,0,0,0,0,0,0,0,0,0,0,0,0,0,0,0,0,0,0,0,0,0,0],"split_type":[0,0,0,0,0,0,0,0,0,0,0,0,0,0,0,0,0,0,0,0,0,0,0,0,0,0,0,0,0,0,0,0,0,0,0,0,0,0,0,0,0,0,0,0,0,0,0,0,0,0,0,0,0,0,0,0,0,0,0,0,0,0,0,0,0,0,0,0,0,0,0,0,0,0,0,0,0,0,0,0,0,0,0,0,0,0,0,0,0,0,0,0,0,0,0,0,0,0,0,0,0,0,0,0,0,0,0,0,0,0,0,0,0,0,0,0,0,0,0],"sum_hessian":[1.485E4,7.721E3,7.129E3,6.096E3,1.625E3,1.967E3,5.162E3,5.232E3,8.64E2,1.135E3,4.9E2,8.62E2,1.105E3,8.62E2,4.3E3,3.273E3,1.959E3,2.57E2,6.07E2,3.45E2,7.9E2,3.18E2,1.72E2,6.26E2,2.36E2,7.54E2,3.51E2,6.29E2,2.33E2,2E1,4.28E3,2.56E2,3.017E3,8.36E2,1.123E3,4.9E1,2.08E2,3.01E2,3.06E2,2.09E2,1.36E2,4.55E2,3.35E2,2.86E2,3.2E1,1.42E2,3E1,3.53E2,2.73E2,2.24E2,1.2E1,1.1E1,7.43E2,1.33E2,2.18E2,4.1E1,5.88E2,1.5E1,2.18E2,8E0,1.2E1,1.042E3,3.238E3,2.5E2,6E0,1.53E2,9.7E2,1E0,4.8E1,5.1E1,1.57E2,2.2E1,2.79E2,2E2,1.06E2,2.08E2,1E0,1.1E2,2.6E1,3.81E2,7.4E1,3.21E2,1.4E1,2.3E1,2.63E2,5E0,2.7E1,6.4E1,7.8E1,1.6E1,1.4E1,4.8E1,3.05E2,6.2E1,2.11E2,2.9E1,1.95E2,7E0,5E0,8E0,3E0,1.01E2,6.42E2,7.1E1,6.2E1,1.68E2,5E1,4E0,3.7E1,4.75E2,1.13E2,1E1,5E0,2.09E2,9E0,6E0,6E0,7.75E2,2.67E2],"tree_param":{"num_deleted":"0","num_feature":"20","num_nodes":"119","size_leaf_vector":"1"}},{"base_weights":[-8.7748904E-4,-4.013493E-1,3.842182E-1,-4.643676E-1,-2.3866995E-1,1.196845E-1,4.4742453E-1,-4.8997006E-1,-4.1899735E-1,-3.1455863E-1,-1.3645224E-2,1.4459556E-1,-4.4354838E-1,3.5430267E-1,4.8288757E-1,-4.9287975E-1,-4.364641E-1,-4.373928E-1,-1.9727892E-1,-3.6641854E-1,-1.1129032E-1,1.6883117E-1,-1.6254418E-1,-1.4438502E-1,1.8909992E-1,2E-1,-2.9482758E-2,2.4929379E-1,4.299591E-1,1.25E-1,4.84407E-1,-2.995909E-2,-4.776275E-1,-4.4662923E-1,1.25E-1,-4.7802734E-1,-3.7947658E-1,-1.1504425E-1,-4.5714286E-1,-4.4078946E-1,-3.0752212E-1,1.1153846E-1,-2.7071825E-1,-2.8846154E-1,2.2572815E-1,-2.84375E-1,-4.032258E-3,-2.9411766E-1,-1.9417476E-2,3.0861583E-1,2.0833334E-2,2.2499999E-2,-1.5E-2,2.711111E-1,-1.9117647E-1,4.6728972E-1,3.0652174E-1,-1.5E-1,3.6363637E-1,4.509009E-1,4.9558467E-1,1.5E-2,-2.8718749E-2,-1.0714286E-2,-2.7999999E-2,2E-2,-1.5E-2,-2.9804176E-2,-2.5250964E-2,-7.4482756E-3,-2.654639E-2,-1.5E-2,5E-4,-2.9117646E-2,1.5E-2,-2.9024998E-2,-1.849624E-2,-1.1401869E-2,-2.472067E-2,-9.473683E-3,1.9054053E-2,-1.8404908E-2,3.1578946E-3,-2.0869564E-2,7.5E-3,1.6190477E-2,-1.5E-2,-1.9072847E-2,1.5E-2,3.853211E-3,-2.8125E-2,2E-2,-1.8795181E-2,1.9199999E-2,-7.5949365E-3,9.288702E-3,2.3170212E-2,3.8169643E-3,-1.8947367E-2,8.502024E-3,2.06993E-2,-2.6999999E-2,-4.7999998E-3,7.0588235E-3,2.8485674E-2,1.9772727E-2,-1.0909091E-2,2.2499999E-2,-2.5714286E-2,-1.5E-2,2.6999999E-2,2.7755102E-2,1.7926829E-2,2E-2,2.9770643E-2],"categories":[],"categories_nodes":[],"categories_segments":[],"categories_sizes":[],"default_left":[0,0,0,0,0,0,0,0,0,0,0,0,0,0,0,0,0,0,0,0,0,0,0,0,0,0,0,0,0,0,0,0,0,0,0,0,0,0,0,0,0,0,0,0,0,0,0,0,0,0,0,0,0,0,0,0,0,0,0,0,0,0,0,0,0,0,0,0,0,0,0,0,0,0,0,0,0,0,0,0,0,0,0,0,0,0,0,0,0,0,0,0,0,0,0,0,0,0,0,0,0,0,0,0,0,0,0,0,0,0,0,0,0,0,0],"id":4,"left_children":[1,3,5,7,9,11,13,15,17,19,21,23,25,27,29,31,33,35,37,39,41,43,45,47,49,51,-1,53,55,57,59,-1,61,63,65,67,69,71,73,75,77,79,81,83,85,87,89,91,93,95,97,-1,-1,99,101,103,105,107,109,111,113,-1,-1,-1,-1,-1,-1,-1,-1,-1,-1,-1,-1,-1,-1,-1,-1,-1,-1,-1,-1,-1,-1,-1,-1,-1,-1,-1,-1,-1,-1,-1,-1,-1,-1,-1,-1,-1,-1,-1,-1,-1,-1,-1,-1,-1,-1,-1,-1,-1,-1,-1,-1,-1,-1],"loss_changes":[2.284923E3,7.434778E1,1.2623401E2,5.8745117E0,3.4661682E1,2.0520939E1,1.9960205E1,3.048706E-1,7.6427E0,1.5961182E1,1.3965931E1,1.7993975E1,2.00673E0,1.3279465E1,2.338745E0,7.183838E-2,1.0888596E0,3.9346924E0,3.0887728E0,5.16008E0,1.1042984E1,6.075405E0,5.4640465E0,3.4933803E0,2.4347424E1,4.875E-1,0E0,6.855625E0,4.363388E0,1.3670455E0,1.421875E0,0E0,8.317566E-1,8.727417E-1,3.9583334E-1,8.863678E-1,1.1616943E1,1.8835914E0,8.180671E-1,2.8795853E0,8.245186E0,7.2665825E0,2.1248617E0,6.816473E-1,4.390546E0,2.9442158E0,3.9631503E0,1.12497E0,3.7869878E0,8.385376E0,7.278518E0,0E0,0E0,6.4044533E0,9.423531E-1,1.9008026E0,2.6458988E0,1.6232142E0,6.954546E-1,1.8346863E0,1.5045166E-1,0E0,0E0,0E0,0E0,0E0,0E0,0E0,0E0,0E0,0E0,0E0,0E0,0E0,0E0,0E0,0E0,0E0,0E0,0E0,0E0,0E0,0E0,0E0,0E0,0E0,0E0,0E0,0E0,0E0,0E0,0E0,0E0,0E0,0E0,0E0,0E0,0E0,0E0,0E0,0E0,0E0,0E0,0E0,0E0,0E0,0E0,0E0,0E0,0E0,0E0,0E0,0E0,0E0,0E0],"parents":[2147483647,0,0,1,1,2,2,3,3,4,4,5,5,6,6,7,7,8,8,9,9,10,10,11,11,12,12,13,13,14,14,15,15,16,16,17,17,18,18,19,19,20,20,21,21,22,22,23,23,24,24,25,25,27,27,28,28,29,29,30,30,32,32,33,33,34,34,35,35,36,36,37,37,38,38,39,39,40,40,41,41,42,42,43,43,44,44,45,45,46,46,47,47,48,48,49,49,50,50,53,53,54,54,55,55,56,56,57,57,58,58,59,59,60,60],"right_children":[2,4,6,8,10,12,14,16,18,20,22,24,26,28,30,32,34,36,38,40,42,44,46,48,50,52,-1,54,56,58,60,-1,62,64,66,68,70,72,74,76,78,80,82,84,86,88,90,92,94,96,98,-1,-1,100,102,104,106,108,110,112,114,-1,-1,-1,-1,-1,-1,-1,-1,-1,-1,-1,-1,-1,-1,-1,-1,-1,-1,-1,-1,-1,-1,-1,-1,-1,-1,-1,-1,-1,-1,-1,-1,-1,-1,-1,-1,-1,-1,-1,-1,-1,-1,-1,-1,-1,-1,-1,-1,-1,-1,-1,-1,-1,-1],"split_conditions":[3.565E1,3.071E1,3.89E1,2.558E1,3.855E1,2.3E1,4.35E1,4.478E1,4.434E1,3.772E1,3.5319537E-1,2E0,1.992E1,1E0,1.9191488E1,2.131E1,5.899E1,5.0977E4,4.141E3,5E0,3.3330348E-1,4.4802E4,3.999E1,5.4074633E4,3.617884E-1,5.3974E4,-1.4057717E-1,5.413233E-1,4.290233E-1,3.002E1,4.697E1,-1.1858221E0,-4E1,1.984E1,4.8505E4,2.86E2,3.107437E-1,4E1,1.8E1,3.465E1,3.489377E-1,5.1573E4,4.451E1,4.265125E1,2E1,6.181633E4,2E1,3.6739E4,1.442286E-1,3.287E1,2E1,1.5811844E-2,-1.5802574E-1,3.599E1,5.493E4,2.0553333E1,5.9844345E-1,4.7523E4,1.731E3,2.3E1,2.1752678E1,6.3779065E-3,-4.95222E-1,-4.988731E-1,-7.148422E-1,2.7087122E-1,-1.2882808E-1,-3.9649862E-1,-3.052699E-1,-9.767217E-2,-3.744667E-1,-2.6715213E-1,3.9779663E-4,-3.0613175E-1,1.484175E-1,-1.999902E-1,-4.688324E-2,-8.4286764E-2,-1.8340564E-1,-6.861133E-2,1.4364555E-1,-1.4934906E-1,2.8145598E-2,-4.1944083E-2,2.2555847E-2,1.0618332E-1,-1.0408584E-1,-1.04045905E-1,2.3858642E-2,5.616451E-2,-3.6678633E-1,4.0644377E-2,-9.091541E-2,5.639717E-2,-1.2775039E-2,3.3849563E-2,1.7992927E-1,1.6484069E-2,-1.3902476E-1,6.1736412E-2,1.5764156E-1,-1.0865135E-1,-1.6848804E-1,6.0491066E-2,2.8712642E-1,1.2906623E-1,-1.20209195E-1,4.4987434E-1,-1.4601116E-1,-4.7511976E-2,6.775598E-1,3.6370707E-1,1.3857079E-1,4.973331E-1,8.428667E-1],"split_indices":[8,8,8,8,9,4,8,11,11,11,3,4,11,2,13,8,9,0,2,4,3,0,11,19,3,0,0,3,3,11,8,0,9,10,0,2,3,10,4,8,3,0,10,12,4,19,4,17,3,11,4,0,0,9,17,13,3,15,1,4,13,0,0,0,0,0,0,0,0,0,0,0,0,0,0,0,0,0,0,0,0,0,0,0,0,0,0,0,0,0,0,0,0,0,0,0,0,0,0,0,0,0,0,0,0,0,0,0,0,0,0,0,0,0,0],"split_type":[0,0,0,0,0,0,0,0,0,0,0,0,0,0,0,0,0,0,0,0,0,0,0,0,0,0,0,0,0,0,0,0,0,0,0,0,0,0,0,0,0,0,0,0,0,0,0,0,0,0,0,0,0,0,0,0,0,0,0,0,0,0,0,0,0,0,0,0,0,0,0,0,0,0,0,0,0,0,0,0,0,0,0,0,0,0,0,0,0,0,0,0,0,0,0,0,0,0,0,0,0,0,0,0,0,0,0,0,0,0,0,0,0,0,0],"sum_hessian":[1.4814E4,7.262E3,7.552E3,5.233E3,2.029E3,1.457E3,6.095E3,3.339E3,1.894E3,1.517E3,5.12E2,1.396E3,6.1E1,1.684E3,4.411E3,3.159E3,1.8E2,1.748E3,1.46E2,1.208E3,3.09E2,2.3E2,2.82E2,1.86E2,1.21E3,4E0,5.7E1,7.07E2,9.77E2,1.9E1,4.392E3,2.199E3,9.6E2,1.77E2,3E0,1.023E3,7.25E2,1.12E2,3.4E1,5.31E2,6.77E2,1.29E2,1.8E2,2.5E1,2.05E2,1.59E2,1.23E2,8.4E1,1.02E2,7.07E2,5.03E2,3E0,1E0,6.74E2,3.3E1,7.48E2,2.29E2,9E0,1E1,1.109E3,3.283E3,1E0,9.59E2,1.3E1,1.64E2,2E0,1E0,7.65E2,2.58E2,1.44E2,5.81E2,5.3E1,5.9E1,3.3E1,1E0,3.99E2,1.32E2,3.2E2,3.57E2,5.6E1,7.3E1,1.62E2,1.8E1,2.2E1,3E0,1.88E2,1.7E1,1.5E2,9E0,1.08E2,1.5E1,2E0,8.2E1,2.4E1,7.8E1,2.38E2,4.69E2,4.47E2,5.6E1,2.46E2,4.28E2,9E0,2.4E1,1.6E1,7.32E2,2.19E2,1E1,3E0,6E0,1E0,9E0,1.028E3,8.1E1,1.4E1,3.269E3],"tree_param":{"num_deleted":"0","num_feature":"20","num_nodes":"115","size_leaf_vector":"1"}},{"base_weights":[-1.0733212E-3,-3.929399E-1,3.786818E-1,-4.5730442E-1,-2.2479095E-1,1.8413174E-1,4.6551394E-1,-4.796095E-1,-3.8531747E-1,-3.2233307E-1,-5.0615594E-2,5.496109E-2,2.852784E-1,3.9088398E-1,4.8493612E-1,-4.3055555E-1,-4.8944396E-1,-1.20300755E-1,-4.162234E-1,-3.7619504E-1,-1.02713175E-1,3.32681E-2,-2.4434389E-1,-4.107425E-2,2.0833333E-1,3.951094E-1,1.2523365E-1,3.0591258E-1,4.3767908E-1,1.4285715E-1,4.865585E-1,-4.8495576E-1,-1.7083333E-1,-4.924708E-1,-3.9545456E-1,-4.5714286E-1,-0E0,-3.5541046E-1,-4.7048903E-1,-4.2431194E-1,-2.951654E-1,1.2903225E-1,-2.3192771E-1,-3.5465115E-1,1.1150235E-1,-3.2228917E-1,-8.928572E-3,-1.4929578E-1,9.677419E-2,1.7391304E-2,2.8546098E-1,4.0784314E-1,-3.846154E-1,-4.9792532E-2,2.677966E-1,1.9293478E-1,4.053398E-1,4.4850746E-1,1.724138E-1,-3.125E-1,3.9285713E-1,4.635379E-1,2.987978E-2,-2.9202126E-2,1.5E-2,-1.7386362E-2,9.090909E-3,-2.9664429E-2,-2.6428571E-2,-2.8101265E-2,-1.21875E-2,-2.9117646E-2,1.5E-2,1.3170731E-2,-9.152542E-3,-2.28125E-2,-8.421052E-3,-2.9787734E-2,-2.417647E-2,-2.7440477E-2,-1.8675497E-2,-4.32E-3,-2.3866171E-2,-9.230769E-3,1.9636363E-2,-1.8222222E-2,4.6874997E-3,-2.3780487E-2,2.4E-2,9.971346E-3,-8.076923E-3,-2.0754717E-2,1.12499995E-2,1.0909091E-2,-1.625E-2,-1.094225E-2,1.5555555E-2,-8.759124E-4,1.2167832E-2,-2.4E-2,4.752475E-3,1.9391634E-2,-1.3499999E-2,2.6578948E-2,1.8214285E-2,-2.75E-2,1.5E-2,1.1290322E-3,-1.6607141E-2,1.8609023E-2,-6.9999998E-3,-8.333334E-3,1.36526935E-2,2.4585364E-2,-1.5E-2,2.8404254E-2,2.3283582E-2,-1.3333333E-2,2E-2,-2.5714286E-2,1.5E-2,-1.5E-2,2.7692307E-2,2.569091E-2,2.917464E-2],"categories":[],"categories_nodes":[],"categories_segments":[],"categories_sizes":[],"default_left":[0,0,0,0,0,0,0,0,0,0,0,0,0,0,0,0,0,0,0,0,0,0,0,0,0,0,0,0,0,0,0,0,0,0,0,0,0,0,0,0,0,0,0,0,0,0,0,0,0,0,0,0,0,0,0,0,0,0,0,0,0,0,0,0,0,0,0,0,0,0,0,0,0,0,0,0,0,0,0,0,0,0,0,0,0,0,0,0,0,0,0,0,0,0,0,0,0,0,0,0,0,0,0,0,0,0,0,0,0,0,0,0,0,0,0,0,0,0,0,0,0,0,0,0,0],"id":5,"left_children":[1,3,5,7,9,11,13,15,17,19,21,23,25,27,29,31,33,35,37,39,41,43,45,47,49,51,53,55,57,59,61,63,65,67,69,71,73,75,77,79,81,83,85,87,89,91,93,95,97,99,101,103,105,107,109,111,113,115,117,119,121,123,-1,-1,-1,-1,-1,-1,-1,-1,-1,-1,-1,-1,-1,-1,-1,-1,-1,-1,-1,-1,-1,-1,-1,-1,-1,-1,-1,-1,-1,-1,-1,-1,-1,-1,-1,-1,-1,-1,-1,-1,-1,-1,-1,-1,-1,-1,-1,-1,-1,-1,-1,-1,-1,-1,-1,-1,-1,-1,-1,-1,-1,-1,-1],"loss_changes":[2.2185093E3,7.930432E1,1.2781262E2,8.333252E0,3.452321E1,3.0530716E1,7.3969727E0,1.7411499E0,1.0270065E1,1.5374741E1,1.1887351E1,1.5150128E1,2.299511E1,4.1842957E0,2.2331543E0,9.581345E0,7.619629E-1,5.389474E0,3.555252E0,3.953003E0,7.755705E0,1.5547665E1,4.0523643E0,9.457649E0,5.826893E0,7.8715515E0,1.3362788E1,4.291462E0,1.9276123E0,2.513393E0,8.563843E-1,8.468628E-1,4.6446967E0,1.0986328E-1,1.4471531E0,8.180671E-1,3.3484912E0,2.8051453E0,8.4033203E-1,2.299736E0,8.97015E0,5.2655993E0,3.717947E0,2.8642378E0,5.7560687E0,2.0639381E0,2.8468614E0,4.844388E0,3.2974129E0,2.9988809E0,5.5043736E0,2.668518E0,7.227564E-1,3.7585287E0,4.8398075E0,2.144744E0,6.986389E-1,8.246155E-1,1.9157088E0,6.2946427E-1,7.3351645E-1,9.03656E-1,0E0,0E0,0E0,0E0,0E0,0E0,0E0,0E0,0E0,0E0,0E0,0E0,0E0,0E0,0E0,0E0,0E0,0E0,0E0,0E0,0E0,0E0,0E0,0E0,0E0,0E0,0E0,0E0,0E0,0E0,0E0,0E0,0E0,0E0,0E0,0E0,0E0,0E0,0E0,0E0,0E0,0E0,0E0,0E0,0E0,0E0,0E0,0E0,0E0,0E0,0E0,0E0,0E0,0E0,0E0,0E0,0E0,0E0,0E0,0E0,0E0,0E0,0E0],"parents":[2147483647,0,0,1,1,2,2,3,3,4,4,5,5,6,6,7,7,8,8,9,9,10,10,11,11,12,12,13,13,14,14,15,15,16,16,17,17,18,18,19,19,20,20,21,21,22,22,23,23,24,24,25,25,26,26,27,27,28,28,29,29,30,30,31,31,32,32,33,33,34,34,35,35,36,36,37,37,38,38,39,39,40,40,41,41,42,42,43,43,44,44,45,45,46,46,47,47,48,48,49,49,50,50,51,51,52,52,53,53,54,54,55,55,56,56,57,57,58,58,59,59,60,60,61,61],"right_children":[2,4,6,8,10,12,14,16,18,20,22,24,26,28,30,32,34,36,38,40,42,44,46,48,50,52,54,56,58,60,62,64,66,68,70,72,74,76,78,80,82,84,86,88,90,92,94,96,98,100,102,104,106,108,110,112,114,116,118,120,122,124,-1,-1,-1,-1,-1,-1,-1,-1,-1,-1,-1,-1,-1,-1,-1,-1,-1,-1,-1,-1,-1,-1,-1,-1,-1,-1,-1,-1,-1,-1,-1,-1,-1,-1,-1,-1,-1,-1,-1,-1,-1,-1,-1,-1,-1,-1,-1,-1,-1,-1,-1,-1,-1,-1,-1,-1,-1,-1,-1,-1,-1,-1,-1],"split_conditions":[3.565E1,3.071E1,4.1E1,3.439E1,3.65E1,1E0,4.432E1,2.3876837E-1,2.883141E-1,3.772E1,4.501522E-1,4.095869E1,9.788E3,3.839E1,1.883512E1,4.9722E4,4.17E1,4.7296E4,5.739765E-1,6E0,3.0863938E-1,4.4802E4,4.618E1,3.841E1,3.708E1,5.9844345E-1,3.793E1,2E0,5.1698995E-1,5.4109E4,4.9E1,7.006E3,2.89E1,6.4447418E4,5.6573E4,3.239E3,5.0858125E4,5.088E1,4.478E1,3.465E1,7.123E3,5.1573E4,4.126E1,4.116E1,9.788E3,3.55E1,5.378667E-1,6.6599E4,3.577E1,4.1857E4,5.3422827E-1,1.9613E4,6.9101757E-1,4.8759547E-1,5.0644E-1,2.486006E1,5.9844345E-1,3.5118327E-1,5.636223E4,4.1E1,1.529E3,1E0,8.962344E-1,-4.3430728E-1,5.361145E-2,-2.4658974E-1,4.450092E-2,-6.754377E-1,-4.9967274E-1,-4.453907E-1,-3.0480263E-1,-2.758002E-1,1.0563057E-1,5.275383E-2,-1.0474022E-1,-2.885891E-1,-2.0759702E-1,-8.4513676E-1,-6.5079564E-1,-2.1105412E-1,-6.897342E-2,-1.733345E-2,-1.6584343E-1,-4.600685E-2,1.4426468E-1,-1.4782517E-1,1.868637E-2,-9.5574185E-2,2.3816906E-1,5.304611E-2,-4.140564E-2,-1.6732155E-1,2.7841186E-2,1.4632712E-1,-1.7020546E-1,-4.4122122E-2,1.158443E-1,-1.9416045E-3,8.235191E-2,-6.604751E-2,7.159538E-3,9.762634E-2,-1.9441475E-1,2.3838912E-1,1.4712226E-1,-1.5446754E-1,1.1540199E-1,2.901764E-3,-6.382804E-2,9.753731E-2,-3.803032E-2,-1.3297119E-2,9.70697E-2,2.110738E-1,-1.516976E-1,3.088424E-1,1.9843231E-1,-7.2060466E-2,2.2115123E-1,-3.894653E-2,6.903172E-1,-5.3081316E-1,6.227131E-1,3.2295388E-1,4.345539E-1],"split_indices":[8,8,8,11,9,2,8,3,3,11,3,13,2,9,13,0,9,17,3,2,3,0,11,8,8,3,8,2,3,0,8,2,11,18,0,2,18,11,11,8,2,0,10,11,2,8,3,0,9,0,3,1,3,3,3,13,3,3,19,2,1,2,0,0,0,0,0,0,0,0,0,0,0,0,0,0,0,0,0,0,0,0,0,0,0,0,0,0,0,0,0,0,0,0,0,0,0,0,0,0,0,0,0,0,0,0,0,0,0,0,0,0,0,0,0,0,0,0,0,0,0,0,0,0,0],"split_type":[0,0,0,0,0,0,0,0,0,0,0,0,0,0,0,0,0,0,0,0,0,0,0,0,0,0,0,0,0,0,0,0,0,0,0,0,0,0,0,0,0,0,0,0,0,0,0,0,0,0,0,0,0,0,0,0,0,0,0,0,0,0,0,0,0,0,0,0,0,0,0,0,0,0,0,0,0,0,0,0,0,0,0,0,0,0,0,0,0,0,0,0,0,0,0,0,0,0,0,0,0,0,0,0,0,0,0,0,0,0,0,0,0,0,0,0,0,0,0,0,0,0,0,0,0],"sum_hessian":[1.4906E4,7.336E3,7.57E3,5.304E3,2.032E3,2.337E3,5.233E3,4.045E3,1.259E3,1.302E3,7.3E2,1.027E3,1.31E3,1.085E3,4.148E3,6.83E2,3.362E3,1.32E2,1.127E3,1.045E3,2.57E2,5.1E2,2.2E2,6.32E2,3.95E2,7.76E2,5.34E2,3.88E2,6.97E2,2E1,4.128E3,5.64E2,1.19E2,3.253E3,1.09E2,3.4E1,9.8E1,5.35E2,5.92E2,6.53E2,3.92E2,9.2E1,1.65E2,8.5E1,4.25E2,1.65E2,5.5E1,3.54E2,2.78E2,1.14E2,2.81E2,7.64E2,1.2E1,2.4E2,2.94E2,1.83E2,2.05E2,6.69E2,2.8E1,7E0,1.3E1,1.384E3,2.744E3,5.63E2,1E0,8.7E1,3.2E1,3.128E3,1.25E2,7.8E1,3.1E1,3.3E1,1E0,4E1,5.8E1,4.79E2,5.6E1,4.23E2,1.69E2,5.03E2,1.5E2,1.24E2,2.68E2,3.8E1,5.4E1,1.34E2,3.1E1,8.1E1,4E0,3.48E2,7.7E1,1.58E2,7E0,3.2E1,2.3E1,3.28E2,2.6E1,1.36E2,1.42E2,1.4E1,1E2,2.62E2,1.9E1,5.69E2,1.95E2,1.1E1,1E0,1.85E2,5.5E1,2.65E2,2.9E1,1.7E1,1.66E2,2.04E2,1E0,4.69E2,2E2,8E0,2E1,6E0,1E0,1E0,1.2E1,5.49E2,8.35E2],"tree_param":{"num_deleted":"0","num_feature":"20","num_nodes":"125","size_leaf_vector":"1"}},{"base_weights":[-1.9556275E-3,-3.9148086E-1,3.722237E-1,-4.5587113E-1,-2.2414646E-1,1.509009E-1,4.5158973E-1,-4.7306585E-1,-3.4986413E-1,-3.270416E-1,-3.936464E-2,2.01497E-1,-1.0638298E-1,3.7772787E-1,4.8017457E-1,-4.9204102E-1,-4.4094956E-1,-4.4759208E-1,-2.591146E-1,-3.6063465E-1,-3.0075189E-2,6.22084E-3,-3.9634147E-1,-1.3888889E-2,2.682353E-1,-2.6648352E-1,9.1216214E-2,4.2237642E-1,2.5E-1,4.761905E-2,4.8233083E-1,-2.989604E-2,-4.7586635E-1,-2.9711142E-2,-3.9937434E-1,-5E-2,-4.5784885E-1,-3.3476394E-1,-1.4144737E-1,-4.4418052E-1,-3.1300268E-1,1.2E-1,-2.2033899E-1,-9.615385E-2,3.4333333E-1,2E-2,-4.1875E-1,-1.2355212E-1,1.9202898E-1,3.73599E-1,8.8794924E-2,-3.4016395E-1,-1.14754096E-1,2.739726E-1,-8.552632E-2,2.72E-1,4.4023323E-1,1.130137E-1,3.256705E-1,-2.625E-2,3.2142857E-1,4.9346516E-1,4.48858E-1,1.5E-2,-2.8624535E-2,2.0624999E-2,-2.4692796E-2,-1.7142858E-2,2.2499999E-2,-2.7781066E-2,-8.571429E-3,-8.142858E-3,-2.5060974E-2,2.264151E-3,-1.4099999E-2,-2.810959E-2,-1.6842104E-2,-1.0958904E-2,-2.1988636E-2,-1.1785714E-2,1.8125E-2,-2.4E-2,2.3999999E-3,3.3206106E-3,-1.5965665E-2,1.2786885E-2,2.5666665E-2,-2.8615383E-2,-9.374999E-3,-2.0898877E-2,-3.5087718E-4,2.6086955E-3,2.0142857E-2,2.5037937E-2,1.0344828E-2,-1.0140846E-3,2.420168E-2,-1.6E-2,-2.6874999E-2,5.357143E-3,-1.6764706E-2,2.1639343E-2,-9.230769E-3,-1.3695653E-2,7.741935E-3,-9.5999995E-3,2.2574257E-2,2.8783783E-2,2.2005493E-2,1.9444444E-3,2E-2,2.1938326E-2,3.4285714E-3,-1.5E-2,2.3076924E-2,2.9735822E-2,2.6917808E-2,2.2997119E-2,2.8956126E-2],"categories":[],"categories_nodes":[],"categories_segments":[],"categories_sizes":[],"default_left":[0,0,0,0,0,0,0,0,0,0,0,0,0,0,0,0,0,0,0,0,0,0,0,0,0,0,0,0,0,0,0,0,0,0,0,0,0,0,0,0,0,0,0,0,0,0,0,0,0,0,0,0,0,0,0,0,0,0,0,0,0,0,0,0,0,0,0,0,0,0,0,0,0,0,0,0,0,0,0,0,0,0,0,0,0,0,0,0,0,0,0,0,0,0,0,0,0,0,0,0,0,0,0,0,0,0,0,0,0,0,0,0,0,0,0,0,0,0,0],"id":6,"left_children":[1,3,5,7,9,11,13,15,17,19,21,23,25,27,29,31,33,35,37,39,41,43,45,47,49,51,53,55,57,59,61,-1,63,-1,65,67,69,71,73,75,77,79,81,83,85,-1,87,89,91,93,95,97,99,101,103,105,107,109,111,-1,113,115,117,-1,-1,-1,-1,-1,-1,-1,-1,-1,-1,-1,-1,-1,-1,-1,-1,-1,-1,-1,-1,-1,-1,-1,-1,-1,-1,-1,-1,-1,-1,-1,-1,-1,-1,-1,-1,-1,-1,-1,-1,-1,-1,-1,-1,-1,-1,-1,-1,-1,-1,-1,-1,-1,-1,-1,-1],"loss_changes":[2.1615063E3,7.818689E1,1.3279736E2,9.3967285E0,3.8412704E1,2.6030525E1,1.1572388E1,2.5320435E0,6.4114304E0,1.2938004E1,1.1784089E1,2.4009117E1,1.0432466E1,8.779465E0,3.717163E0,4.7607422E-2,3.601715E0,1.4166489E0,3.3708057E0,4.5010223E0,3.8241062E0,2.222409E1,1.48036E0,8.966046E0,2.4072617E1,1.9956312E0,4.803954E0,2.9763489E0,4.1717186E0,2.9300594E0,1.265564E0,0E0,8.284912E-1,0E0,8.816116E0,1.1089286E0,4.939499E-1,3.7889786E0,2.5568535E0,1.5417938E0,5.1331635E0,4.3805656E0,2.775593E0,1.2733027E1,1.5582695E0,0E0,1.1471157E0,6.8499327E0,2.930952E0,6.9878464E0,1.5733366E1,8.4673786E-1,2.0743475E0,2.7626667E0,2.3569472E0,5.6890297E0,2.8102112E0,2.5820332E0,2.7803116E0,0E0,6.0164833E-1,6.286621E-2,2.0431976E0,0E0,0E0,0E0,0E0,0E0,0E0,0E0,0E0,0E0,0E0,0E0,0E0,0E0,0E0,0E0,0E0,0E0,0E0,0E0,0E0,0E0,0E0,0E0,0E0,0E0,0E0,0E0,0E0,0E0,0E0,0E0,0E0,0E0,0E0,0E0,0E0,0E0,0E0,0E0,0E0,0E0,0E0,0E0,0E0,0E0,0E0,0E0,0E0,0E0,0E0,0E0,0E0,0E0,0E0,0E0,0E0],"parents":[2147483647,0,0,1,1,2,2,3,3,4,4,5,5,6,6,7,7,8,8,9,9,10,10,11,11,12,12,13,13,14,14,15,15,16,16,17,17,18,18,19,19,20,20,21,21,22,22,23,23,24,24,25,25,26,26,27,27,28,28,29,29,30,30,32,32,34,34,35,35,36,36,37,37,38,38,39,39,40,40,41,41,42,42,43,43,44,44,46,46,47,47,48,48,49,49,50,50,51,51,52,52,53,53,54,54,55,55,56,56,57,57,58,58,60,60,61,61,62,62],"right_children":[2,4,6,8,10,12,14,16,18,20,22,24,26,28,30,32,34,36,38,40,42,44,46,48,50,52,54,56,58,60,62,-1,64,-1,66,68,70,72,74,76,78,80,82,84,86,-1,88,90,92,94,96,98,100,102,104,106,108,110,112,-1,114,116,118,-1,-1,-1,-1,-1,-1,-1,-1,-1,-1,-1,-1,-1,-1,-1,-1,-1,-1,-1,-1,-1,-1,-1,-1,-1,-1,-1,-1,-1,-1,-1,-1,-1,-1,-1,-1,-1,-1,-1,-1,-1,-1,-1,-1,-1,-1,-1,-1,-1,-1,-1,-1,-1,-1,-1,-1],"split_conditions":[3.565E1,3.071E1,4.002E1,3.816E1,3.65E1,2E1,4.478E1,2.505E1,2.536E1,4.135E1,2E1,4E0,3.752E1,2E1,1.9191488E1,2.102E1,6E0,-9.97E0,3.99E1,4E0,6.3222E4,1.7E1,4.4249E4,3.81E1,9.661E3,3.874E1,5.0977E4,2E0,3.72E1,2E0,2E1,-1.0759465E0,-4E1,-3.3918446E-1,3.951E4,2.266E1,6.04E1,5.3479625E4,8E0,3.504E1,9E0,1E0,1.5E1,9E0,4.323E1,1.0117607E-1,8E0,5.3979867E4,4.095869E1,6.8188E4,1.5E1,2.3E1,5.4138875E4,2.3E1,3.89E1,4.0265835E1,8.569E3,6.0830332E4,4.358863E1,-3.4480818E-2,5.2326E4,1.7793E4,4.9E1,4.6521492E-2,-4.510834E-1,7.040405E-2,-3.104758E-1,-3.8245428E-1,2.2277275E-1,-6.8299174E-1,-3.9728042E-1,-1.4905013E-1,-2.4823849E-1,2.3150368E-2,-1.9744697E-1,-1.8073265E-1,-4.472534E-2,-4.673046E-2,-1.6185059E-1,-7.676811E-2,1.2637092E-1,-2.2314589E-1,8.038215E-3,1.8367538E-2,-1.0186203E-1,9.575821E-2,1.3991158E-1,-2.7253067E-1,-1.0102364E-1,-8.363926E-2,-5.6888576E-4,9.462776E-3,7.7102736E-2,2.1281455E-1,8.253845E-2,-2.9609299E-3,1.2881446E-1,-9.951714E-2,-1.4295867E-1,2.8567428E-2,-4.9031295E-2,8.085022E-2,-1.0372936E-1,-3.163696E-2,5.5960692E-2,-3.9412536E-2,1.4709033E-1,3.5119057E-1,1.511174E-1,8.879471E-3,1.1678787E-1,1.5206885E-1,4.4817694E-2,-4.232437E-2,5.5588436E-1,7.5461084E-1,3.1356055E-1,2.2708064E-1,6.084605E-1],"split_indices":[8,8,8,11,9,4,8,8,8,11,4,4,9,4,13,8,4,9,10,4,14,4,14,8,2,8,14,4,9,2,4,0,9,0,15,10,9,18,4,8,4,2,4,4,10,0,2,19,13,14,4,4,18,4,8,12,2,18,13,0,0,2,8,0,0,0,0,0,0,0,0,0,0,0,0,0,0,0,0,0,0,0,0,0,0,0,0,0,0,0,0,0,0,0,0,0,0,0,0,0,0,0,0,0,0,0,0,0,0,0,0,0,0,0,0,0,0,0,0],"split_type":[0,0,0,0,0,0,0,0,0,0,0,0,0,0,0,0,0,0,0,0,0,0,0,0,0,0,0,0,0,0,0,0,0,0,0,0,0,0,0,0,0,0,0,0,0,0,0,0,0,0,0,0,0,0,0,0,0,0,0,0,0,0,0,0,0,0,0,0,0,0,0,0,0,0,0,0,0,0,0,0,0,0,0,0,0,0,0,0,0,0,0,0,0,0,0,0,0,0,0,0,0,0,0,0,0,0,0,0,0,0,0,0,0,0,0,0,0,0,0],"sum_hessian":[1.4828E4,7.265E3,7.563E3,5.245E3,2.02E3,1.997E3,5.566E3,4.51E3,7.35E2,1.297E3,7.23E2,1.669E3,3.28E2,1.557E3,4.009E3,2.826E3,1.684E3,3.52E2,3.83E2,1.165E3,1.32E2,6.42E2,8.1E1,3.95E2,1.274E3,1.81E2,1.47E2,1.152E3,4.05E2,2E1,3.989E3,2.019E3,8.07E2,7.26E2,9.58E2,9E0,3.43E2,2.32E2,1.51E2,4.2E2,7.45E2,7.4E1,5.8E1,4.93E2,1.49E2,2E0,7.9E1,2.58E2,1.37E2,8.02E2,4.72E2,1.21E2,6E1,7.2E1,7.5E1,1.24E2,1.028E3,1.45E2,2.6E2,7E0,1.3E1,2.983E3,1.006E3,1E0,8.06E2,1.5E1,9.43E2,6E0,3E0,3.37E2,6E0,6.9E1,1.63E2,5.2E1,9.9E1,3.64E2,5.6E1,2.18E2,5.27E2,2.7E1,4.7E1,3.4E1,2.4E1,2.61E2,2.32E2,6E1,8.9E1,6.4E1,1.5E1,8.8E1,1.7E2,6.8E1,6.9E1,6.58E2,1.44E2,3.54E2,1.18E2,7.4E1,4.7E1,2.7E1,3.3E1,6E1,1.2E1,4.5E1,3E1,2.4E1,1E2,6.65E2,3.63E2,1.07E2,3.8E1,2.26E2,3.4E1,1E0,1.2E1,2.838E3,1.45E2,3.46E2,6.6E2],"tree_param":{"num_deleted":"0","num_feature":"20","num_nodes":"119","size_leaf_vector":"1"}},{"base_weights":[-3.7318452E-3,-3.6605066E-1,3.8920814E-1,-4.503405E-1,-1.8426417E-1,2.2201405E-1,4.605079E-1,-4.7458252E-1,-3.687243E-1,-3.0547225E-1,-3.9732143E-2,1.0748156E-1,3.133951E-1,3.9569256E-1,4.8048717E-1,-4.8294678E-1,-3.9828432E-1,-9.583333E-2,-3.9826643E-1,-3.704691E-1,-1.5113351E-1,6.893688E-2,-1.6570328E-1,3.357664E-2,2.981132E-1,3.870773E-1,1.4305556E-1,4.4233057E-1,2.8052327E-1,4.8789734E-1,4.1410255E-1,-4.371482E-1,-4.905841E-1,-2.0253165E-1,-4.439394E-1,-4.516129E-1,2.7777778E-2,-3.3567664E-1,-4.6496212E-1,-4.3722466E-1,-3.072165E-1,8.3333336E-2,-2.3141892E-1,-2.53125E-1,1.8510158E-1,-2.2674419E-1,1.2777779E-1,-6.142506E-2,1.7204301E-1,1.3125E-1,3.6827958E-1,2.8923076E-1,4.4940478E-1,-4E-2,2.3940678E-1,4.5954907E-1,2.8977272E-1,1.0084034E-1,3.738938E-1,-1.5E-2,4.8818552E-1,4.347826E-2,4.361413E-1,-2.939326E-2,-1.0112359E-2,-2.9787054E-2,-2.8254397E-2,-2.9142857E-2,1.3333333E-3,-2.7752442E-2,-1.12499995E-2,-2.9E-2,1.5E-2,-1.772727E-2,7.826087E-3,-2.897959E-2,-1.7021276E-2,-2.4727272E-2,-2.9258242E-2,-2.8672565E-2,-1.8879311E-2,-1.6438356E-3,-2.1355933E-2,2.1538462E-2,-5.1562497E-3,-1.764E-2,6.3829785E-3,1.5E-2,-1.7959183E-2,-1.0961538E-2,1.4005101E-2,-1.5710525E-2,2.3529413E-3,1.35211265E-2,-1.3499999E-2,-8.016194E-3,2.9813664E-3,1.478673E-2,-3.478261E-3,-1.6363636E-2,1.1571429E-2,2.4E-2,-7.5E-3,1.0687499E-2,2.3674699E-2,1.96875E-2,2.8606355E-2,-9.857143E-3,6.9642854E-3,1.6164383E-2,-8.333334E-3,1.859155E-2,2.8464912E-2,1.9518072E-2,-1.5E-2,-8.450704E-4,1.5918367E-2,-1.3333333E-2,2.380734E-2,2.965601E-2,2.7332122E-2,1.3125E-2,-1.8749999E-2,2.1538462E-2,2.8214285E-2],"categories":[],"categories_nodes":[],"categories_segments":[],"categories_sizes":[],"default_left":[0,0,0,0,0,0,0,0,0,0,0,0,0,0,0,0,0,0,0,0,0,0,0,0,0,0,0,0,0,0,0,0,0,0,0,0,0,0,0,0,0,0,0,0,0,0,0,0,0,0,0,0,0,0,0,0,0,0,0,0,0,0,0,0,0,0,0,0,0,0,0,0,0,0,0,0,0,0,0,0,0,0,0,0,0,0,0,0,0,0,0,0,0,0,0,0,0,0,0,0,0,0,0,0,0,0,0,0,0,0,0,0,0,0,0,0,0,0,0,0,0,0,0,0,0],"id":7,"left_children":[1,3,5,7,9,11,13,15,17,19,21,23,25,27,29,31,33,35,37,39,41,43,45,47,49,51,53,55,57,59,61,63,65,67,69,71,73,75,77,79,81,83,85,87,89,91,93,95,97,99,101,103,105,107,109,111,113,115,117,-1,119,121,123,-1,-1,-1,-1,-1,-1,-1,-1,-1,-1,-1,-1,-1,-1,-1,-1,-1,-1,-1,-1,-1,-1,-1,-1,-1,-1,-1,-1,-1,-1,-1,-1,-1,-1,-1,-1,-1,-1,-1,-1,-1,-1,-1,-1,-1,-1,-1,-1,-1,-1,-1,-1,-1,-1,-1,-1,-1,-1,-1,-1,-1,-1],"loss_changes":[2.1174624E3,1.18484375E2,8.495337E1,1.0283691E1,4.2960625E1,2.2311447E1,6.2860107E0,2.40625E0,9.756897E0,1.3326065E1,1.5343282E1,1.3360086E1,1.4842644E1,6.235489E0,1.6760864E0,1.0675049E0,3.5564346E0,5.2899423E0,4.4191437E0,3.826355E0,7.4925194E0,2.2569012E1,9.32652E0,9.021428E0,3.0543308E0,4.9196014E0,6.3591213E0,2.0759888E0,5.733618E0,8.512573E-1,3.1665955E0,7.4680634E0,1.2786865E-1,5.0388594E0,1.4874039E0,8.107524E-1,3.024923E0,4.220833E0,4.3167877E-1,2.1117477E0,6.60157E0,4.7899637E0,6.288719E0,3.7935057E0,7.9150276E0,4.024164E0,3.1486893E0,3.2707958E0,4.7889853E0,2.0436282E0,2.96035E0,3.7337494E0,1.5164185E0,2.44375E0,2.7157164E0,1.5308838E0,1.768928E0,2.2529802E0,3.1726627E0,0E0,4.5544434E-1,1.5033967E0,7.9946136E-1,0E0,0E0,0E0,0E0,0E0,0E0,0E0,0E0,0E0,0E0,0E0,0E0,0E0,0E0,0E0,0E0,0E0,0E0,0E0,0E0,0E0,0E0,0E0,0E0,0E0,0E0,0E0,0E0,0E0,0E0,0E0,0E0,0E0,0E0,0E0,0E0,0E0,0E0,0E0,0E0,0E0,0E0,0E0,0E0,0E0,0E0,0E0,0E0,0E0,0E0,0E0,0E0,0E0,0E0,0E0,0E0,0E0,0E0,0E0,0E0,0E0,0E0],"parents":[2147483647,0,0,1,1,2,2,3,3,4,4,5,5,6,6,7,7,8,8,9,9,10,10,11,11,12,12,13,13,14,14,15,15,16,16,17,17,18,18,19,19,20,20,21,21,22,22,23,23,24,24,25,25,26,26,27,27,28,28,29,29,30,30,31,31,32,32,33,33,34,34,35,35,36,36,37,37,38,38,39,39,40,40,41,41,42,42,43,43,44,44,45,45,46,46,47,47,48,48,49,49,50,50,51,51,52,52,53,53,54,54,55,55,56,56,57,57,58,58,60,60,61,61,62,62],"right_children":[2,4,6,8,10,12,14,16,18,20,22,24,26,28,30,32,34,36,38,40,42,44,46,48,50,52,54,56,58,60,62,64,66,68,70,72,74,76,78,80,82,84,86,88,90,92,94,96,98,100,102,104,106,108,110,112,114,116,118,-1,120,122,124,-1,-1,-1,-1,-1,-1,-1,-1,-1,-1,-1,-1,-1,-1,-1,-1,-1,-1,-1,-1,-1,-1,-1,-1,-1,-1,-1,-1,-1,-1,-1,-1,-1,-1,-1,-1,-1,-1,-1,-1,-1,-1,-1,-1,-1,-1,-1,-1,-1,-1,-1,-1,-1,-1,-1,-1,-1,-1,-1,-1,-1,-1],"split_conditions":[3.652E1,3.071E1,4.172E1,3.456E1,3.51E1,1E0,3.958E1,3.561E1,2.883141E-1,3.57E1,3.617884E-1,4.4681667E1,4.1777158E-1,2E1,4.026265E-1,2.0943655E-1,3.14821E-1,6E0,5.9042317E-1,5E0,1E0,4.6136E4,4.618E1,3.81E1,3.81E1,3.702E1,3.8E1,1.7981E4,3.755E1,2.0144167E1,5.1543E4,4.8411E4,5.4799E4,4.4249E4,6.3710582E4,3.039E1,4.974028E4,6E0,6.495845E-1,3.482E1,8E0,9E0,4.145E1,1E0,5E0,6.0567332E4,5.6515443E-1,5.6673375E4,2.2093E4,4.2599E4,2.3E1,1.4E1,3.0174047E1,1.3E1,5.9844345E-1,2E0,1.0115E4,3.564E1,4.204E1,-4.6307305E-1,2.1E1,2.3E1,5.6673375E4,-4.0163365E-1,-1.5918915E-1,-6.287356E-1,-5.253592E-1,-2.6645896E-1,7.945518E-3,-3.378784E-1,-2.4187385E-1,-2.516083E-1,1.1038559E-1,-1.0695934E-1,3.4445684E-2,-3.4298342E-1,-2.2000322E-1,-3.4083453E-1,-1.1062491E0,-1.6718353E-1,-4.642799E-2,-6.665611E-3,-1.6820937E-1,2.1170071E-1,-3.865013E-2,-9.5493846E-2,3.5114594E-2,1.6712494E-2,-7.516651E-2,-3.39315E-2,9.08892E-2,-9.132934E-2,4.9368665E-3,8.835651E-2,-1.6109528E-1,-3.825691E-2,1.0789604E-2,8.3865166E-2,-3.6505736E-2,-1.4519233E-2,3.9916303E-2,1.3076168E-1,-4.6089478E-2,6.4002E-2,1.3239212E-1,1.7901786E-1,2.6033854E-1,-3.596924E-2,1.3098679E-2,8.21006E-2,-6.26992E-2,1.4928634E-1,4.009845E-1,1.5567443E-1,-3.0963821E-2,-6.8788147E-3,1.05778195E-1,-1.8831024E-2,2.1162368E-1,6.9548374E-1,3.555195E-1,2.0009308E-1,-2.9884186E-1,2.3894027E-1,3.500038E-1],"split_indices":[8,8,8,11,9,2,9,9,3,11,3,12,3,4,3,3,3,4,3,4,5,0,11,10,8,11,8,2,11,12,15,0,0,14,18,8,19,4,3,8,4,4,10,5,4,19,3,19,1,0,4,4,13,4,3,4,1,10,8,0,4,4,19,0,0,0,0,0,0,0,0,0,0,0,0,0,0,0,0,0,0,0,0,0,0,0,0,0,0,0,0,0,0,0,0,0,0,0,0,0,0,0,0,0,0,0,0,0,0,0,0,0,0,0,0,0,0,0,0,0,0,0,0,0,0],"split_type":[0,0,0,0,0,0,0,0,0,0,0,0,0,0,0,0,0,0,0,0,0,0,0,0,0,0,0,0,0,0,0,0,0,0,0,0,0,0,0,0,0,0,0,0,0,0,0,0,0,0,0,0,0,0,0,0,0,0,0,0,0,0,0,0,0,0,0,0,0,0,0,0,0,0,0,0,0,0,0,0,0,0,0,0,0,0,0,0,0,0,0,0,0,0,0,0,0,0,0,0,0,0,0,0,0,0,0,0,0,0,0,0,0,0,0,0,0,0,0,0,0,0,0,0,0],"sum_hessian":[1.4871E4,7.737E3,7.134E3,5.285E3,2.452E3,2.134E3,5E3,4.071E3,1.214E3,1.333E3,1.119E3,9.48E2,1.186E3,1.183E3,3.817E3,3.664E3,4.07E2,1.19E2,1.095E3,9.37E2,3.96E2,6.01E2,5.18E2,6.84E2,2.64E2,8.27E2,3.59E2,8.4E2,3.43E2,3.428E3,3.89E2,5.32E2,3.132E3,7.8E1,3.29E2,3E1,8.9E1,5.68E2,5.27E2,4.53E2,4.84E2,1.01E2,2.95E2,1.59E2,4.42E2,4.29E2,8.9E1,4.06E2,2.78E2,7.9E1,1.85E2,3.24E2,5.03E2,1.24E2,2.35E2,7.53E2,8.7E1,1.18E2,2.25E2,1E0,3.427E3,2.2E1,3.67E2,4.44E2,8.8E1,2.394E3,7.38E2,3.4E1,4.4E1,3.06E2,2.3E1,2.9E1,1E0,2.1E1,6.8E1,1.46E2,4.22E2,1.64E2,3.63E2,3.38E2,1.15E2,7.2E1,4.12E2,3.8E1,6.3E1,2.49E2,4.6E1,1.3E1,1.46E2,5.1E1,3.91E2,3.79E2,5E1,7E1,1.9E1,2.46E2,1.6E2,2.1E2,6.8E1,1E1,6.9E1,1.74E2,1.1E1,1.59E2,1.65E2,9.5E1,4.08E2,6.9E1,5.5E1,2.18E2,1.7E1,7E1,6.83E2,8.2E1,5E0,7E1,4.8E1,8E0,2.17E2,2.877E3,5.5E2,1.5E1,7E0,1.16E2,2.51E2],"tree_param":{"num_deleted":"0","num_feature":"20","num_nodes":"125","size_leaf_vector":"1"}},{"base_weights":[-3.184073E-3,-3.7903446E-1,3.5809124E-1,-4.4833332E-1,-2.1915951E-1,9.2431344E-2,4.228945E-1,-4.795033E-1,-3.888573E-1,-4.1347626E-1,-1.3773222E-1,1.4048934E-1,-1.7621145E-1,3.239939E-1,4.695401E-1,-4.920703E-1,-4.5E-1,-4.826807E-1,-3.316606E-1,-4.5964566E-1,-2.5E-1,1.6320474E-1,-2.2040816E-1,6.840551E-2,4.3055555E-1,-8.982036E-2,-4.0983605E-1,3.5044396E-1,2.7777778E-2,4.7534418E-1,3.207547E-1,-4.9494728E-1,-3.7068966E-1,-4.921875E-1,-4.1563055E-1,-4.870229E-1,-1.5E-1,-1.03535354E-1,-3.8153505E-1,-4.6666667E-1,-1.7857143E-1,-0E0,-3.0932203E-1,-1.4338236E-1,3.6881188E-1,-3.472E-1,-8.818635E-2,-9.620991E-2,1.5207715E-1,4.4512194E-1,-1.4285715E-1,3.0232558E-1,-2.24E-1,-4.6938777E-1,-1.5384616E-1,3.924196E-1,2.3943663E-1,2.9761904E-1,-6.61157E-2,6.818182E-2,4.7747862E-1,1.9101124E-1,4.7887325E-1,-2.9723076E-2,1.5E-2,-3.75E-3,-2.4705881E-2,1.5E-2,-2.9664429E-2,8E-3,-2.579235E-2,-2.9310873E-2,-0E0,2E-2,-1.8749999E-2,-2.7972972E-2,6.72E-3,-2.747191E-2,-1.6147539E-2,-2.8113589E-2,-0E0,2E-2,-1.7499998E-2,-2.5714286E-2,7.826087E-3,-2.336842E-2,1.25E-3,-1.9726027E-2,4.2187497E-3,5.1063825E-3,2.7115384E-2,-1.7307692E-3,-2.2526132E-2,1.0707692E-2,-2.4043322E-2,-1.84375E-2,-8.4677414E-4,4.503311E-3,1.8513512E-2,3.75E-3,2.7364016E-2,2E-2,-2.4E-2,-1.2E-2,2.1538462E-2,-3E-3,-2.0131579E-2,1.5E-2,-2.9375E-2,1.2E-2,-2E-2,1.0872483E-2,2.515544E-2,1.7487803E-2,-3.409091E-4,-2.4E-2,2.2894736E-2,-9.230769E-3,1.1612902E-2,-2.625E-2,2E-2,2.5472635E-2,2.9208185E-2,2.264151E-3,2.4324324E-2,1.2E-2,2.9552238E-2],"categories":[],"categories_nodes":[],"categories_segments":[],"categories_sizes":[],"default_left":[0,0,0,0,0,0,0,0,0,0,0,0,0,0,0,0,0,0,0,0,0,0,0,0,0,0,0,0,0,0,0,0,0,0,0,0,0,0,0,0,0,0,0,0,0,0,0,0,0,0,0,0,0,0,0,0,0,0,0,0,0,0,0,0,0,0,0,0,0,0,0,0,0,0,0,0,0,0,0,0,0,0,0,0,0,0,0,0,0,0,0,0,0,0,0,0,0,0,0,0,0,0,0,0,0,0,0,0,0,0,0,0,0,0,0,0,0,0,0,0,0,0,0,0,0,0,0],"id":8,"left_children":[1,3,5,7,9,11,13,15,17,19,21,23,25,27,29,31,33,35,37,39,41,43,45,47,49,51,53,55,57,59,61,63,65,67,69,71,73,75,77,79,81,83,85,87,89,91,93,95,97,99,101,103,105,107,109,111,113,115,117,119,121,123,125,-1,-1,-1,-1,-1,-1,-1,-1,-1,-1,-1,-1,-1,-1,-1,-1,-1,-1,-1,-1,-1,-1,-1,-1,-1,-1,-1,-1,-1,-1,-1,-1,-1,-1,-1,-1,-1,-1,-1,-1,-1,-1,-1,-1,-1,-1,-1,-1,-1,-1,-1,-1,-1,-1,-1,-1,-1,-1,-1,-1,-1,-1,-1,-1],"loss_changes":[2.0257833E3,8.0912476E1,1.3092023E2,9.268311E0,3.4958656E1,1.9300035E1,2.8058105E1,1.0177002E0,9.279419E0,4.813675E0,3.887404E1,2.646236E1,4.5447493E0,1.5370239E1,3.43396E0,6.312256E-1,1.2598877E0,8.861389E-1,1.2430359E1,9.1916656E-1,2.1652546E0,2.1296179E1,2.050607E1,1.4008652E1,2.1684303E0,8.854927E0,8.5770893E-1,8.302643E0,4.1241636E0,3.439392E0,3.170391E0,8.6535645E-1,7.0848083E-1,8.6164093E-1,4.45903E0,4.7583008E-1,8.8958335E-1,1.5529985E1,7.590393E0,4.373169E-1,9.077382E-1,1.6770186E0,3.1306887E0,5.410862E0,4.7245197E0,5.6072235E0,5.0157036E1,5.9395733E0,8.100229E0,1.0016937E0,9.904762E-1,1.2954082E0,2.4089208E0,8.3428955E-1,8.9230776E-1,7.327011E0,6.3397636E0,2.6126566E0,2.7862108E0,3.0956438E0,1.7548218E0,2.9093618E0,1.7204094E-1,0E0,0E0,0E0,0E0,0E0,0E0,0E0,0E0,0E0,0E0,0E0,0E0,0E0,0E0,0E0,0E0,0E0,0E0,0E0,0E0,0E0,0E0,0E0,0E0,0E0,0E0,0E0,0E0,0E0,0E0,0E0,0E0,0E0,0E0,0E0,0E0,0E0,0E0,0E0,0E0,0E0,0E0,0E0,0E0,0E0,0E0,0E0,0E0,0E0,0E0,0E0,0E0,0E0,0E0,0E0,0E0,0E0,0E0,0E0,0E0,0E0,0E0,0E0,0E0],"parents":[2147483647,0,0,1,1,2,2,3,3,4,4,5,5,6,6,7,7,8,8,9,9,10,10,11,11,12,12,13,13,14,14,15,15,16,16,17,17,18,18,19,19,20,20,21,21,22,22,23,23,24,24,25,25,26,26,27,27,28,28,29,29,30,30,31,31,32,32,33,33,34,34,35,35,36,36,37,37,38,38,39,39,40,40,41,41,42,42,43,43,44,44,45,45,46,46,47,47,48,48,49,49,50,50,51,51,52,52,53,53,54,54,55,55,56,56,57,57,58,58,59,59,60,60,61,61,62,62],"right_children":[2,4,6,8,10,12,14,16,18,20,22,24,26,28,30,32,34,36,38,40,42,44,46,48,50,52,54,56,58,60,62,64,66,68,70,72,74,76,78,80,82,84,86,88,90,92,94,96,98,100,102,104,106,108,110,112,114,116,118,120,122,124,126,-1,-1,-1,-1,-1,-1,-1,-1,-1,-1,-1,-1,-1,-1,-1,-1,-1,-1,-1,-1,-1,-1,-1,-1,-1,-1,-1,-1,-1,-1,-1,-1,-1,-1,-1,-1,-1,-1,-1,-1,-1,-1,-1,-1,-1,-1,-1,-1,-1,-1,-1,-1,-1,-1,-1,-1,-1,-1,-1,-1,-1,-1,-1,-1],"split_conditions":[3.55E1,3.01E1,3.89E1,2.536E1,5E0,2E1,4.432E1,2.131E1,6E0,3.465E1,8E0,1.6E1,2.3E1,2.3E1,2.3E1,5.355E1,4.7974E4,4.635E1,8E0,5.3397E4,5.004E3,4.9946E4,1.6E1,5.382192E4,7.2162E4,4.9609E4,3.8E1,3.8984132E-1,1.424108E-1,1.9191488E1,4.918E1,6.3004344E4,4.9307072E-1,-4E1,4.0741E4,6.330407E4,2.1647E4,4.7846E4,1.7E1,6.2907156E4,5.3804E4,3.503601E1,4.8401E4,4.525E4,6E0,2.534E3,2E1,4E0,3.767E1,1.028E1,3.1503E4,2.562619E1,2.926612E-1,7.88E0,3E1,2E0,1.9E1,5.122016E4,5.3029E4,2E0,3.4852085E1,5.5863703E4,4.1995E4,-9.77941E-1,3.2184002E-1,-3.7726545E-1,-8.7691766E-1,8.145435E-2,-4.1110724E-1,2.715437E-2,-3.3409327E-1,-2.9153532E-1,-1.09588794E-1,6.60022E-2,-4.039778E-1,-2.2203666E-1,6.773609E-2,-2.7088737E-1,-2.701712E-1,-1.759778E-1,2.3963928E-4,2.0185431E-2,-2.8638747E-1,-1.2966293E-1,1.4979057E-2,-5.4385643E-2,8.1333155E-3,-7.128158E-2,6.088257E-3,1.1389503E-2,2.80944E-1,-1.4162979E-2,-1.5306084E-1,5.008392E-2,-2.5001758E-1,-5.7294615E-2,-2.4398803E-3,9.188461E-3,7.36766E-2,5.0912476E-3,1.9360325E-1,8.310802E-2,-1.8320778E-1,-9.113274E-2,4.5649108E-2,-1.4933624E-2,-1.0091537E-1,6.484222E-4,-1.387651E-1,2.4311256E-2,-1.0219963E-1,7.2249986E-2,2.0391127E-1,1.1841522E-1,-1.0455322E-2,-5.2543487E-2,5.9118804E-2,-2.2385558E-2,3.817589E-2,-3.1999283E-2,4.744455E-1,3.5159534E-1,6.283472E-1,3.0807494E-3,2.0167625E-1,2.2299121E-1,5.327743E-1],"split_indices":[8,8,8,8,4,4,8,8,4,8,4,4,4,4,4,10,0,10,4,17,1,0,4,19,14,14,8,3,3,13,8,19,3,9,15,19,1,0,4,19,17,13,16,17,4,2,4,4,8,9,1,13,3,9,10,4,4,19,17,2,13,19,16,0,0,0,0,0,0,0,0,0,0,0,0,0,0,0,0,0,0,0,0,0,0,0,0,0,0,0,0,0,0,0,0,0,0,0,0,0,0,0,0,0,0,0,0,0,0,0,0,0,0,0,0,0,0,0,0,0,0,0,0,0,0,0,0],"split_type":[0,0,0,0,0,0,0,0,0,0,0,0,0,0,0,0,0,0,0,0,0,0,0,0,0,0,0,0,0,0,0,0,0,0,0,0,0,0,0,0,0,0,0,0,0,0,0,0,0,0,0,0,0,0,0,0,0,0,0,0,0,0,0,0,0,0,0,0,0,0,0,0,0,0,0,0,0,0,0,0,0,0,0,0,0,0,0,0,0,0,0,0,0,0,0,0,0,0,0,0,0,0,0,0,0,0,0,0,0,0,0,0,0,0,0,0,0,0,0,0,0,0,0,0,0,0,0],"sum_hessian":[1.4917E4,7.311E3,7.606E3,5.099E3,2.212E3,1.492E3,6.114E3,3.341E3,1.758E3,6.52E2,1.56E3,1.266E3,2.26E2,1.962E3,4.152E3,2.332E3,1.009E3,6.63E2,1.095E3,5.07E2,1.45E2,3.36E2,1.224E3,1.015E3,2.51E2,1.66E2,6E1,1.801E3,1.61E2,3.994E3,1.58E2,2.275E3,5.7E1,4.47E2,5.62E2,6.54E2,9E0,1.97E2,8.98E2,4.94E2,1.3E1,2.8E1,1.17E2,1.35E2,2.01E2,6.24E2,6E2,3.42E2,6.73E2,2.45E2,6E0,4.2E1,1.24E2,4.8E1,1.2E1,1.305E3,4.96E2,4.1E1,1.2E2,2.1E1,3.973E3,8.8E1,7E1,2.274E3,1E0,7E0,5E1,1E0,4.46E2,1.4E1,5.48E2,6.52E2,2E0,2E0,7E0,7.3E1,1.24E2,5.33E2,3.65E2,4.92E2,2E0,2E0,1.1E1,6E0,2.2E1,9.4E1,2.3E1,7.2E1,6.3E1,4.6E1,1.55E2,5.1E1,5.73E2,3.24E2,2.76E2,9.5E1,2.47E2,4.52E2,2.21E2,7E0,2.38E2,2E0,4E0,4E0,3.8E1,4.9E1,7.5E1,1E0,4.7E1,4E0,8E0,1.48E2,1.157E3,4.09E2,8.7E1,4E0,3.7E1,9E1,3E1,7E0,1.4E1,6.02E2,3.371E3,5.2E1,3.6E1,4E0,6.6E1],"tree_param":{"num_deleted":"0","num_feature":"20","num_nodes":"127","size_leaf_vector":"1"}},{"base_weights":[-3.1351133E-3,-3.517393E-1,3.765493E-1,-4.4061413E-1,-1.7155711E-1,2.0204604E-1,4.4277108E-1,-4.7639355E-1,-3.7842828E-1,-3.6129904E-1,-9.433443E-2,9.52381E-2,2.8584474E-1,3.6780867E-1,4.7486112E-1,-2.9599076E-2,-4.429982E-1,-4.7363946E-1,-3.353705E-1,-4.4719827E-1,-2.155797E-1,2.2643979E-1,-1.7954071E-1,2.73752E-2,2.6970956E-1,3.875E-1,1.18990384E-1,3.8892806E-1,1.3461539E-1,2E-1,4.774257E-1,-4.9023092E-1,-3.9402175E-1,-4.814815E-1,-2.5E-1,-4.733728E-2,-3.7773883E-1,-4.7411445E-1,-3.4183672E-1,-3.2163742E-1,-4.245283E-2,-1.6071428E-1,3.3444816E-1,-2.5933015E-1,3.307888E-2,-1.904762E-1,7.156673E-2,1.25E-1,3.449367E-1,4.1343042E-1,1.2698413E-1,8.802817E-3,3.5338345E-1,1.7857144E-2,3.961179E-1,-4.8076924E-2,2.5316456E-1,3.3333334E-1,-2.2222222E-1,4.4508672E-1,4.938455E-1,1.5E-2,-2.9519573E-2,-2.4665391E-2,-5E-3,-2.928832E-2,-1.65E-2,-2.4375E-2,8.571429E-3,-2.6428571E-2,4.921875E-3,-2.621813E-2,-1.6857797E-2,-2.859504E-2,-1.2E-2,5E-3,-2.1935483E-2,-2.0421686E-2,1.5E-2,1.5E-2,-6.0674157E-3,2.2499999E-2,-1.479452E-2,7.340425E-3,2.57767E-2,-1.9468531E-2,-7.069486E-3,-7.18894E-3,1.3220339E-2,-1.8636363E-2,7.5E-4,1.1680328E-2,-2.29927E-3,-1.7499998E-2,1.1506849E-2,1.1086957E-2,2.4424778E-2,2.5663264E-2,7.741935E-3,-9.545454E-3,1.6428571E-2,-8.2E-3,1.0222222E-2,-1.7142858E-2,2.3149606E-2,-1.1666667E-2,2.1818181E-2,1.2815533E-2,2.4623739E-2,-8.372094E-3,2.1E-2,1.7746478E-2,-6.6666664E-3,2.375E-2,-7.5E-3,-2.5714286E-2,2E-2,2.792997E-2,2.165975E-2,-0E0,2.9655904E-2],"categories":[],"categories_nodes":[],"categories_segments":[],"categories_sizes":[],"default_left":[0,0,0,0,0,0,0,0,0,0,0,0,0,0,0,0,0,0,0,0,0,0,0,0,0,0,0,0,0,0,0,0,0,0,0,0,0,0,0,0,0,0,0,0,0,0,0,0,0,0,0,0,0,0,0,0,0,0,0,0,0,0,0,0,0,0,0,0,0,0,0,0,0,0,0,0,0,0,0,0,0,0,0,0,0,0,0,0,0,0,0,0,0,0,0,0,0,0,0,0,0,0,0,0,0,0,0,0,0,0,0,0,0,0,0,0,0,0,0,0,0],"id":9,"left_children":[1,3,5,7,9,11,13,15,17,19,21,23,25,27,29,-1,31,33,35,37,39,41,43,45,47,49,51,53,55,57,59,61,63,65,67,69,71,73,75,77,79,81,83,85,87,89,91,93,95,97,99,101,103,105,107,109,111,113,115,117,119,-1,-1,-1,-1,-1,-1,-1,-1,-1,-1,-1,-1,-1,-1,-1,-1,-1,-1,-1,-1,-1,-1,-1,-1,-1,-1,-1,-1,-1,-1,-1,-1,-1,-1,-1,-1,-1,-1,-1,-1,-1,-1,-1,-1,-1,-1,-1,-1,-1,-1,-1,-1,-1,-1,-1,-1,-1,-1,-1,-1],"loss_changes":[1.9632897E3,1.23757996E2,8.195758E1,1.1340698E1,3.7417404E1,1.7470749E1,1.2204346E1,1.6369629E0,7.6139526E0,9.153786E0,4.973019E1,1.0186975E1,1.8526863E1,7.5664825E0,2.4421997E0,0E0,2.3838348E0,9.1085815E-1,1.5956467E1,1.153801E0,5.054103E0,1.6027418E1,2.4386986E1,5.9921145E0,2.580431E0,4.5410995E0,1.0741005E1,3.7760468E0,2.8277144E0,2.0444446E0,1.673706E0,8.572998E-1,2.892929E0,6.4515686E-1,1.4084821E0,8.631439E0,6.41745E0,1.5312195E-1,1.0202436E0,1.9153633E0,1.8440746E0,3.9562135E0,5.982727E0,9.595024E0,1.1278403E1,2.56415E0,7.0013294E0,2.3932648E0,1.4972649E0,2.4565125E0,2.6897545E0,6.6981783E0,2.867918E0,2.1261725E0,3.537384E0,1.9420171E0,1.2590876E0,8.2291675E-1,1.1746032E0,1.910675E0,4.8815918E-1,0E0,0E0,0E0,0E0,0E0,0E0,0E0,0E0,0E0,0E0,0E0,0E0,0E0,0E0,0E0,0E0,0E0,0E0,0E0,0E0,0E0,0E0,0E0,0E0,0E0,0E0,0E0,0E0,0E0,0E0,0E0,0E0,0E0,0E0,0E0,0E0,0E0,0E0,0E0,0E0,0E0,0E0,0E0,0E0,0E0,0E0,0E0,0E0,0E0,0E0,0E0,0E0,0E0,0E0,0E0,0E0,0E0,0E0,0E0,0E0],"parents":[2147483647,0,0,1,1,2,2,3,3,4,4,5,5,6,6,7,7,8,8,9,9,10,10,11,11,12,12,13,13,14,14,16,16,17,17,18,18,19,19,20,20,21,21,22,22,23,23,24,24,25,25,26,26,27,27,28,28,29,29,30,30,31,31,32,32,33,33,34,34,35,35,36,36,37,37,38,38,39,39,40,40,41,41,42,42,43,43,44,44,45,45,46,46,47,47,48,48,49,49,50,50,51,51,52,52,53,53,54,54,55,55,56,56,57,57,58,58,59,59,60,60],"right_children":[2,4,6,8,10,12,14,16,18,20,22,24,26,28,30,-1,32,34,36,38,40,42,44,46,48,50,52,54,56,58,60,62,64,66,68,70,72,74,76,78,80,82,84,86,88,90,92,94,96,98,100,102,104,106,108,110,112,114,116,118,120,-1,-1,-1,-1,-1,-1,-1,-1,-1,-1,-1,-1,-1,-1,-1,-1,-1,-1,-1,-1,-1,-1,-1,-1,-1,-1,-1,-1,-1,-1,-1,-1,-1,-1,-1,-1,-1,-1,-1,-1,-1,-1,-1,-1,-1,-1,-1,-1,-1,-1,-1,-1,-1,-1,-1,-1,-1,-1,-1,-1],"split_conditions":[3.652E1,3.039E1,4.116E1,2.983E1,5E0,1E0,4.6E1,2.434E1,6E0,3.465E1,8E0,4.4418335E1,1.0628E4,2.3E1,2.1752678E1,-6.98389E-1,4.7105E4,4.584125E1,7E0,4.765E4,4.0844463E1,4.6233E4,4.236E1,4.3604E4,3.81E1,7.099E4,1.4E1,2.0553333E1,4.7204E4,2.1E1,5.025E1,-4E1,4.191E1,1.6E1,5.0191E4,4.7423E4,1.7E1,4.408E1,4.3772E4,4.015E1,4.9893582E4,2E0,6E0,3.492E1,1.7E1,2E0,2E1,4.2599E4,3.267E1,2.1E1,3.779E1,3.89E1,3.68E1,5.9527703E4,2E0,4.5E1,4.533E1,1.0499E4,6E0,2.1E1,4.8681625E4,7.656704E-2,-2.8855476E-1,-2.8254414E-1,-2.3805656E-2,-3.839376E-1,-1.6147453E-1,-2.676741E-1,2.4208488E-2,-4.232025E-1,5.9107132E-2,-3.079683E-1,-2.911291E-1,-1.6682538E-1,-2.6772913E-1,3.695984E-3,-1.0931042E-1,-4.833412E-2,1.7358169E-2,1.9335937E-2,-8.45581E-3,6.937294E-2,-6.118E-2,1.9952316E-2,2.8317213E-1,-1.4840257E-1,-3.431717E-2,-5.4301985E-2,6.558346E-2,-5.828636E-2,3.9891815E-3,4.638725E-2,-1.6658936E-2,-9.853134E-3,3.8963128E-2,7.7999726E-2,1.19311064E-1,2.0678833E-1,2.5278853E-2,-5.700348E-2,1.02099605E-1,-3.3996735E-2,4.425293E-2,-3.3385504E-2,9.710964E-2,-1.5629287E-1,1.2715198E-1,9.106338E-2,2.0852405E-1,-1.563446E-2,1.5397201E-1,1.0360645E-1,-1.1847953E-2,3.7699172E-1,-1.3567267E-1,-2.5933571E-2,4.4835111E-1,3.48754E-1,1.7265792E-1,3.8665888E-1,8.2398283E-1],"split_indices":[8,8,8,11,4,2,8,8,4,8,4,12,2,4,13,0,0,12,4,15,13,0,10,17,8,15,4,13,16,4,8,9,9,2,14,0,4,10,16,9,18,5,4,8,4,4,4,0,11,4,8,8,8,19,4,8,10,2,2,4,19,0,0,0,0,0,0,0,0,0,0,0,0,0,0,0,0,0,0,0,0,0,0,0,0,0,0,0,0,0,0,0,0,0,0,0,0,0,0,0,0,0,0,0,0,0,0,0,0,0,0,0,0,0,0,0,0,0,0,0,0],"split_type":[0,0,0,0,0,0,0,0,0,0,0,0,0,0,0,0,0,0,0,0,0,0,0,0,0,0,0,0,0,0,0,0,0,0,0,0,0,0,0,0,0,0,0,0,0,0,0,0,0,0,0,0,0,0,0,0,0,0,0,0,0,0,0,0,0,0,0,0,0,0,0,0,0,0,0,0,0,0,0,0,0,0,0,0,0,0,0,0,0,0,0,0,0,0,0,0,0,0,0,0,0,0,0,0,0,0,0,0,0,0,0,0,0,0,0,0,0,0,0,0,0],"sum_hessian":[1.4831E4,7.732E3,7.099E3,5.177E3,2.555E3,1.954E3,5.145E3,3.282E3,1.895E3,7.38E2,1.817E3,8.6E2,1.094E3,1.546E3,3.599E3,2.169E3,1.113E3,5.87E2,1.308E3,4.63E2,2.75E2,3.81E2,1.436E3,6.2E2,2.4E2,6.79E2,4.15E2,1.417E3,1.29E2,3.4E1,3.565E3,5.62E2,5.51E2,5.66E2,2.1E1,1.68E2,1.14E3,3.66E2,9.7E1,1.7E2,1.05E2,8.3E1,2.98E2,1.044E3,3.92E2,1.04E2,5.16E2,8.3E1,1.57E2,6.17E2,6.2E1,2.83E2,1.32E2,2.7E1,1.39E3,5.1E1,7.8E1,2.6E1,8E0,1.21E3,2.355E3,1E0,5.61E2,5.22E2,2.9E1,5.47E2,1.9E1,1.5E1,6E0,4.1E1,1.27E2,7.05E2,4.35E2,3.62E2,4E0,5E0,9.2E1,1.65E2,5E0,1.7E1,8.8E1,1.1E1,7.2E1,9.3E1,2.05E2,7.14E2,3.3E2,2.16E2,1.76E2,6.5E1,3.9E1,2.43E2,2.73E2,1.1E1,7.2E1,4.5E1,1.12E2,5.87E2,3E1,2.1E1,4.1E1,1.49E2,1.34E2,6E0,1.26E2,1.7E1,1E1,1.02E2,1.288E3,4.2E1,9E0,7E1,8E0,2.3E1,3E0,6E0,2E0,9.7E2,2.4E2,2E0,2.353E3],"tree_param":{"num_deleted":"0","num_feature":"20","num_nodes":"121","size_leaf_vector":"1"}},{"base_weights":[-3.0751554E-3,-3.675777E-1,3.431282E-1,-4.3013468E-1,-1.8786903E-1,1.5513712E-1,4.3229064E-1,-4.7259235E-1,-3.613692E-1,-2.5585398E-1,5.2184466E-2,4.9873203E-2,2.5376686E-1,3.7190083E-1,4.808705E-1,-4.8080844E-1,-4.0389973E-1,-2.56705E-1,-4.259699E-1,-3.5301667E-1,-1.4317508E-1,2.1064815E-1,-1.2182741E-1,-4.638365E-2,1.6149636E-1,3.4768638E-1,1.0227273E-1,3.897508E-1,1.5028901E-1,6.666667E-2,4.8289242E-1,-2.96597E-2,-4.625984E-1,-4.49827E-1,-2.112676E-1,-4.4047618E-1,-1.4591837E-1,-3.6123854E-1,-4.5954105E-1,-4.1104296E-1,-2.5429553E-1,3.9513677E-2,-3.16474E-1,1.1724138E-1,3.9583334E-1,-2.7102804E-1,5.4945055E-2,-5.484461E-3,-2.9444444E-1,2.2607656E-1,-4.5801528E-2,-2.5E-2,3.783032E-1,1.4880952E-1,-2E-1,2.3021583E-1,4.0070388E-1,-8.75E-2,2.2014925E-1,-2.4E-2,2.7272728E-1,4.2023346E-1,4.889492E-1,-2.899422E-2,-2.504926E-2,7.5E-3,-2.7377622E-2,-2.5454545E-2,-1.5384615E-3,-1.2692307E-2,-2.7657993E-2,3.7795275E-3,-1.3104395E-2,-2.5323529E-2,-8.659793E-3,-7.0588235E-3,-2.796798E-2,-2.5408804E-2,4.6153846E-3,-1.8432202E-2,-1.6071429E-3,-1.0105263E-2,7.404255E-3,-2.402098E-2,4.918033E-3,1.8947368E-3,1.6470589E-2,2.75E-2,4.6153846E-3,-1.7596154E-2,2.2499999E-2,1.7499998E-2,-5.892857E-3,-2.9253112E-3,1.8636363E-2,4.6153846E-3,-2.1153845E-2,-7.317073E-3,1.5793651E-2,1.4150944E-3,-1.9615384E-2,-9.729729E-3,1.12499995E-2,2.3472622E-2,1.1538462E-3,1.1538462E-3,1.4811715E-2,-1.5535714E-2,9.000001E-3,1.4516128E-3,2.3461537E-2,2.5563516E-2,1.8857144E-2,-1.3E-2,1.6363636E-2,2.0142857E-2,5.5384617E-3,2.625E-2,-7.5E-3,1.1470588E-2,2.71875E-2,2.108108E-2,2.9445536E-2],"categories":[],"categories_nodes":[],"categories_segments":[],"categories_sizes":[],"default_left":[0,0,0,0,0,0,0,0,0,0,0,0,0,0,0,0,0,0,0,0,0,0,0,0,0,0,0,0,0,0,0,0,0,0,0,0,0,0,0,0,0,0,0,0,0,0,0,0,0,0,0,0,0,0,0,0,0,0,0,0,0,0,0,0,0,0,0,0,0,0,0,0,0,0,0,0,0,0,0,0,0,0,0,0,0,0,0,0,0,0,0,0,0,0,0,0,0,0,0,0,0,0,0,0,0,0,0,0,0,0,0,0,0,0,0,0,0,0,0,0,0,0,0],"id":10,"left_children":[1,3,5,7,9,11,13,15,17,19,21,23,25,27,29,31,33,35,37,39,41,43,45,47,49,51,53,55,57,59,61,-1,63,65,67,69,71,73,75,77,79,81,83,85,87,89,91,93,95,97,99,101,103,105,107,109,111,113,115,-1,117,119,121,-1,-1,-1,-1,-1,-1,-1,-1,-1,-1,-1,-1,-1,-1,-1,-1,-1,-1,-1,-1,-1,-1,-1,-1,-1,-1,-1,-1,-1,-1,-1,-1,-1,-1,-1,-1,-1,-1,-1,-1,-1,-1,-1,-1,-1,-1,-1,-1,-1,-1,-1,-1,-1,-1,-1,-1,-1,-1,-1,-1],"loss_changes":[1.867263E3,8.095184E1,1.2713782E2,1.5437561E1,3.0417564E1,2.535094E1,1.4921082E1,1.6693726E0,1.3717712E1,1.5846222E1,1.1386382E1,1.27182255E1,1.7906273E1,9.035706E0,2.3538208E0,4.9609375E-1,3.0810623E0,1.5877129E1,2.5786285E0,4.35791E0,2.1351185E1,3.6898623E0,5.210681E0,6.4509134E0,7.3466167E0,8.886803E0,6.8380947E0,3.6244812E0,2.8931386E0,1.5515151E0,8.7042236E-1,0E0,9.8062134E-1,1.131321E0,2.796021E0,1.2816429E0,7.4340982E0,5.6909904E0,1.8112488E0,3.000267E0,3.4945545E0,5.759783E0,1.159597E1,1.9447706E0,1.3998404E0,1.6473985E0,3.3279533E0,7.496718E0,1.9696584E0,5.436659E0,2.5629995E0,1.779223E0,3.3247604E0,5.331566E0,1.3794644E0,4.5956655E0,4.2242126E0,1.9202651E0,1.9487286E0,0E0,7.755682E-1,1.849617E0,4.697876E-1,0E0,0E0,0E0,0E0,0E0,0E0,0E0,0E0,0E0,0E0,0E0,0E0,0E0,0E0,0E0,0E0,0E0,0E0,0E0,0E0,0E0,0E0,0E0,0E0,0E0,0E0,0E0,0E0,0E0,0E0,0E0,0E0,0E0,0E0,0E0,0E0,0E0,0E0,0E0,0E0,0E0,0E0,0E0,0E0,0E0,0E0,0E0,0E0,0E0,0E0,0E0,0E0,0E0,0E0,0E0,0E0,0E0,0E0,0E0,0E0],"parents":[2147483647,0,0,1,1,2,2,3,3,4,4,5,5,6,6,7,7,8,8,9,9,10,10,11,11,12,12,13,13,14,14,15,15,16,16,17,17,18,18,19,19,20,20,21,21,22,22,23,23,24,24,25,25,26,26,27,27,28,28,29,29,30,30,32,32,33,33,34,34,35,35,36,36,37,37,38,38,39,39,40,40,41,41,42,42,43,43,44,44,45,45,46,46,47,47,48,48,49,49,50,50,51,51,52,52,53,53,54,54,55,55,56,56,57,57,58,58,60,60,61,61,62,62],"right_children":[2,4,6,8,10,12,14,16,18,20,22,24,26,28,30,32,34,36,38,40,42,44,46,48,50,52,54,56,58,60,62,-1,64,66,68,70,72,74,76,78,80,82,84,86,88,90,92,94,96,98,100,102,104,106,108,110,112,114,116,-1,118,120,122,-1,-1,-1,-1,-1,-1,-1,-1,-1,-1,-1,-1,-1,-1,-1,-1,-1,-1,-1,-1,-1,-1,-1,-1,-1,-1,-1,-1,-1,-1,-1,-1,-1,-1,-1,-1,-1,-1,-1,-1,-1,-1,-1,-1,-1,-1,-1,-1,-1,-1,-1,-1,-1,-1,-1,-1,-1,-1,-1,-1],"split_conditions":[3.55E1,3.1E1,4.116E1,2.949E1,3.94E1,3.72E1,4.853E1,3.4E1,4.724772E-1,1E0,3.7879625E-1,3.8E1,3.6644593E-1,2.3E1,1.9191488E1,2.199E1,1.7E1,6E0,5.7790655E-1,3.409E1,9.788E3,3.927E1,3.999E1,2E1,2E1,4.3604E4,2E1,2E0,4.5865E4,2E0,3.7127083E1,-7.9058564E-1,5.085E4,3.637E4,1.285E3,1.0665281E-1,7E0,2.8801E4,3.9776E4,4.451E1,4.1840534E1,2.995E1,1.6E1,1.7E1,1.9E1,5.123E1,4.724772E-1,1.6E1,4.3655918E4,4.3604E4,5.5374E4,4.9118E4,2.3E1,3.8E1,6.600579E4,4.2108868E1,2E1,3.958E1,2.0144011E-1,-2.4377631E-2,5.302275E4,3.784E1,1.401E1,-2.8406918E-1,-2.875409E-1,1.6245803E-2,-3.048958E-1,-2.8187323E-1,-2.1252764E-2,-1.4499572E-1,-2.1703742E-1,4.724041E-2,-1.265149E-1,-2.7251095E-1,-1.5441346E-1,-1.5774581E0,-6.218782E-1,-1.6370074E-1,1.8350715E-2,-6.561584E-2,-3.590927E-3,-6.975448E-2,2.4929237E-2,-1.1960838E-1,1.104538E-2,6.733017E-3,8.61573E-2,2.2454177E-1,7.23587E-3,-1.011676E-1,4.626766E-1,1.4369842E-1,-5.3362653E-2,-9.675292E-3,1.09026484E-1,1.6026305E-2,-1.003878E-1,-2.5938835E-2,8.497055E-2,3.635559E-3,-6.897079E-2,-2.2939567E-2,2.8661499E-2,1.6826317E-1,2.9216765E-3,3.7884521E-3,9.0883136E-2,-9.079674E-2,3.7227172E-2,2.1780394E-3,1.9980834E-1,2.552418E-1,1.4340706E-1,-2.771141E-2,1.3958931E-2,1.0083847E-1,2.9301109E-2,5.6058973E-1,-1.0785026E-1,1.8604614E-1,4.5348495E-1,4.097289E-1,7.1081746E-1],"split_indices":[8,8,8,11,9,9,8,9,3,2,3,8,3,4,13,8,4,4,3,8,2,11,11,4,4,17,4,4,16,2,12,0,17,16,2,3,4,1,15,10,13,11,4,4,4,9,3,4,18,17,16,16,4,8,18,13,4,9,3,0,18,11,10,0,0,0,0,0,0,0,0,0,0,0,0,0,0,0,0,0,0,0,0,0,0,0,0,0,0,0,0,0,0,0,0,0,0,0,0,0,0,0,0,0,0,0,0,0,0,0,0,0,0,0,0,0,0,0,0,0,0,0,0],"split_type":[0,0,0,0,0,0,0,0,0,0,0,0,0,0,0,0,0,0,0,0,0,0,0,0,0,0,0,0,0,0,0,0,0,0,0,0,0,0,0,0,0,0,0,0,0,0,0,0,0,0,0,0,0,0,0,0,0,0,0,0,0,0,0,0,0,0,0,0,0,0,0,0,0,0,0,0,0,0,0,0,0,0,0,0,0,0,0,0,0,0,0,0,0,0,0,0,0,0,0,0,0,0,0,0,0,0,0,0,0,0,0,0,0,0,0,0,0,0,0,0,0,0,0],"sum_hessian":[1.4795E4,7.207E3,7.588E3,5.345E3,1.862E3,2.442E3,5.146E3,3.301E3,2.044E3,1.451E3,4.11E2,1.182E3,1.26E3,2.298E3,2.848E3,2.943E3,3.58E2,7.82E2,1.262E3,7.78E2,6.73E2,2.15E2,1.96E2,6.35E2,5.47E2,7.77E2,4.83E2,2.126E3,1.72E2,1.4E1,2.834E3,1.674E3,1.269E3,2.88E2,7E1,2.93E2,4.89E2,4.35E2,8.27E2,4.88E2,2.9E2,3.28E2,3.45E2,1.44E2,7.1E1,1.06E2,9E1,5.46E2,8.9E1,4.17E2,1.3E2,5.9E1,7.18E2,4.19E2,6.4E1,1.38E2,1.988E3,3.9E1,1.33E2,4E0,1E1,2.56E2,2.578E3,8.64E2,4.05E2,3E0,2.85E2,3.2E1,3.8E1,2.5E1,2.68E2,1.26E2,3.63E2,3.39E2,9.6E1,1.6E1,8.11E2,4.76E2,1.2E1,2.35E2,5.5E1,9.4E1,2.34E2,2.85E2,6E1,9.4E1,5E1,5.9E1,1.2E1,1.03E2,3E0,3.5E1,5.5E1,4.81E2,6.5E1,1.2E1,7.7E1,4E1,3.77E2,1.05E2,2.5E1,3.6E1,2.3E1,6.93E2,2.5E1,1.81E2,2.38E2,5.5E1,9E0,6.1E1,7.7E1,1.534E3,4.54E2,2.9E1,1E1,6.9E1,6.4E1,7E0,3E0,3.3E1,2.23E2,3.6E1,2.542E3],"tree_param":{"num_deleted":"0","num_feature":"20","num_nodes":"123","size_leaf_vector":"1"}},{"base_weights":[-5.2642236E-3,-3.654333E-1,3.267834E-1,-4.4520393E-1,-2.3082735E-1,1.4677419E-1,4.2877463E-1,-4.6456805E-1,-3.7024972E-1,-2.914399E-1,-3.508772E-2,5.5656936E-2,2.77245E-1,3.729924E-1,4.8024258E-1,-4.8598132E-1,-4.3543047E-1,-1.9774011E-1,-4.1073826E-1,-4.4770643E-1,-2.3358159E-1,1.2331081E-1,-1.7620482E-1,-4.540024E-2,1.6027227E-1,3.7586686E-1,1.1007026E-1,3.0954725E-1,4.2042932E-1,-2.7272728E-1,4.8330715E-1,-4.934128E-1,-4.5795456E-1,-4.8173207E-1,-3.9054403E-1,-3.2673267E-1,-2.5974026E-2,-3.54798E-1,-4.7285715E-1,-4.5295203E-1,2.2499999E-2,-1.6550696E-1,-3.7817797E-1,-2.7E-1,2.0242915E-1,-2.5813007E-1,5.7471264E-2,-1.2975392E-1,5.1150896E-2,7.8638494E-2,2.5065273E-1,5E-2,3.8945088E-1,-1.8055555E-1,1.3647959E-1,2.3678647E-1,3.7224266E-1,4.402174E-1,2.6602563E-1,-2.6666665E-2,2E-2,4.3943298E-1,4.9096805E-1,-2.2499999E-2,-2.967619E-2,7.5E-3,-2.7734553E-2,-2.9220246E-2,-0E0,-1.8758949E-2,-2.8898304E-2,-2.6142856E-2,-4.6874997E-3,-2.3181817E-2,6.9642854E-3,-2.625E-2,-1.5248619E-2,-2.8534481E-2,-0E0,-2.738889E-2,2E-2,-1.8568281E-2,-2.8209763E-3,-2.5163934E-2,-1.4018691E-2,-1.9148935E-2,2.2499999E-2,7.636363E-3,2.0963855E-2,9.230769E-3,-1.6794872E-2,-1.1470588E-2,1.2777778E-2,5.669291E-3,-1.3084112E-2,1.5821917E-2,-4.512195E-3,-3.8585206E-4,1.8362068E-2,1.87E-2,1.7857143E-3,-1.1666667E-2,2.3076924E-2,2.4230769E-2,9.767442E-3,5.6249998E-3,-2.2857143E-2,2.1428573E-3,1.2050209E-2,6.835443E-3,2.1518987E-2,2.4551423E-2,1.0568181E-2,2.723032E-2,2.1249998E-2,1.0471698E-2,2.7058823E-2,2.7781066E-2,1.6470589E-2,7.5E-3,2.9485157E-2],"categories":[],"categories_nodes":[],"categories_segments":[],"categories_sizes":[],"default_left":[0,0,0,0,0,0,0,0,0,0,0,0,0,0,0,0,0,0,0,0,0,0,0,0,0,0,0,0,0,0,0,0,0,0,0,0,0,0,0,0,0,0,0,0,0,0,0,0,0,0,0,0,0,0,0,0,0,0,0,0,0,0,0,0,0,0,0,0,0,0,0,0,0,0,0,0,0,0,0,0,0,0,0,0,0,0,0,0,0,0,0,0,0,0,0,0,0,0,0,0,0,0,0,0,0,0,0,0,0,0,0,0,0,0,0,0,0,0,0,0,0],"id":11,"left_children":[1,3,5,7,9,11,13,15,17,19,21,23,25,27,29,31,33,35,37,39,41,43,45,47,49,51,53,55,57,59,61,63,65,67,69,71,73,75,77,79,-1,81,83,85,87,89,91,93,95,97,99,101,103,105,107,109,111,113,115,-1,-1,117,119,-1,-1,-1,-1,-1,-1,-1,-1,-1,-1,-1,-1,-1,-1,-1,-1,-1,-1,-1,-1,-1,-1,-1,-1,-1,-1,-1,-1,-1,-1,-1,-1,-1,-1,-1,-1,-1,-1,-1,-1,-1,-1,-1,-1,-1,-1,-1,-1,-1,-1,-1,-1,-1,-1,-1,-1,-1,-1],"loss_changes":[1.772133E3,7.622009E1,1.4148773E2,6.3042603E0,3.1394516E1,3.3152485E1,1.3949036E1,1.998352E0,6.351654E0,1.8167923E1,1.4036897E1,1.738786E1,1.8869316E1,6.990692E0,6.029907E0,1.9744873E-1,2.9501038E0,3.9132214E0,2.421074E0,2.5218582E0,1.4476028E1,9.265612E0,6.370634E0,6.823536E0,5.9417934E0,3.1720886E0,3.3019671E0,4.546608E0,4.010681E0,1.2929294E0,6.4001465E-1,3.9215088E-2,1.1576614E0,1.8768463E0,5.3273544E0,2.7024202E0,3.986607E0,3.1852417E0,4.4976044E-1,1.6562958E0,0E0,1.7146244E1,2.7140884E0,1.7047338E0,2.6838007E0,2.2508335E0,3.4043646E0,8.872928E0,1.0520639E1,8.242697E0,5.1525745E0,2.5286324E0,2.1921387E0,2.014633E0,2.5349374E0,7.0410957E0,3.8695755E0,1.2411194E0,2.5612583E0,0E0,0E0,1.3820953E0,2.9510498E-1,0E0,0E0,0E0,0E0,0E0,0E0,0E0,0E0,0E0,0E0,0E0,0E0,0E0,0E0,0E0,0E0,0E0,0E0,0E0,0E0,0E0,0E0,0E0,0E0,0E0,0E0,0E0,0E0,0E0,0E0,0E0,0E0,0E0,0E0,0E0,0E0,0E0,0E0,0E0,0E0,0E0,0E0,0E0,0E0,0E0,0E0,0E0,0E0,0E0,0E0,0E0,0E0,0E0,0E0,0E0,0E0,0E0,0E0],"parents":[2147483647,0,0,1,1,2,2,3,3,4,4,5,5,6,6,7,7,8,8,9,9,10,10,11,11,12,12,13,13,14,14,15,15,16,16,17,17,18,18,19,19,20,20,21,21,22,22,23,23,24,24,25,25,26,26,27,27,28,28,29,29,30,30,31,31,32,32,33,33,34,34,35,35,36,36,37,37,38,38,39,39,41,41,42,42,43,43,44,44,45,45,46,46,47,47,48,48,49,49,50,50,51,51,52,52,53,53,54,54,55,55,56,56,57,57,58,58,61,61,62,62],"right_children":[2,4,6,8,10,12,14,16,18,20,22,24,26,28,30,32,34,36,38,40,42,44,46,48,50,52,54,56,58,60,62,64,66,68,70,72,74,76,78,80,-1,82,84,86,88,90,92,94,96,98,100,102,104,106,108,110,112,114,116,-1,-1,118,120,-1,-1,-1,-1,-1,-1,-1,-1,-1,-1,-1,-1,-1,-1,-1,-1,-1,-1,-1,-1,-1,-1,-1,-1,-1,-1,-1,-1,-1,-1,-1,-1,-1,-1,-1,-1,-1,-1,-1,-1,-1,-1,-1,-1,-1,-1,-1,-1,-1,-1,-1,-1,-1,-1,-1,-1,-1,-1],"split_conditions":[3.524E1,2.875E1,4.193E1,3.47E1,3.872E1,3.92E1,4.975E1,2.199E1,4.470714E-1,4.4398E4,3.8376874E-1,3.8E1,3.7879625E-1,4.194E1,1.9191488E1,2.68E1,1E0,5.3693E4,6.495845E-1,4.8850418E1,4.724772E-1,4.588E4,4.618E1,5.2837E4,1E0,4.313E4,7.033E3,1E0,4.501522E-1,4.058E1,3.668363E1,3.489E4,1.9729449E-1,6.3098E4,1.0067E4,1.285E3,2.536E1,5.5834E4,7.5145E4,5.031E1,1.8619996E-2,1E0,3.1503E4,5.188E1,3.927E1,2.3392916E1,5.5782E4,1.196898E-1,3.3330348E-1,4.4681667E1,1.8404E4,4.9118E4,6.7224E4,4E0,3.8773453E1,4.084E1,1.7793E4,1.0628E4,6.9587E4,-3.1091766E-2,1.4462559E0,1.1914E4,-1.885E1,-5.2565044E-1,-7.431505E-1,1.5045776E-2,-8.1832695E-1,-3.1960854E-1,3.2780685E-2,-1.7810537E-1,-3.0015278E-1,-2.2951126E-1,-7.579937E-2,-2.6372188E-1,5.126541E-2,-3.4960452E-1,-1.9112714E-1,-1.0219656E0,-4.4691123E-2,-1.5997295E-1,4.3943113E-1,-1.04750745E-1,-1.4597054E-2,-1.5310055E-1,-1.9165306E-1,-7.864963E-2,5.768852E-2,1.9544907E-2,1.20643154E-1,1.6354008E-2,-1.338612E-1,-2.0138878E-1,1.2212516E-1,1.4862441E-2,-3.1041984E-2,8.88652E-2,-1.385147E-2,-1.5634918E-3,6.9017716E-2,1.02367856E-1,7.152786E-3,-1.7985992E-2,1.378046E-1,1.9006439E-1,9.4420165E-2,9.480056E-3,-4.5302123E-2,6.8939207E-3,7.6774865E-2,5.374626E-2,1.6076545E-1,2.0807293E-1,8.314636E-2,2.9985443E-1,1.613427E-1,7.536507E-2,2.3785457E-1,4.9257088E-1,2.8683826E-1,4.8230118E-1,7.699658E-1],"split_indices":[8,8,8,11,9,9,8,8,3,0,3,8,3,11,13,11,2,0,3,12,3,0,11,0,2,17,1,2,3,11,13,16,3,0,2,2,8,0,16,11,0,2,1,9,11,12,17,3,3,12,2,16,14,5,13,9,2,2,0,0,0,2,9,0,0,0,0,0,0,0,0,0,0,0,0,0,0,0,0,0,0,0,0,0,0,0,0,0,0,0,0,0,0,0,0,0,0,0,0,0,0,0,0,0,0,0,0,0,0,0,0,0,0,0,0,0,0,0,0,0,0],"split_type":[0,0,0,0,0,0,0,0,0,0,0,0,0,0,0,0,0,0,0,0,0,0,0,0,0,0,0,0,0,0,0,0,0,0,0,0,0,0,0,0,0,0,0,0,0,0,0,0,0,0,0,0,0,0,0,0,0,0,0,0,0,0,0,0,0,0,0,0,0,0,0,0,0,0,0,0,0,0,0,0,0,0,0,0,0,0,0,0,0,0,0,0,0,0,0,0,0,0,0,0,0,0,0,0,0,0,0,0,0,0,0,0,0,0,0,0,0,0,0,0,0],"sum_hessian":[1.4816E4,7.107E3,7.709E3,4.461E3,2.646E3,2.789E3,4.92E3,3.541E3,9.2E2,2.02E3,6.26E2,1.643E3,1.146E3,2.365E3,2.555E3,2.032E3,1.509E3,1.76E2,7.44E2,5.44E2,1.476E3,2.95E2,3.31E2,8.36E2,8.07E2,7.2E2,4.26E2,1.015E3,1.35E3,1E1,2.545E3,1.593E3,4.39E2,7.38E2,7.71E2,1E2,7.6E1,3.95E2,3.49E2,5.41E2,3E0,1.005E3,4.71E2,4.9E1,2.46E2,2.45E2,8.6E1,4.46E2,3.9E2,4.25E2,3.82E2,2.9E1,6.91E2,3.5E1,3.91E2,4.72E2,5.43E2,1.195E3,1.55E2,8E0,2E0,3.87E2,2.158E3,1.9E1,1.574E3,3E0,4.36E2,7.3E2,8E0,4.18E2,3.53E2,6.9E1,3.1E1,2.1E1,5.5E1,2.15E2,1.8E2,3.47E2,2E0,5.39E2,2E0,4.53E2,5.52E2,3.65E2,1.06E2,4.6E1,3E0,1.64E2,8.2E1,1.2E1,2.33E2,3.3E1,5.3E1,1.26E2,3.2E2,1.45E2,2.45E2,3.1E2,1.15E2,2.99E2,8.3E1,1.7E1,1.2E1,6.49E2,4.2E1,1.5E1,2E1,1.53E2,2.38E2,2.36E2,2.36E2,4.56E2,8.7E1,1.028E3,1.67E2,1.05E2,5E1,3.37E2,5E1,3E0,2.155E3],"tree_param":{"num_deleted":"0","num_feature":"20","num_nodes":"121","size_leaf_vector":"1"}},{"base_weights":[-8.181818E-3,-3.588749E-1,3.2335603E-1,-4.4078946E-1,-2.2439648E-1,1.472212E-1,4.205978E-1,-4.8129788E-1,-4.0092674E-1,-2.8036952E-1,-1.14035085E-2,5.932762E-2,2.5811824E-1,3.6321515E-1,4.7886747E-1,-4.8412332E-1,-3.4042552E-1,-4.741474E-1,-3.5162002E-1,-3.7958375E-1,-1.9360414E-1,8.068783E-2,-1.9170985E-1,-1.983664E-2,1.6187595E-1,3.512228E-1,1.1051502E-1,3.0229083E-1,4.0432724E-1,-1.1111111E-1,4.8085633E-1,-4.8457643E-1,1.5E-2,-4.2647058E-1,-1.0714286E-1,1.5E-2,-4.7522026E-1,-5E-2,-3.7790233E-1,-4.2506298E-1,-2.1064815E-1,1.11386135E-1,-2.578452E-1,-2.7857143E-1,1.6181229E-1,-3.4408602E-1,-4.950495E-2,-2.6966292E-1,9.102731E-3,8.498584E-2,2.4919094E-1,-0E0,3.6823362E-1,1.7316017E-2,2.0127119E-1,1.7236024E-1,3.6310396E-1,4.5424527E-1,2.7738094E-1,-2.4E-2,2E-1,4.4838214E-1,4.9242E-1,-2.8401015E-2,-2.9848637E-2,1.5E-2,-2.7272727E-2,1.12499995E-2,-2.5714286E-2,-2.8577728E-2,1.5E-2,-1.2941176E-2,5.5E-3,-1.9544333E-2,-2.8424658E-2,-2.7246376E-2,-1.913793E-2,-1.6770186E-2,-5.357143E-4,1.2075471E-2,-1.2954545E-2,-1.039548E-2,-2.1760562E-2,-2.6896551E-2,-9.2857145E-3,1.2875536E-2,-0E0,-2.3855422E-2,5.4545454E-3,-5.5434783E-3,2.1E-2,-1.9125E-2,9.000001E-3,2.2065062E-3,-1.8095238E-2,4.5627376E-4,1.8461538E-2,2.0142857E-2,3.8999997E-3,-1.5E-2,1.5E-2,1.690141E-2,2.4306122E-2,-3.3519552E-3,1.5849056E-2,1.4626865E-2,-2.5E-3,1.9764706E-2,6.932773E-3,1.701923E-2,2.5725806E-2,2.7409866E-2,-0E0,1.290566E-2,2.2884617E-2,2.2499999E-2,-1.5E-2,-1.5E-2,2.699074E-2,-1.5E-2,2.957865E-2],"categories":[],"categories_nodes":[],"categories_segments":[],"categories_sizes":[],"default_left":[0,0,0,0,0,0,0,0,0,0,0,0,0,0,0,0,0,0,0,0,0,0,0,0,0,0,0,0,0,0,0,0,0,0,0,0,0,0,0,0,0,0,0,0,0,0,0,0,0,0,0,0,0,0,0,0,0,0,0,0,0,0,0,0,0,0,0,0,0,0,0,0,0,0,0,0,0,0,0,0,0,0,0,0,0,0,0,0,0,0,0,0,0,0,0,0,0,0,0,0,0,0,0,0,0,0,0,0,0,0,0,0,0,0,0,0,0,0,0,0,0],"id":12,"left_children":[1,3,5,7,9,11,13,15,17,19,21,23,25,27,29,31,33,35,37,39,41,43,45,47,49,51,53,55,57,59,61,63,-1,65,67,-1,69,71,73,75,77,79,81,83,85,87,89,91,93,95,97,99,101,103,105,107,109,111,113,-1,115,117,119,-1,-1,-1,-1,-1,-1,-1,-1,-1,-1,-1,-1,-1,-1,-1,-1,-1,-1,-1,-1,-1,-1,-1,-1,-1,-1,-1,-1,-1,-1,-1,-1,-1,-1,-1,-1,-1,-1,-1,-1,-1,-1,-1,-1,-1,-1,-1,-1,-1,-1,-1,-1,-1,-1,-1,-1,-1,-1],"loss_changes":[1.7266962E3,7.940167E1,1.3069067E2,7.0476685E0,3.259117E1,2.6467659E1,1.6270203E1,7.184448E-1,8.01416E0,1.8563599E1,9.480121E0,1.2318464E1,1.6465965E1,6.094513E0,2.9129639E0,8.439331E-1,8.977294E-1,8.250122E-1,1.0746323E1,7.662674E0,2.2697697E1,1.106178E1,4.165014E0,6.198406E0,4.4165516E0,4.397293E0,3.9381218E0,7.8705063E0,9.246292E0,8.888889E-1,6.913452E-1,7.9071045E-2,0E0,7.593584E-1,1.40625E0,0E0,8.2710266E-1,2.6017156E0,6.0899963E0,2.3018036E0,2.997613E0,5.985199E0,8.414352E0,1.4013958E0,2.638998E0,2.2006378E0,1.7628014E0,1.8812156E0,6.6225924E0,6.0810194E0,4.9026546E0,2.25E0,2.1257706E0,4.1875086E0,2.4473925E0,2.8350563E0,3.4413528E0,1.2450867E0,2.639408E0,0E0,4.875E-1,7.758179E-1,8.604431E-1,0E0,0E0,0E0,0E0,0E0,0E0,0E0,0E0,0E0,0E0,0E0,0E0,0E0,0E0,0E0,0E0,0E0,0E0,0E0,0E0,0E0,0E0,0E0,0E0,0E0,0E0,0E0,0E0,0E0,0E0,0E0,0E0,0E0,0E0,0E0,0E0,0E0,0E0,0E0,0E0,0E0,0E0,0E0,0E0,0E0,0E0,0E0,0E0,0E0,0E0,0E0,0E0,0E0,0E0,0E0,0E0,0E0,0E0],"parents":[2147483647,0,0,1,1,2,2,3,3,4,4,5,5,6,6,7,7,8,8,9,9,10,10,11,11,12,12,13,13,14,14,15,15,16,16,17,17,18,18,19,19,20,20,21,21,22,22,23,23,24,24,25,25,26,26,27,27,28,28,29,29,30,30,31,31,33,33,34,34,36,36,37,37,38,38,39,39,40,40,41,41,42,42,43,43,44,44,45,45,46,46,47,47,48,48,49,49,50,50,51,51,52,52,53,53,54,54,55,55,56,56,57,57,58,58,60,60,61,61,62,62],"right_children":[2,4,6,8,10,12,14,16,18,20,22,24,26,28,30,32,34,36,38,40,42,44,46,48,50,52,54,56,58,60,62,64,-1,66,68,-1,70,72,74,76,78,80,82,84,86,88,90,92,94,96,98,100,102,104,106,108,110,112,114,-1,116,118,120,-1,-1,-1,-1,-1,-1,-1,-1,-1,-1,-1,-1,-1,-1,-1,-1,-1,-1,-1,-1,-1,-1,-1,-1,-1,-1,-1,-1,-1,-1,-1,-1,-1,-1,-1,-1,-1,-1,-1,-1,-1,-1,-1,-1,-1,-1,-1,-1,-1,-1,-1,-1,-1,-1,-1,-1,-1,-1],"split_conditions":[3.538E1,2.875E1,4.193E1,2.076E1,4.169E1,3.887E1,5.002E1,5.355E1,4.688E4,4.9501E4,4.6389642E-1,3.841E1,3.714055E-1,1E0,1.7973572E1,6.3004344E4,1.584E1,-4E1,2.17355E-1,3.409E1,5.1442E4,4.5124E4,4.112E1,4.2599E4,2E0,4.313E4,4.0642857E1,5.5199645E4,1.1349E4,4.1E1,5.295E1,6.6279256E-1,3.1971565E-1,-1.885E1,6.1440066E4,9.970356E-2,6.8419E4,1.142E3,1.0768E4,1E0,4.783E4,3.5935968E-1,4.7527647E-1,3.172E1,6.532E4,7.0086E4,3.504E1,4.4850418E1,5.1009715E-1,4.4681667E1,4.2594078E-1,3.995E1,3.779E1,6.9827E4,5.572128E-1,4.8289957E4,4.512875E1,7.4087E4,4.073601E1,-6.056156E-2,5.614E4,-1.885E1,4.8681625E4,-5.152614E-1,-1.4572614E0,2.8898564E-1,-9.7802943E-1,1.584113E-1,-4.9695733E-1,-2.8485608E-1,3.4844056E-2,-1.3680473E-1,3.241871E-2,-2.0742358E-1,-2.9287E-1,-1.6005284E-1,-1.00378186E-1,-4.537056E-2,-3.9715576E-3,6.288608E-2,-1.0694114E-1,-7.172184E-2,-1.4599663E-1,-1.2594531E-1,-3.0068893E-2,5.6625593E-2,2.337799E-3,-1.3327938E-1,7.264767E-2,-5.5870056E-2,9.2699885E-2,-7.263245E-2,1.7864456E-2,6.320915E-3,-1.2249515E-1,2.2261047E-3,8.512367E-2,9.622581E-2,3.3464126E-2,-3.9308853E-2,1.14169E-1,1.1591251E-1,1.8576415E-1,-1.0817299E-2,9.4695166E-2,8.979183E-2,-2.2480544E-2,1.6668364E-1,5.7683945E-2,1.0899971E-1,2.1675979E-1,3.020597E-1,1.8418773E-1,1.0251812E-1,1.5977463E-1,1.0834069E0,-1.1919571E-1,-8.7960206E-2,3.307679E-1,-1.1235992E-1,8.83431E-1],"split_indices":[8,8,8,8,10,9,8,10,0,0,3,8,3,2,13,19,8,9,3,8,14,17,9,0,2,17,13,19,2,2,8,3,0,8,19,0,17,2,2,2,16,3,3,8,16,16,8,13,3,12,3,10,8,17,3,18,12,17,13,0,0,9,19,0,0,0,0,0,0,0,0,0,0,0,0,0,0,0,0,0,0,0,0,0,0,0,0,0,0,0,0,0,0,0,0,0,0,0,0,0,0,0,0,0,0,0,0,0,0,0,0,0,0,0,0,0,0,0,0,0,0],"split_type":[0,0,0,0,0,0,0,0,0,0,0,0,0,0,0,0,0,0,0,0,0,0,0,0,0,0,0,0,0,0,0,0,0,0,0,0,0,0,0,0,0,0,0,0,0,0,0,0,0,0,0,0,0,0,0,0,0,0,0,0,0,0,0,0,0,0,0,0,0,0,0,0,0,0,0,0,0,0,0,0,0,0,0,0,0,0,0,0,0,0,0,0,0,0,0,0,0,0,0,0,0,0,0,0,0,0,0,0,0,0,0,0,0,0,0,0,0,0,0,0,0],"sum_hessian":[1.4849E4,7.216E3,7.633E3,4.483E3,2.733E3,2.716E3,4.917E3,2.218E3,2.265E3,2.164E3,5.69E2,1.516E3,1.2E3,2.481E3,2.436E3,2.172E3,4.6E1,9.08E2,1.357E3,1.008E3,1.156E3,3.77E2,1.92E2,8.56E2,6.6E2,7.35E2,4.65E2,1.003E3,1.478E3,8E0,2.428E3,2.171E3,1E0,3.3E1,1.3E1,1E0,9.07E2,1.09E2,1.248E3,7.93E2,2.15E2,2.01E2,9.55E2,6.9E1,3.08E2,9.2E1,1E2,8.8E1,7.68E2,3.52E2,3.08E2,3.4E1,7.01E2,2.3E2,2.35E2,3.21E2,6.82E2,1.059E3,4.19E2,4E0,4E0,6.48E2,1.78E3,1.181E3,9.9E2,1E0,3.2E1,7E0,6E0,9.06E2,1E0,5E1,5.9E1,8.11E2,4.37E2,6.2E2,1.73E2,1.6E2,5.5E1,1.58E2,4.3E1,5.3E2,4.25E2,2.8E1,4.1E1,2.32E2,7.6E1,8.2E1,1E1,9.1E1,9E0,7.9E1,9E0,7.06E2,6.2E1,2.62E2,9E1,2.09E2,9.9E1,1.7E1,1.7E1,2.12E2,4.89E2,1.78E2,5.2E1,2E2,3.5E1,8.4E1,2.37E2,3.11E2,3.71E2,1.053E3,6E0,2.64E2,1.55E2,3E0,1E0,1E0,6.47E2,1E0,1.779E3],"tree_param":{"num_deleted":"0","num_feature":"20","num_nodes":"121","size_leaf_vector":"1"}},{"base_weights":[-7.8434E-3,-3.5527802E-1,3.0649897E-1,-4.2997786E-1,-2.2360732E-1,7.261725E-2,3.8572648E-1,-4.6401986E-1,-3.732353E-1,-4.0674603E-1,-1.4707506E-1,1.2082339E-1,-1.8993506E-1,2.9203346E-1,4.450964E-1,-4.7575632E-1,-3.9364302E-1,-4.7373188E-1,-3.246301E-1,-4.5819113E-1,-2.2807017E-1,8.6904764E-2,-2.1751615E-1,5.0223213E-2,4.054054E-1,-3.7037037E-2,-3.0747128E-1,3.3900836E-1,1.6026711E-1,4.6617794E-1,3.3506045E-1,-4.7801507E-1,-2.5E-1,-1.5243903E-1,-4.527439E-1,-4.8237476E-1,-1.0714286E-1,-2.2899505E-1,-4.3093923E-1,-4.856771E-1,-4.039409E-1,-3.5E-1,-9.146342E-2,2.4115756E-1,-3.5E-1,-3.3958334E-1,-8.6795256E-2,-2.5203252E-1,8.060557E-2,2.3188406E-1,4.490566E-1,5.2884616E-2,-3.28125E-1,-3.3128834E-1,4.1666668E-2,1.12068966E-1,3.6508995E-1,3.196347E-2,2.335958E-1,4.87139E-1,4.0648854E-1,2.56E-1,4.7804877E-1,-2.8705487E-2,1.5E-2,2.4999999E-2,-2.5714286E-2,-2.590909E-2,-2.9508197E-3,-2.8489932E-2,-1.3548386E-2,-2.9515011E-2,-2.635514E-2,-1.6363636E-2,2.2499999E-2,4.5000003E-3,-1.5711678E-2,1.2E-2,-2.6159553E-2,-2.9295038E-2,1.5E-2,1.2E-2,-2.5025126E-2,2E-2,-2.215909E-2,-2E-2,4.2E-3,3.1967212E-3,2.163158E-2,-2.278846E-2,8.571429E-3,-8.379888E-3,-2.4298893E-2,8.537234E-3,-2.2474915E-2,-1.7614678E-2,4E-3,1.1428571E-2,-3.7924526E-3,-2.2499999E-2,1.5909089E-2,2.074074E-2,2.9513514E-2,1.6923077E-2,-5E-3,-2.625E-2,-0E0,3.75E-3,-2.0961538E-2,2.4E-2,-1.12499995E-2,-3.857143E-3,1.3714286E-2,2.5755534E-2,1.3218142E-2,-4.1911765E-3,1.1785714E-2,2.1306816E-2,7.718446E-3,1.625E-2,2.9357046E-2,1.937743E-2,2.6773585E-2,-7.5E-3,1.7735293E-2,-0E0,2.8965516E-2],"categories":[],"categories_nodes":[],"categories_segments":[],"categories_sizes":[],"default_left":[0,0,0,0,0,0,0,0,0,0,0,0,0,0,0,0,0,0,0,0,0,0,0,0,0,0,0,0,0,0,0,0,0,0,0,0,0,0,0,0,0,0,0,0,0,0,0,0,0,0,0,0,0,0,0,0,0,0,0,0,0,0,0,0,0,0,0,0,0,0,0,0,0,0,0,0,0,0,0,0,0,0,0,0,0,0,0,0,0,0,0,0,0,0,0,0,0,0,0,0,0,0,0,0,0,0,0,0,0,0,0,0,0,0,0,0,0,0,0,0,0,0,0,0,0,0,0],"id":13,"left_children":[1,3,5,7,9,11,13,15,17,19,21,23,25,27,29,31,33,35,37,39,41,43,45,47,49,51,53,55,57,59,61,63,65,67,69,71,73,75,77,79,81,83,85,87,89,91,93,95,97,99,101,103,105,107,109,111,113,115,117,119,121,123,125,-1,-1,-1,-1,-1,-1,-1,-1,-1,-1,-1,-1,-1,-1,-1,-1,-1,-1,-1,-1,-1,-1,-1,-1,-1,-1,-1,-1,-1,-1,-1,-1,-1,-1,-1,-1,-1,-1,-1,-1,-1,-1,-1,-1,-1,-1,-1,-1,-1,-1,-1,-1,-1,-1,-1,-1,-1,-1,-1,-1,-1,-1,-1,-1],"loss_changes":[1.6292454E3,6.960022E1,1.450979E2,8.5578E0,3.5919296E1,2.5121056E1,3.241095E1,2.1428223E0,8.150131E0,6.8446503E0,2.9883919E1,3.365306E1,5.523696E0,1.40086975E1,8.146057E0,1.1109619E0,5.761425E0,1.6972656E0,1.1583061E1,6.776123E-1,2.8162384E0,2.8389793E1,2.219825E1,1.236259E1,2.4181519E0,3.5509927E0,1.4606915E0,9.867386E0,5.628126E0,3.5567017E0,6.4230576E0,8.319092E-1,3.2738094E0,2.3443258E0,1.5369339E0,5.706787E-3,1.2199675E0,6.0842876E0,1.8184738E0,8.490982E-1,1.6949387E0,1.3111744E0,3.2256913E0,6.9555473E0,1.6702614E0,9.356949E0,4.448802E1,1.6481533E0,1.9320662E1,1.4925065E0,1.003437E0,3.270032E0,1.1484375E0,1.1817436E0,1.0604166E0,3.5896552E0,1.3851028E1,3.6809301E0,4.8135586E0,8.9575195E-1,2.4649048E0,5.693117E0,4.615631E-1,0E0,0E0,0E0,0E0,0E0,0E0,0E0,0E0,0E0,0E0,0E0,0E0,0E0,0E0,0E0,0E0,0E0,0E0,0E0,0E0,0E0,0E0,0E0,0E0,0E0,0E0,0E0,0E0,0E0,0E0,0E0,0E0,0E0,0E0,0E0,0E0,0E0,0E0,0E0,0E0,0E0,0E0,0E0,0E0,0E0,0E0,0E0,0E0,0E0,0E0,0E0,0E0,0E0,0E0,0E0,0E0,0E0,0E0,0E0,0E0,0E0,0E0,0E0,0E0],"parents":[2147483647,0,0,1,1,2,2,3,3,4,4,5,5,6,6,7,7,8,8,9,9,10,10,11,11,12,12,13,13,14,14,15,15,16,16,17,17,18,18,19,19,20,20,21,21,22,22,23,23,24,24,25,25,26,26,27,27,28,28,29,29,30,30,31,31,32,32,33,33,34,34,35,35,36,36,37,37,38,38,39,39,40,40,41,41,42,42,43,43,44,44,45,45,46,46,47,47,48,48,49,49,50,50,51,51,52,52,53,53,54,54,55,55,56,56,57,57,58,58,59,59,60,60,61,61,62,62],"right_children":[2,4,6,8,10,12,14,16,18,20,22,24,26,28,30,32,34,36,38,40,42,44,46,48,50,52,54,56,58,60,62,64,66,68,70,72,74,76,78,80,82,84,86,88,90,92,94,96,98,100,102,104,106,108,110,112,114,116,118,120,122,124,126,-1,-1,-1,-1,-1,-1,-1,-1,-1,-1,-1,-1,-1,-1,-1,-1,-1,-1,-1,-1,-1,-1,-1,-1,-1,-1,-1,-1,-1,-1,-1,-1,-1,-1,-1,-1,-1,-1,-1,-1,-1,-1,-1,-1,-1,-1,-1,-1,-1,-1,-1,-1,-1,-1,-1,-1,-1,-1,-1,-1,-1,-1,-1,-1],"split_conditions":[3.504E1,2.875E1,3.941E1,2.854E1,5E0,2E1,4.6E1,1.7E1,6E0,3.4E1,8E0,1.6E1,5.214425E4,2E1,2.1E1,6.7224E4,8.096E3,4.584125E1,5.9042317E-1,5.8081625E4,3.201E1,5E0,1.6E1,4.2306E4,2.3E1,2.3E1,3.923E1,2E0,3.679E1,3.0050886E-1,5.421E1,7.2906E4,3.239E3,4.609E4,2.786887E1,5E0,5.0329E4,2.3191865E-1,3.8012E4,4.795E1,4.4249E4,-4.95E0,4.3501E4,6E0,3.927E1,7.123E3,2E1,4.4850418E1,9E0,5.0865E4,1.7E1,1.9533534E-1,3.779E1,1.6790833E1,3E0,4.4958332E1,1.0188E4,3.795E1,2.079923E-1,2.1752678E1,4.009113E1,4.5865E4,4.1996E4,-4.080435E-1,1.9048462E-2,1.0538303E-1,-3.5573563E-1,-2.796943E-1,-4.877804E-2,-4.2254585E-1,-1.3710016E-1,-3.6329582E-1,-2.2411296E-1,-3.0600923E-1,1.0660904E-1,3.0826721E-2,-1.6283855E-1,2.6138264E-1,-6.0401297E-1,-1.653365E-1,3.2545716E-1,1.5360259E-2,-1.2386146E-1,8.4654346E-2,-5.6871414E-2,-3.575432E-2,7.4832914E-3,6.7362213E-3,2.1909553E-1,-9.1815606E-2,2.8770903E-2,-8.165783E-2,-1.4389183E-1,2.9108047E-2,-2.3979972E-1,-4.4119492E-2,1.572464E-2,4.246296E-2,-9.480056E-3,-1.2829284E-2,7.605972E-2,7.201218E-2,2.5098667E-1,2.8060226E-2,-1.0436096E-2,-6.655243E-2,7.28302E-4,9.115448E-3,-8.817764E-2,3.505131E-2,-4.902855E-2,-1.3964538E-2,8.883476E-2,2.285408E-1,6.987888E-2,-8.170395E-3,5.020042E-2,1.1497307E-1,4.2663116E-2,2.2807273E-1,6.163838E-1,2.0141223E-1,3.463218E-1,-1.7910462E-2,1.5142502E-1,1.2067279E-1,5.481292E-1],"split_indices":[8,8,8,11,4,4,8,4,4,8,4,4,18,4,4,0,1,12,3,18,11,5,4,0,2,4,8,4,10,3,8,15,2,17,13,4,14,3,15,10,14,11,16,4,11,2,4,13,4,0,4,3,8,12,5,12,2,11,3,13,13,16,15,0,0,0,0,0,0,0,0,0,0,0,0,0,0,0,0,0,0,0,0,0,0,0,0,0,0,0,0,0,0,0,0,0,0,0,0,0,0,0,0,0,0,0,0,0,0,0,0,0,0,0,0,0,0,0,0,0,0,0,0,0,0,0,0],"split_type":[0,0,0,0,0,0,0,0,0,0,0,0,0,0,0,0,0,0,0,0,0,0,0,0,0,0,0,0,0,0,0,0,0,0,0,0,0,0,0,0,0,0,0,0,0,0,0,0,0,0,0,0,0,0,0,0,0,0,0,0,0,0,0,0,0,0,0,0,0,0,0,0,0,0,0,0,0,0,0,0,0,0,0,0,0,0,0,0,0,0,0,0,0,0,0,0,0,0,0,0,0,0,0,0,0,0,0,0,0,0,0,0,0,0,0,0,0,0,0,0,0,0,0,0,0,0,0],"sum_hessian":[1.4916E4,7.085E3,7.831E3,4.519E3,2.566E3,1.982E3,5.849E3,2.82E3,1.699E3,7.55E2,1.811E3,1.675E3,3.07E2,2.271E3,3.578E3,2.412E3,4.08E2,5.51E2,1.148E3,5.85E2,1.7E2,4.19E2,1.392E3,1.343E3,3.32E2,1.34E2,1.73E2,1.673E3,5.98E2,3E3,5.78E2,2.387E3,2.5E1,8.1E1,3.27E2,5.38E2,1.3E1,6.06E2,5.42E2,3.83E2,2.02E2,8.9E1,8.1E1,3.1E2,1.09E2,7.19E2,6.73E2,1.22E2,1.221E3,6.8E1,2.64E2,1.03E2,3.1E1,1.62E2,1.1E1,1.73E2,1.5E3,2.18E2,3.8E2,2.215E3,7.85E2,3.74E2,2.04E2,2.386E3,1E0,5E0,2E1,2.1E1,6E1,2.97E2,3E1,4.32E2,1.06E2,1E1,3E0,5.9E1,5.47E2,4E0,5.38E2,3.82E2,1E0,4E0,1.98E2,2E0,8.7E1,3.2E1,4.9E1,1.21E2,1.89E2,1.03E2,6E0,1.78E2,5.41E2,3.75E2,2.98E2,1.08E2,1.4E1,6.92E2,5.29E2,3E0,6.5E1,8E1,1.84E2,3.8E1,6.5E1,2.3E1,8E0,7E0,1.55E2,4E0,7E0,6.9E1,1.04E2,1.038E3,4.62E2,1.35E2,8.3E1,1.75E2,2.05E2,2.3E1,2.192E3,2.56E2,5.29E2,3.5E1,3.39E2,2E0,2.02E2],"tree_param":{"num_deleted":"0","num_feature":"20","num_nodes":"127","size_leaf_vector":"1"}},{"base_weights":[-3.873619E-3,-3.081277E-1,3.3867964E-1,-3.8298404E-1,-6.482982E-2,2.1118681E-1,4.2336115E-1,-4.3968296E-1,-2.9070276E-1,-1.8325527E-1,3.6573146E-2,1.2157153E-1,2.9493406E-1,3.6902967E-1,4.721341E-1,-4.6296945E-1,-3.632723E-1,-2.1767068E-1,-3.7726837E-1,-2.7857143E-1,-5.479452E-2,1.7900172E-1,-1.6148326E-1,4.7756873E-2,1.9878604E-1,3.692142E-1,1.5984406E-1,3.094978E-1,4.1945997E-1,4.233871E-1,4.9086902E-1,-4.9496797E-1,-4.4280022E-1,-2.9564315E-1,-4.4529262E-1,-4.3243244E-1,-1.3910186E-1,-4.6438748E-1,-3.328551E-1,-3.1670824E-1,-1.0555556E-1,-1.5189873E-1,1.2403101E-1,1.9522968E-1,-4.0625E-1,-2.2461538E-1,5.851064E-2,-1.1818182E-2,2.78169E-1,3.1936416E-1,6.528662E-2,2.8553298E-1,4.3003732E-1,1.046832E-1,2.9139072E-1,2.5054467E-1,3.6790392E-1,4.505632E-1,3.2789856E-1,3.037037E-1,4.557613E-1,2.9626228E-2,4.140625E-1,-1.5E-2,-2.9806273E-2,-1.9857954E-2,-2.8229017E-2,-2.8695652E-2,-1.2204969E-2,-2.8262194E-2,-1.8636363E-2,-2.6086955E-3,-2.7588423E-2,4.4609664E-4,-1.2E-2,-2.9028777E-2,-2.3108108E-2,-2.4338027E-2,-1.5393585E-2,-1.9694656E-2,1.3333333E-2,-1.1304348E-2,9.545454E-3,1.2692307E-2,-1.1745283E-2,1.7468354E-2,-8.235294E-3,-1.0769231E-2,1.3352272E-2,-2.7999999E-2,1.5E-2,-1.5944881E-2,-4.583333E-3,1.078125E-2,-1.1612902E-2,-3.6674815E-3,7.816901E-3,5.0847456E-3,2.4642857E-2,2E-2,-1.8749999E-2,-1.30909085E-2,7.5E-3,-1.0588235E-2,1.8333333E-2,9.473683E-3,2.6351351E-2,1.4062499E-3,1.1686047E-2,1.8620688E-2,-8.571429E-3,2.4242424E-3,1.8448753E-2,1.6874999E-2,2.5229681E-2,2.7105263E-2,-1.5E-2,-0E0,2.056818E-2,-1.8749999E-2,2.0390624E-2,2.2051282E-2,2.8945945E-2,2.8363636E-2,3E-3],"categories":[],"categories_nodes":[],"categories_segments":[],"categories_sizes":[],"default_left":[0,0,0,0,0,0,0,0,0,0,0,0,0,0,0,0,0,0,0,0,0,0,0,0,0,0,0,0,0,0,0,0,0,0,0,0,0,0,0,0,0,0,0,0,0,0,0,0,0,0,0,0,0,0,0,0,0,0,0,0,0,