{"learner":{"attributes":{"scikit_learn":"{\"_estimator_type\": \"regressor\"}"},"feature_names":["load_mw","wind_mw","solar_mw","renewables_share","hour","dow","is_weekend","is_holiday_de","price_eur_mwh_lag1","price_eur_mwh_lag24","price_eur_mwh_lag48","price_eur_mwh_lag168","price_eur_mwh_roll24_mean","price_eur_mwh_roll168_mean","load_mw_lag1","load_mw_lag24","load_mw_lag48","load_mw_lag168","load_mw_roll24_mean","load_mw_roll168_mean"],"feature_types":["float","float","float","float","int","int","int","int","float","float","float","float","float","float","float","float","float","float","float","float"],"gradient_booster":{"model":{"gbtree_model_param":{"num_parallel_tree":"1","num_trees":"400"},"iteration_indptr":[0,1,2,3,4,5,6,7,8,9,10,11,12,13,14,15,16,17,18,19,20,21,22,23,24,25,26,27,28,29,30,31,32,33,34,35,36,37,38,39,40,41,42,43,44,45,46,47,48,49,50,51,52,53,54,55,56,57,58,59,60,61,62,63,64,65,66,67,68,69,70,71,72,73,74,75,76,77,78,79,80,81,82,83,84,85,86,87,88,89,90,91,92,93,94,95,96,97,98,99,100,101,102,103,104,105,106,107,108,109,110,111,112,113,114,115,116,117,118,119,120,121,122,123,124,125,126,127,128,129,130,131,132,133,134,135,136,137,138,139,140,141,142,143,144,145,146,147,148,149,150,151,152,153,154,155,156,157,158,159,160,161,162,163,164,165,166,167,168,169,170,171,172,173,174,175,176,177,178,179,180,181,182,183,184,185,186,187,188,189,190,191,192,193,194,195,196,197,198,199,200,201,202,203,204,205,206,207,208,209,210,211,212,213,214,215,216,217,218,219,220,221,222,223,224,225,226,227,228,229,230,231,232,233,234,235,236,237,238,239,240,241,242,243,244,245,246,247,248,249,250,251,252,253,254,255,256,257,258,259,260,261,262,263,264,265,266,267,268,269,270,271,272,273,274,275,276,277,278,279,280,281,282,283,284,285,286,287,288,289,290,291,292,293,294,295,296,297,298,299,300,301,302,303,304,305,306,307,308,309,310,311,312,313,314,315,316,317,318,319,320,321,322,323,324,325,326,327,328,329,330,331,332,333,334,335,336,337,338,339,340,341,342,343,344,345,346,347,348,349,350,351,352,353,354,355,356,357,358,359,360,361,362,363,364,365,366,367,368,369,370,371,372,373,374,375,376,377,378,379,380,381,382,383,384,385,386,387,388,389,390,391,392,393,394,395,396,397,398,399,400],"tree_info":[0,0,0,0,0,0,0,0,0,0,0,0,0,0,0,0,0,0,0,0,0,0,0,0,0,0,0,0,0,0,0,0,0,0,0,0,0,0,0,0,0,0,0,0,0,0,0,0,0,0,0,0,0,0,0,0,0,0,0,0,0,0,0,0,0,0,0,0,0,0,0,0,0,0,0,0,0,0,0,0,0,0,0,0,0,0,0,0,0,0,0,0,0,0,0,0,0,0,0,0,0,0,0,0,0,0,0,0,0,0,0,0,0,0,0,0,0,0,0,0,0,0,0,0,0,0,0,0,0,0,0,0,0,0,0,0,0,0,0,0,0,0,0,0,0,0,0,0,0,0,0,0,0,0,0,0,0,0,0,0,0,0,0,0,0,0,0,0,0,0,0,0,0,0,0,0,0,0,0,0,0,0,0,0,0,0,0,0,0,0,0,0,0,0,0,0,0,0,0,0,0,0,0,0,0,0,0,0,0,0,0,0,0,0,0,0,0,0,0,0,0,0,0,0,0,0,0,0,0,0,0,0,0,0,0,0,0,0,0,0,0,0,0,0,0,0,0,0,0,0,0,0,0,0,0,0,0,0,0,0,0,0,0,0,0,0,0,0,0,0,0,0,0,0,0,0,0,0,0,0,0,0,0,0,0,0,0,0,0,0,0,0,0,0,0,0,0,0,0,0,0,0,0,0,0,0,0,0,0,0,0,0,0,0,0,0,0,0,0,0,0,0,0,0,0,0,0,0,0,0,0,0,0,0,0,0,0,0,0,0,0,0,0,0,0,0,0,0,0,0,0,0,0,0,0,0,0,0,0,0,0,0,0,0,0,0,0,0,0,0,0,0,0,0,0,0,0,0,0,0,0,0,0,0,0,0,0,0,0,0,0,0,0,0,0,0,0,0,0,0],"trees":[{"base_weights":[-1.1282262E-3,-1.10911764E-1,6.936081E-1,-1.4008923E-1,1.08399756E-1,5.058824E-1,7.914662E-1,-1.4753594E-1,-9.185354E-2,1.852703E-1,-1.0680098E-1,6.2785435E-1,1.771053E-1,5.944079E-1,8.162002E-1,-1.4783563E-1,-4.4999976E-2,1.3355073E-2,-1.1847105E-1,3.2351148E-1,-1.3706117E-2,-1.2839876E-1,1.4925608E-3,7.16366E-1,3.38843E-1,9.783953E-2,6.1379313E-1,3.594203E-1,7.803572E-1,8.215831E-1,5.229167E-1,-1.4941147E-1,-1.3419762E-1,2.8000003E-1,-1.0576921E-1,-8.95588E-3,3.3221155E-1,-1.2007448E-1,3.3999998E-2,-4.0416643E-2,4.0438434E-1,-4.873851E-2,7.1428573E-1,2.55E-2,-1.3136362E-1,2.7058825E-1,-8.8235274E-2,4.9553573E-1,7.5135136E-1,2.6650944E-1,4.78125E-2,-3.2692283E-2,2.1647061E-1,2.2727275E-1,4.831579E-2,7.391307E-2,4.9148938E-1,8.0126584E-1,3.7500003E-1,7.415909E-1,5.0369263E-2,-7.199999E-3,6.575E-1,-8.156861E-3,-8.9780195E-3,-5.548779E-3,-8.833975E-3,-5.999999E-3,3.3999998E-2,2.55E-2,-8.639999E-3,2.985484E-2,5.162792E-3,-3.553277E-3,-8.120205E-3,-7.612902E-3,1.48928575E-2,3.0393701E-2,9.134617E-3,3.0352943E-2,-4.264284E-3,1.4E-2,4.5157894E-2,-8.392281E-3,4.5000136E-4,3.39E-2,-7.874998E-3,-6.4199986E-3,2.55E-2,3.7725E-2,9.176471E-3,1.4625001E-2,4.5690186E-2,2.5132077E-2,6.7222235E-3,2.657143E-2,-4.7083315E-3,4.2162174E-3,1.934694E-2,-3.7499875E-4,3.8250003E-2,-8.4374985E-3,2.9625002E-2,4.2115383E-2,1.3227274E-2,1.4E-2,4.877922E-2,-5.999999E-3,3.8250003E-2,3.1214286E-2,4.736313E-2,4.78125E-2,4.800001E-3],"categories":[],"categories_nodes":[],"categories_segments":[],"categories_sizes":[],"default_left":[0,0,0,0,0,0,0,0,0,0,0,0,0,0,0,0,0,0,0,0,0,0,0,0,0,0,0,0,0,0,0,0,0,0,0,0,0,0,0,0,0,0,0,0,0,0,0,0,0,0,0,0,0,0,0,0,0,0,0,0,0,0,0,0,0,0,0,0,0,0,0,0,0,0,0,0,0,0,0,0,0,0,0,0,0,0,0,0,0,0,0,0,0,0,0,0,0,0,0,0,0,0,0,0,0,0,0,0,0,0,0,0,0],"id":0,"left_children":[1,3,5,7,9,11,13,15,17,19,21,23,25,27,29,31,33,35,37,39,41,43,45,47,49,51,53,55,57,59,61,63,65,67,69,-1,71,73,-1,75,77,79,81,-1,83,85,87,89,91,93,-1,95,97,99,-1,101,103,105,107,109,-1,-1,111,-1,-1,-1,-1,-1,-1,-1,-1,-1,-1,-1,-1,-1,-1,-1,-1,-1,-1,-1,-1,-1,-1,-1,-1,-1,-1,-1,-1,-1,-1,-1,-1,-1,-1,-1,-1,-1,-1,-1,-1,-1,-1,-1,-1,-1,-1,-1,-1,-1,-1],"loss_changes":[1.1323905E3,8.205618E1,3.6818237E1,4.051132E0,2.493294E1,2.7839615E1,5.9973145E0,2.945099E-1,4.246977E0,3.0536907E1,9.2873573E-1,1.2752365E1,6.516681E0,6.3612785E0,1.4316406E0,1.8995667E-1,6.221153E-1,1.5968262E1,1.3973103E0,1.9294243E1,1.1664317E1,5.989146E-1,1.6416155E0,2.6252747E0,3.796485E0,2.515668E0,1.963191E0,2.5654325E0,4.114647E-1,1.0331421E0,2.1555204E0,5.844116E-3,5.421543E-1,6.0133326E-1,5.8878464E-1,0E0,4.1908274E0,1.1139259E0,0E0,3.0262728E0,1.3731888E1,5.436377E0,2.1167755E-1,0E0,3.9091635E-1,2.0853565E0,5.366411E-1,2.4595938E0,1.5303497E0,2.4478006E0,0E0,1.7328598E0,1.2943382E0,1.0577557E0,0E0,2.1410666E0,2.525898E0,3.361969E-1,8.1187505E-1,1.9168167E0,0E0,0E0,1.546031E0,0E0,0E0,0E0,0E0,0E0,0E0,0E0,0E0,0E0,0E0,0E0,0E0,0E0,0E0,0E0,0E0,0E0,0E0,0E0,0E0,0E0,0E0,0E0,0E0,0E0,0E0,0E0,0E0,0E0,0E0,0E0,0E0,0E0,0E0,0E0,0E0,0E0,0E0,0E0,0E0,0E0,0E0,0E0,0E0,0E0,0E0,0E0,0E0,0E0,0E0],"parents":[2147483647,0,0,1,1,2,2,3,3,4,4,5,5,6,6,7,7,8,8,9,9,10,10,11,11,12,12,13,13,14,14,15,15,16,16,17,17,18,18,19,19,20,20,21,21,22,22,23,23,24,24,25,25,26,26,27,27,28,28,29,29,30,30,31,31,32,32,33,33,34,34,36,36,37,37,39,39,40,40,41,41,42,42,44,44,45,45,46,46,47,47,48,48,49,49,51,51,52,52,53,53,55,55,56,56,57,57,58,58,59,59,62,62],"right_children":[2,4,6,8,10,12,14,16,18,20,22,24,26,28,30,32,34,36,38,40,42,44,46,48,50,52,54,56,58,60,62,64,66,68,70,-1,72,74,-1,76,78,80,82,-1,84,86,88,90,92,94,-1,96,98,100,-1,102,104,106,108,110,-1,-1,112,-1,-1,-1,-1,-1,-1,-1,-1,-1,-1,-1,-1,-1,-1,-1,-1,-1,-1,-1,-1,-1,-1,-1,-1,-1,-1,-1,-1,-1,-1,-1,-1,-1,-1,-1,-1,-1,-1,-1,-1,-1,-1,-1,-1,-1,-1,-1,-1,-1,-1],"split_conditions":[5.191E1,4.615E1,5.591E1,4.151E1,2E1,2E1,4.2246666E1,6.803E1,8E0,4.981E3,5.054E1,7.486E3,5.4E1,4.922E1,1.7226E4,3.89E1,1E0,5.4967E4,8.048E1,5E0,1.7E1,4.583569E4,2.1E1,3.61E1,1.4E1,4.6E1,3.8474583E1,5.4E1,3.6412925E-1,5.898E1,3.9774406E1,6.0213346E-2,8E0,5.7654E4,1.0192E4,-3.207002E-1,2.231525E-1,1.6890506E-1,3.1859662E-2,5.025E1,6.8015E4,1.7122148E-1,3.086E1,1.3625976E-1,2.48E2,5.392748E4,7.123E1,2E0,4.588E4,3.0231228E-1,6.644998E-1,2.603E1,5.361E1,4.6E1,2.525998E-1,4.259E1,5.6101E4,4.5372E4,6.676E4,5.6699E4,1.89696E0,-2.2140197E-2,4.026265E-1,-7.116902E-1,-8.8065016E-1,-2.4168019E-1,-4.8993015E-1,-1.1334022E-1,2.1059874E-2,1.1765968E-1,-4.0284017E-1,3.5693976E-1,7.106981E-2,-6.3540146E-2,-2.5329006E-1,-8.082017E-2,7.5659774E-2,3.7796992E-1,1.1237979E-1,4.261798E-1,-5.9940252E-2,6.330597E-1,3.909598E-1,-1.9251026E-1,5.9766768E-5,2.0735975E-1,-1.627802E-1,-1.2504017E-1,8.459701E-3,4.4105995E-1,1.0862983E-1,2.698197E-1,6.1019975E-1,2.0531985E-1,1.11899845E-1,2.7755982E-1,-5.022019E-2,2.528981E-2,1.7573984E-1,4.572599E-1,4.8665977E-1,-6.462016E-2,6.8237984E-1,8.7258E-1,8.3262014E-1,8.166595E-1,1.2266397E0,-2.2134018E-1,8.232596E-1,5.9867984E-1,7.874699E-1,1.1586599E0,3.905983E-2],"split_indices":[8,8,8,8,4,4,12,11,4,2,8,2,2,11,2,8,5,0,9,4,4,19,4,10,4,9,12,2,3,8,13,3,4,0,1,0,3,3,0,8,14,3,10,0,2,19,9,5,0,3,0,9,8,9,0,9,16,16,0,0,0,0,3,0,0,0,0,0,0,0,0,0,0,0,0,0,0,0,0,0,0,0,0,0,0,0,0,0,0,0,0,0,0,0,0,0,0,0,0,0,0,0,0,0,0,0,0,0,0,0,0,0,0],"split_type":[0,0,0,0,0,0,0,0,0,0,0,0,0,0,0,0,0,0,0,0,0,0,0,0,0,0,0,0,0,0,0,0,0,0,0,0,0,0,0,0,0,0,0,0,0,0,0,0,0,0,0,0,0,0,0,0,0,0,0,0,0,0,0,0,0,0,0,0,0,0,0,0,0,0,0,0,0,0,0,0,0,0,0,0,0,0,0,0,0,0,0,0,0,0,0,0,0,0,0,0,0,0,0,0,0,0,0,0,0,0,0,0,0],"sum_hessian":[1.4845E4,1.282E4,2.025E3,1.1315E4,1.505E3,6.96E2,1.329E3,9.8E3,1.515E3,1.109E3,3.96E2,5.07E2,1.89E2,1.51E2,1.178E3,9.771E3,2.9E1,3.06E2,1.209E3,6.54E2,4.55E2,3.3E2,6.6E1,3.87E2,1.2E2,1.61E2,2.8E1,6.8E1,8.3E1,1.155E3,2.3E1,8.75E3,1.021E3,4E0,2.5E1,2.03E2,1.03E2,1.207E3,2E0,1.19E2,5.35E2,4.35E2,2E1,1E0,3.29E2,1.6E1,5E1,5.5E1,3.32E2,1.05E2,1.5E1,7.7E1,8.4E1,1E1,1.8E1,2.2E1,4.6E1,7.8E1,5E0,2.19E2,9.36E2,4E0,1.9E1,1.52E2,8.598E3,2.45E2,7.76E2,2E0,2E0,1E0,2.4E1,6.1E1,4.2E1,2.43E2,9.64E2,9.2E1,2.7E1,3.8E2,1.55E2,1.6E1,4.19E2,2E0,1.8E1,3.1E2,1.9E1,9E0,7E0,4.9E1,1E0,3.9E1,1.6E1,7E0,3.25E2,5.2E1,5.3E1,6E0,7.1E1,3.6E1,4.8E1,7E0,3E0,1.5E1,7E0,2.5E1,2.1E1,2E0,7.6E1,2E0,3E0,4.1E1,1.78E2,1.5E1,4E0],"tree_param":{"num_deleted":"0","num_feature":"20","num_nodes":"113","size_leaf_vector":"1"}},{"base_weights":[-6.3368226E-3,-1.13046326E-1,6.6625005E-1,-1.3687454E-1,1.05051324E-1,5.1753736E-1,7.9211247E-1,-1.435244E-1,-4.190787E-2,1.7529415E-1,-9.249247E-2,6.319544E-1,1.7836137E-1,6.7447186E-1,8.318903E-1,-1.47257E-1,-1.03899546E-1,-8.112743E-2,1.1946311E-1,4.4977975E-1,8.716504E-2,1.6923079E-1,-1.02803715E-1,4.980843E-1,7.097506E-1,3.4606743E-1,7.766669E-2,4.9500003E-1,7.2976744E-1,3E-1,8.354423E-1,-1.4755341E-1,-3.7499975E-2,-1.0051522E-2,-1.2826377E-1,-1.4798183E-2,-1.1884613E-1,3.1250003E-1,-8.0405384E-2,3.4545477E-2,5.791908E-1,1.633214E-2,3.2623458E-1,-7.874998E-3,5.416667E-1,-8.938355E-3,-6.392043E-2,5.8236843E-1,2.6875E-1,5.875969E-1,7.578275E-1,5.1355934E-1,1.6129056E-2,1.7753648E-2,7.076923E-1,-6.153844E-2,6.1120695E-1,-4.4999993E-3,7.3387855E-1,-6.749999E-3,3.8250003E-2,8.3665437E-1,-4.4999993E-3,-8.882128E-3,-6.508063E-3,-6.1249984E-3,1.6800001E-2,-8.037312E-3,1.5737705E-2,-7.774931E-3,2.55E-2,-2.6411468E-3,2.36E-2,-7.426355E-3,2.325E-2,8.780489E-3,2.9583335E-2,-7.849999E-3,7.6000015E-3,-4.8913024E-3,3.39E-2,3.9983194E-2,2.28E-2,1.3595377E-2,-4.8271264E-3,8.149255E-3,2.734375E-2,4.0799998E-2,-4.4999993E-3,4.0000016E-3,-5.604165E-3,5.5384627E-3,3.689326E-2,-2.2499985E-3,2.72E-2,3.8536366E-2,1.5450001E-2,4.6510275E-2,2.959091E-2,1.8000001E-2,4.0363636E-2,-8.4705865E-3,1.1600001E-2,-3.8313237E-3,8.303572E-3,4.675E-2,-4.4999993E-3,2.55E-2,-8.249998E-3,2.496E-2,4.420588E-2,4.4471428E-2,1.6800001E-2,5.0272167E-2,-4.4999993E-3],"categories":[],"categories_nodes":[],"categories_segments":[],"categories_sizes":[],"default_left":[0,0,0,0,0,0,0,0,0,0,0,0,0,0,0,0,0,0,0,0,0,0,0,0,0,0,0,0,0,0,0,0,0,0,0,0,0,0,0,0,0,0,0,0,0,0,0,0,0,0,0,0,0,0,0,0,0,0,0,0,0,0,0,0,0,0,0,0,0,0,0,0,0,0,0,0,0,0,0,0,0,0,0,0,0,0,0,0,0,0,0,0,0,0,0,0,0,0,0,0,0,0,0,0,0,0,0,0,0,0,0,0,0,0,0],"id":1,"left_children":[1,3,5,7,9,11,13,15,17,19,21,23,25,27,29,31,33,35,37,39,41,43,45,47,49,51,53,55,57,59,61,63,65,67,69,71,73,75,77,79,81,83,85,-1,87,-1,89,91,93,95,97,99,101,103,105,107,109,-1,111,-1,-1,113,-1,-1,-1,-1,-1,-1,-1,-1,-1,-1,-1,-1,-1,-1,-1,-1,-1,-1,-1,-1,-1,-1,-1,-1,-1,-1,-1,-1,-1,-1,-1,-1,-1,-1,-1,-1,-1,-1,-1,-1,-1,-1,-1,-1,-1,-1,-1,-1,-1,-1,-1,-1,-1],"loss_changes":[1.069254E3,6.6835815E1,3.7773438E1,7.314499E0,1.7597145E1,3.6288742E1,4.600403E0,1.5869446E0,4.8196545E0,2.2578606E1,9.1606236E-1,6.947113E0,3.9922552E0,2.4571686E0,1.298523E0,3.1648254E-1,2.1389074E0,1.5293751E0,5.773844E0,1.217804E1,1.2000872E1,1.5259216E0,5.6673574E-1,4.88842E0,2.1445923E0,4.910035E0,5.6494493E0,4.564766E0,7.663574E-1,1.04625E0,9.610596E-1,1.6992188E-1,6.0272914E-1,6.581618E0,5.970392E-1,2.6768088E0,1.020814E0,2.2079096E0,7.8929615E-1,3.43232E0,2.7515373E0,1.1169818E1,3.9326267E0,0E0,5.628332E-1,0E0,6.838289E-1,2.971161E0,4.087063E0,2.1628494E0,1.0543671E0,1.8036985E0,8.9142567E-1,1.367482E0,7.8568935E-1,5.388942E-1,1.1150723E0,0E0,5.026779E-1,0E0,0E0,9.6343994E-1,0E0,0E0,0E0,0E0,0E0,0E0,0E0,0E0,0E0,0E0,0E0,0E0,0E0,0E0,0E0,0E0,0E0,0E0,0E0,0E0,0E0,0E0,0E0,0E0,0E0,0E0,0E0,0E0,0E0,0E0,0E0,0E0,0E0,0E0,0E0,0E0,0E0,0E0,0E0,0E0,0E0,0E0,0E0,0E0,0E0,0E0,0E0,0E0,0E0,0E0,0E0,0E0,0E0],"parents":[2147483647,0,0,1,1,2,2,3,3,4,4,5,5,6,6,7,7,8,8,9,9,10,10,11,11,12,12,13,13,14,14,15,15,16,16,17,17,18,18,19,19,20,20,21,21,22,22,23,23,24,24,25,25,26,26,27,27,28,28,29,29,30,30,31,31,32,32,33,33,34,34,35,35,36,36,37,37,38,38,39,39,40,40,41,41,42,42,44,44,46,46,47,47,48,48,49,49,50,50,51,51,52,52,53,53,54,54,55,55,56,56,58,58,61,61],"right_children":[2,4,6,8,10,12,14,16,18,20,22,24,26,28,30,32,34,36,38,40,42,44,46,48,50,52,54,56,58,60,62,64,66,68,70,72,74,76,78,80,82,84,86,-1,88,-1,90,92,94,96,98,100,102,104,106,108,110,-1,112,-1,-1,114,-1,-1,-1,-1,-1,-1,-1,-1,-1,-1,-1,-1,-1,-1,-1,-1,-1,-1,-1,-1,-1,-1,-1,-1,-1,-1,-1,-1,-1,-1,-1,-1,-1,-1,-1,-1,-1,-1,-1,-1,-1,-1,-1,-1,-1,-1,-1,-1,-1,-1,-1,-1,-1],"split_conditions":[5.191E1,4.697E1,5.834E1,4.455E1,2E1,2E1,6.216E1,4.172E1,5.156E1,1.734615E-1,4.2128276E-2,4.831E1,2.1E1,4.478E1,2.786887E1,6.803E1,8E0,2.0943655E-1,3.0863938E-1,5.0761E4,1.5E1,5.3169E4,4.388E1,3.107437E-1,4.392E1,6.3904E4,6.2794715E4,4.3612083E1,6.71E0,4.472E1,2.9548E4,5.591E1,5.7587605E4,5.4967E4,8.048E1,6.754E4,7.3779E4,4.898E1,2.7841E4,4.564E1,4E0,9E0,4.881E1,-1.6274805E-1,5.4799E4,-1.9000506E-1,3.8330418E1,2.005E1,1.0859E4,1.1646E4,4.39281E-1,5.689075E4,4.512875E1,4.49E1,6.977875E1,4.8465E4,5.205E1,-5.135788E-2,7.5145E4,-2.4608299E-1,6.2426144E-1,4.0509817E-1,-7.4757844E-2,-7.301012E-1,-3.34064E-1,-3.638702E-1,1.9796219E-2,-3.2701805E-1,1.8375333E-1,-2.6032293E-1,2.154808E-2,-2.985685E-2,2.2224952E-1,-2.2138284E-1,1.00457154E-1,1.9339268E-1,2.1441168E-1,-1.145439E-1,1.8623663E-1,-1.7979879E-2,2.0748152E-1,5.446814E-1,3.141316E-1,2.3138615E-1,-5.5143815E-2,6.1940208E-2,3.2828796E-1,2.1321028E-1,-1.0883766E-1,2.6318254E-2,-1.3334966E-1,1.765135E-1,5.195171E-1,-1.2054187E-2,2.975388E-1,5.1572204E-1,2.2204801E-1,6.522588E-1,1.6624777E-1,1.4171477E-1,2.432038E-1,-4.48358E-2,1.6141543E-1,-1.4913669E-2,1.8493302E-1,4.3972012E-1,-3.4457702E-2,2.0930259E-1,-7.6930426E-2,3.4209213E-1,5.688621E-1,9.3294233E-1,4.63442E-1,1.8848422E0,-6.1305976E-1],"split_indices":[8,8,8,8,4,4,8,8,11,3,3,9,4,11,13,11,4,3,3,0,4,16,9,3,11,0,19,12,10,9,1,9,19,0,9,0,16,9,1,11,5,4,8,0,0,0,12,10,1,1,3,18,12,10,12,17,9,0,16,0,0,3,0,0,0,0,0,0,0,0,0,0,0,0,0,0,0,0,0,0,0,0,0,0,0,0,0,0,0,0,0,0,0,0,0,0,0,0,0,0,0,0,0,0,0,0,0,0,0,0,0,0,0,0,0],"split_type":[0,0,0,0,0,0,0,0,0,0,0,0,0,0,0,0,0,0,0,0,0,0,0,0,0,0,0,0,0,0,0,0,0,0,0,0,0,0,0,0,0,0,0,0,0,0,0,0,0,0,0,0,0,0,0,0,0,0,0,0,0,0,0,0,0,0,0,0,0,0,0,0,0,0,0,0,0,0,0,0,0,0,0,0,0,0,0,0,0,0,0,0,0,0,0,0,0,0,0,0,0,0,0,0,0,0,0,0,0,0,0,0,0,0,0],"sum_hessian":[1.4896E4,1.2857E4,2.039E3,1.1591E4,1.266E3,9.37E2,1.102E3,1.0832E4,7.59E2,9.34E2,3.32E2,7E2,2.37E2,2.83E2,8.19E2,9.897E3,9.35E2,6.11E2,1.48E2,2.26E2,7.08E2,1.2E1,3.2E2,2.6E2,4.4E2,8.8E1,1.49E2,6.9E1,2.14E2,6E0,8.13E2,9.87E3,2.7E1,1.93E2,7.42E2,2.22E2,3.89E2,7.5E1,7.3E1,5.4E1,1.72E2,5.47E2,1.61E2,7E0,5E0,1.45E2,1.75E2,1.89E2,7.1E1,1.28E2,3.12E2,5.8E1,3E1,1.37E2,1.2E1,1.2E1,5.7E1,1E0,2.13E2,3E0,3E0,8.12E2,1E0,9.747E3,1.23E2,2.3E1,4E0,1.33E2,6E1,7.41E2,1E0,2.08E2,1.4E1,3.86E2,3E0,4E1,3.5E1,5.9E1,1.4E1,4.5E1,9E0,1.18E2,5.4E1,1.72E2,3.75E2,6.6E1,9.5E1,4E0,1E0,3.2E1,1.43E2,1.2E1,1.77E2,2.7E1,4.4E1,1.09E2,1.9E1,2.91E2,2.1E1,2.6E1,3.2E1,1.6E1,1.4E1,8.2E1,5.5E1,1.1E1,1E0,1E0,1.1E1,2.4E1,3.3E1,2.09E2,4E0,8.11E2,1E0],"tree_param":{"num_deleted":"0","num_feature":"20","num_nodes":"115","size_leaf_vector":"1"}},{"base_weights":[-1.094021E-2,-1.118471E-1,6.3337475E-1,-1.3379908E-1,1.2016204E-1,5.142976E-1,8.094445E-1,-1.4202756E-1,-3.825105E-2,1.9446474E-1,-9.086204E-2,6.2042177E-1,1.9702972E-1,6.435644E-1,8.3190143E-1,-1.4660755E-1,-1.0928569E-1,1.4787881E-1,-7.819008E-2,9.4807394E-2,4.5685843E-1,2.0000002E-1,-9.982267E-2,6.6870373E-1,1.8858698E-1,1.4944652E-1,5.818182E-1,3.5625002E-1,7.23718E-1,2.3333335E-1,8.3326274E-1,-1.4691532E-1,-3.7499975E-2,-2.837368E-2,-1.3162185E-1,-8.906248E-3,5.5214286E-1,8.058632E-3,-1.25504E-1,2.7805346E-1,-4.836307E-2,2.464789E-1,5.496795E-1,-7.4999984E-3,3.8250003E-2,-1.0885607E-1,1.1250002E-1,5.0904524E-1,7.195262E-1,1.2012198E-1,6.818182E-1,-1.0384591E-2,2.9471833E-1,2.2727275E-1,7.26087E-1,5.2500004E-1,-7.714284E-3,7.35065E-1,-4.4999993E-3,2.55E-2,-4.4999993E-3,5.023487E-2,5.9333336E-1,-6.5762694E-3,-8.856694E-3,9.900001E-3,-8.526314E-3,-8.95187E-3,1.1475729E-2,-8.057391E-3,3.600001E-3,-7.4999984E-3,3.636923E-2,7.7785724E-3,-7.1417894E-3,-7.987577E-3,8.785716E-3,-3.6263722E-3,2.7331397E-2,-3.3873857E-3,3.8250003E-2,3.2318182E-2,6.780001E-3,2.3015626E-2,3.948387E-2,-7.0972745E-3,3.600001E-3,-7.714284E-3,2.25E-2,1.2441178E-2,3.4066267E-2,4.6187207E-2,3.6282722E-2,4.094596E-3,3.2E-2,4.5900002E-2,-4.4999993E-3,-6.338027E-3,6.150001E-3,1.1676472E-2,3.219512E-2,3.25E-2,-7.4999984E-3,4.5954548E-2,-4.4999993E-3,3.65625E-2,-5.999999E-3,4.5913044E-2,2.5333336E-2,-5.999999E-3,4.2461537E-2],"categories":[],"categories_nodes":[],"categories_segments":[],"categories_sizes":[],"default_left":[0,0,0,0,0,0,0,0,0,0,0,0,0,0,0,0,0,0,0,0,0,0,0,0,0,0,0,0,0,0,0,0,0,0,0,0,0,0,0,0,0,0,0,0,0,0,0,0,0,0,0,0,0,0,0,0,0,0,0,0,0,0,0,0,0,0,0,0,0,0,0,0,0,0,0,0,0,0,0,0,0,0,0,0,0,0,0,0,0,0,0,0,0,0,0,0,0,0,0,0,0,0,0,0,0,0,0,0,0,0,0],"id":2,"left_children":[1,3,5,7,9,11,13,15,17,19,21,23,25,27,29,31,33,35,37,39,41,43,45,47,49,51,53,55,57,59,61,63,65,67,69,-1,71,73,75,77,79,81,83,-1,-1,85,87,89,91,93,95,97,99,101,103,105,-1,107,-1,-1,-1,-1,109,-1,-1,-1,-1,-1,-1,-1,-1,-1,-1,-1,-1,-1,-1,-1,-1,-1,-1,-1,-1,-1,-1,-1,-1,-1,-1,-1,-1,-1,-1,-1,-1,-1,-1,-1,-1,-1,-1,-1,-1,-1,-1,-1,-1,-1,-1,-1,-1],"loss_changes":[9.660759E2,6.544661E1,4.176703E1,9.222366E0,1.7437773E1,4.0382507E1,2.4819946E0,1.6044312E0,6.9399076E0,2.1451542E1,7.757933E-1,1.8659576E1,5.4608192E0,2.0681305E0,3.8412476E-1,3.1271362E-1,2.3999262E0,1.9847313E1,3.1350389E0,1.5675997E1,4.2777634E0,1.359375E0,5.531206E-1,6.206238E0,3.0248537E0,6.295397E0,1.5229254E0,2.0310266E0,7.620468E-1,2.0916665E-1,1.8017578E-1,2.2932434E-1,6.165592E-1,7.6978197E0,5.407791E-1,0E0,2.635891E0,4.233815E0,1.0475731E0,1.576647E1,1.9011061E0,2.7079105E0,2.5557632E0,0E0,0E0,4.3869877E-1,8.0758923E-1,3.4079819E0,3.0661316E0,1.7214271E0,7.498636E-1,1.4086093E0,3.3338833E0,1.285985E0,7.9116535E-1,1.0101566E0,0E0,4.0324783E-1,0E0,0E0,0E0,0E0,1.2601027E0,0E0,0E0,0E0,0E0,0E0,0E0,0E0,0E0,0E0,0E0,0E0,0E0,0E0,0E0,0E0,0E0,0E0,0E0,0E0,0E0,0E0,0E0,0E0,0E0,0E0,0E0,0E0,0E0,0E0,0E0,0E0,0E0,0E0,0E0,0E0,0E0,0E0,0E0,0E0,0E0,0E0,0E0,0E0,0E0,0E0,0E0,0E0,0E0],"parents":[2147483647,0,0,1,1,2,2,3,3,4,4,5,5,6,6,7,7,8,8,9,9,10,10,11,11,12,12,13,13,14,14,15,15,16,16,17,17,18,18,19,19,20,20,21,21,22,22,23,23,24,24,25,25,26,26,27,27,28,28,29,29,30,30,31,31,32,32,33,33,34,34,36,36,37,37,38,38,39,39,40,40,41,41,42,42,45,45,46,46,47,47,48,48,49,49,50,50,51,51,52,52,53,53,54,54,55,55,57,57,62,62],"right_children":[2,4,6,8,10,12,14,16,18,20,22,24,26,28,30,32,34,36,38,40,42,44,46,48,50,52,54,56,58,60,62,64,66,68,70,-1,72,74,76,78,80,82,84,-1,-1,86,88,90,92,94,96,98,100,102,104,106,-1,108,-1,-1,-1,-1,110,-1,-1,-1,-1,-1,-1,-1,-1,-1,-1,-1,-1,-1,-1,-1,-1,-1,-1,-1,-1,-1,-1,-1,-1,-1,-1,-1,-1,-1,-1,-1,-1,-1,-1,-1,-1,-1,-1,-1,-1,-1,-1,-1,-1,-1,-1,-1,-1],"split_conditions":[5.191E1,4.768E1,6.216E1,4.455E1,2E1,2E1,5.7339E4,4.052E1,8E0,1.5E1,4.3512543E4,1.2875E4,1.25E2,4.615E1,2.577E1,6.803E1,8E0,6E0,2.2575349E-1,9E0,1E0,4.5384E4,6.3348434E4,5.317E1,6.336E1,5.501E1,5.2403082E4,4.323E1,6.9614E4,6.2216E4,3.449864E-1,6.0213346E-2,8E0,6E0,6.336E1,-2.1653093E-1,4.7003E4,2E1,6.776E1,5E0,6.987E1,1.8E1,1.7E1,-1.6801666E-1,2.0041762E-1,2.25E2,5.745E1,6E0,4.076E3,1.3E1,3.7879625E-1,4.696E1,5.575292E1,4.099E1,6.676E1,2.411868E-1,-2.0284532E-3,5.7037E4,-1.0804848E-1,1.9497092E-1,-7.2029114E-2,1.8594714E0,5.5085E4,-6.124929E-1,-7.1509504E-1,7.552039E-2,-5.425677E-1,-3.6876488E-1,1.5168978E-1,-2.91922E-1,2.1539176E-1,-3.710678E-2,3.4812433E-1,1.0586385E-1,-2.3670217E-1,-1.9560875E-1,1.7053954E-1,-2.0848319E-2,4.2678013E-1,-3.2432046E-2,4.2533338E-1,4.5285323E-1,8.8184215E-2,2.4320889E-1,5.3090066E-1,-1.3632898E-1,1.8415724E-1,-5.7323903E-2,2.1411208E-2,2.651288E-1,4.2351225E-1,8.2794905E-1,5.3476936E-1,1.669958E-2,5.7341975E-1,5.139706E-1,-2.7593443E-1,-4.5025244E-2,7.823938E-2,1.8098053E-1,2.993322E-1,5.5032116E-1,-1.3519935E-1,3.6499944E-1,-2.4288483E-2,1.0139518E0,-4.6598783E-1,1.200006E0,9.3145156E-1,-1.9848403E-2,8.6104137E-1],"split_indices":[8,8,8,8,4,4,17,8,4,4,18,2,2,9,9,11,4,4,3,4,2,0,19,8,9,8,19,9,16,0,3,3,4,4,9,0,0,4,9,4,10,4,4,0,0,2,11,4,2,4,3,9,12,9,9,3,0,17,0,0,0,0,16,0,0,0,0,0,0,0,0,0,0,0,0,0,0,0,0,0,0,0,0,0,0,0,0,0,0,0,0,0,0,0,0,0,0,0,0,0,0,0,0,0,0,0,0,0,0,0,0],"split_type":[0,0,0,0,0,0,0,0,0,0,0,0,0,0,0,0,0,0,0,0,0,0,0,0,0,0,0,0,0,0,0,0,0,0,0,0,0,0,0,0,0,0,0,0,0,0,0,0,0,0,0,0,0,0,0,0,0,0,0,0,0,0,0,0,0,0,0,0,0,0,0,0,0,0,0,0,0,0,0,0,0,0,0,0,0,0,0,0,0,0,0,0,0,0,0,0,0,0,0,0,0,0,0,0,0,0,0,0,0,0,0],"sum_hessian":[1.4857E4,1.2846E4,2.011E3,1.1736E4,1.11E3,1.202E3,8.09E2,1.0805E4,9.31E2,8.21E2,2.89E2,9E2,3.02E2,1E2,7.09E2,9.476E3,1.329E3,1.64E2,7.67E2,5.96E2,2.25E2,8E0,2.81E2,8.09E2,9.1E1,2.7E2,3.2E1,2.3E1,7.7E1,2E0,7.07E2,9.449E3,2.7E1,2.88E2,1.041E3,9.5E1,6.9E1,2.72E2,4.95E2,2.61E2,3.35E2,7E1,1.55E2,5E0,3E0,2.7E2,1.1E1,1.98E2,6.11E2,8.1E1,1E1,1.29E2,1.41E2,1E1,2.2E1,1.7E1,6E0,7.6E1,1E0,1E0,1E0,6.93E2,1.4E1,1.76E2,9.273E3,9E0,1.8E1,1.86E2,1.02E2,1.027E3,1.4E1,5E0,6.4E1,1.39E2,1.33E2,4.82E2,1.3E1,9E1,1.71E2,3.32E2,3E0,2.1E1,4.9E1,6.3E1,9.2E1,2.56E2,1.4E1,6E0,5E0,3.3E1,1.65E2,4.21E2,1.9E2,7.3E1,8E0,9E0,1E0,7E1,5.9E1,1.01E2,4E1,5E0,5E0,2.1E1,1E0,1.5E1,2E0,6.8E1,8E0,2E0,1.2E1],"tree_param":{"num_deleted":"0","num_feature":"20","num_nodes":"111","size_leaf_vector":"1"}},{"base_weights":[-1.7810225E-2,-1.144244E-1,5.9243846E-1,-1.398184E-1,4.0348474E-2,3.5970035E-1,6.976378E-1,-1.4564595E-1,-1.0453672E-1,9.5056206E-2,-1.1381854E-1,4.6570516E-1,6.0479067E-2,7.541974E-1,5.0015926E-1,-1.4867388E-1,-1.3267517E-1,-5.096564E-2,-1.2713633E-1,3.523132E-1,2.6445521E-2,-1.36193E-1,-3.0882329E-2,5.5852604E-1,2.0081303E-1,-7.094571E-3,5.575E-1,7.8857E-1,4.889764E-1,3.6004674E-1,7.920792E-1,-1.4121619E-1,-8.972371E-3,2.4615386E-1,-1.3535832E-1,-1.1478259E-1,1.2991805E-1,-1.3313195E-1,1.3600002E-1,1.2242993E-1,4.9085715E-1,-2.2440452E-2,2.1643521E-1,2.55E-2,-1.3884406E-1,-5.4687478E-2,3E-1,1.9714288E-1,5.972757E-1,5.9333336E-1,1.4495414E-1,-5.63025E-2,1.8833336E-1,1.5714288E-1,7.178572E-1,7.3383534E-1,5.075922E-2,2.6769233E-1,7.0952386E-1,2.9136908E-1,5.978724E-1,8.015E-1,-4.4999993E-3,-8.618046E-3,1.2500001E-2,4.0799998E-2,-1.333332E-3,-4.6903538E-3,-8.541508E-3,1.3636365E-2,-7.540297E-3,2.1225002E-2,1.228917E-3,-8.09608E-3,1.6800001E-2,4.0799998E-2,1.3623919E-9,-6.1333315E-3,1.6857143E-2,3.4296613E-2,1.9086208E-2,6.7293593E-3,-4.170143E-3,3.4071427E-2,7.85143E-3,-1.833332E-3,-8.636618E-3,-4.853931E-3,1.4625001E-2,3.8250003E-2,-6.749999E-3,4.5000136E-4,2.5312502E-2,4.421875E-2,3.1963132E-2,4.800001E-3,4.6363637E-2,4.1413056E-3,3.15E-2,-8.808509E-3,1.6438497E-4,3.2E-2,2.3181832E-3,2.325E-2,-6.749999E-3,4.7076922E-2,-4.4999993E-3,3.1200001E-2,4.5204844E-2,2.438298E-2,-5.36842E-3,4.598276E-2,2.500001E-3,1.3223078E-2,3.1230768E-2,3.893182E-2,-6.749999E-3,-4.4999993E-3,4.8666667E-2],"categories":[],"categories_nodes":[],"categories_segments":[],"categories_sizes":[],"default_left":[0,0,0,0,0,0,0,0,0,0,0,0,0,0,0,0,0,0,0,0,0,0,0,0,0,0,0,0,0,0,0,0,0,0,0,0,0,0,0,0,0,0,0,0,0,0,0,0,0,0,0,0,0,0,0,0,0,0,0,0,0,0,0,0,0,0,0,0,0,0,0,0,0,0,0,0,0,0,0,0,0,0,0,0,0,0,0,0,0,0,0,0,0,0,0,0,0,0,0,0,0,0,0,0,0,0,0,0,0,0,0,0,0,0,0,0,0,0,0],"id":3,"left_children":[1,3,5,7,9,11,13,15,17,19,21,23,25,27,29,31,33,35,37,39,41,43,45,47,49,51,53,55,57,59,61,63,-1,65,67,69,71,73,75,77,79,81,83,-1,85,87,89,91,93,95,97,99,101,103,105,107,-1,109,111,113,115,117,-1,-1,-1,-1,-1,-1,-1,-1,-1,-1,-1,-1,-1,-1,-1,-1,-1,-1,-1,-1,-1,-1,-1,-1,-1,-1,-1,-1,-1,-1,-1,-1,-1,-1,-1,-1,-1,-1,-1,-1,-1,-1,-1,-1,-1,-1,-1,-1,-1,-1,-1,-1,-1,-1,-1,-1,-1],"loss_changes":[8.75663E2,5.039998E1,4.9451416E1,2.2495117E0,1.5259721E1,2.008162E1,1.5226318E1,3.514557E-1,1.8882446E0,2.3554201E1,8.7537336E-1,1.1394806E1,5.6127357E0,9.49646E0,1.2557922E1,2.8320312E-2,1.8609066E0,5.3941574E0,1.7535343E0,8.889458E0,9.803518E0,6.139412E-1,8.1983E-1,4.72744E0,2.6108603E0,1.4338609E0,1.1711965E0,2.3898926E0,6.0081253E0,3.321125E0,8.8513947E-1,7.178955E-1,0E0,1.528752E0,7.038193E-1,1.3135667E0,2.9811802E0,8.391495E-1,1.8495998E0,3.8392477E0,2.259491E0,5.3286643E0,6.4216766E0,0E0,2.0102978E-1,7.7067494E-1,1.04625E0,1.4884955E0,2.4212646E0,1.3195152E0,3.1092627E0,6.3629985E-1,1.5287576E0,4.7839284E-1,7.998624E-1,1.6931763E0,0E0,3.256174E0,2.3602657E0,2.6179152E0,1.7754688E0,9.0325165E-1,0E0,0E0,0E0,0E0,0E0,0E0,0E0,0E0,0E0,0E0,0E0,0E0,0E0,0E0,0E0,0E0,0E0,0E0,0E0,0E0,0E0,0E0,0E0,0E0,0E0,0E0,0E0,0E0,0E0,0E0,0E0,0E0,0E0,0E0,0E0,0E0,0E0,0E0,0E0,0E0,0E0,0E0,0E0,0E0,0E0,0E0,0E0,0E0,0E0,0E0,0E0,0E0,0E0,0E0,0E0,0E0,0E0],"parents":[2147483647,0,0,1,1,2,2,3,3,4,4,5,5,6,6,7,7,8,8,9,9,10,10,11,11,12,12,13,13,14,14,15,15,16,16,17,17,18,18,19,19,20,20,21,21,22,22,23,23,24,24,25,25,26,26,27,27,28,28,29,29,30,30,31,31,33,33,34,34,35,35,36,36,37,37,38,38,39,39,40,40,41,41,42,42,44,44,45,45,46,46,47,47,48,48,49,49,50,50,51,51,52,52,53,53,54,54,55,55,57,57,58,58,59,59,60,60,61,61],"right_children":[2,4,6,8,10,12,14,16,18,20,22,24,26,28,30,32,34,36,38,40,42,44,46,48,50,52,54,56,58,60,62,64,-1,66,68,70,72,74,76,78,80,82,84,-1,86,88,90,92,94,96,98,100,102,104,106,108,-1,110,112,114,116,118,-1,-1,-1,-1,-1,-1,-1,-1,-1,-1,-1,-1,-1,-1,-1,-1,-1,-1,-1,-1,-1,-1,-1,-1,-1,-1,-1,-1,-1,-1,-1,-1,-1,-1,-1,-1,-1,-1,-1,-1,-1,-1,-1,-1,-1,-1,-1,-1,-1,-1,-1,-1,-1,-1,-1,-1,-1],"split_conditions":[5.191E1,4.513E1,5.544E1,4.052E1,2E1,2E1,2E1,3.962E1,2.0144011E-1,1.6890506E-1,5.002E1,6.929E3,2.09E2,1.0628E4,6.876E1,1.335574E-1,6.0213346E-2,5.8544E4,6.696E1,4.31E1,5.531E1,4.583569E4,5.832E1,5.0329E4,9E0,5.392E1,3.392125E1,6.547E1,5.26525E1,5.9144585E1,2.05E4,4.459E3,-7.8738946E-1,2E0,2.0582637E-1,2.3493511E1,8E0,7.4437E4,1.8916E4,5.3064E4,4E0,2.2996242E-1,8E0,1.4407767E-1,2.494E3,1.25E2,2.8612116E-1,6.3705E1,5.7035934E4,6.2844E4,5.8395416E1,5.5654E4,5.4372703E4,3.5388332E1,6.882E1,3.962E1,2.0027833E0,3.1700823E-1,4.026265E-1,5E0,6.094E1,2.6889166E1,-1.3504875E-1,-6.572045E-1,1.9661064E-1,3.9511618E-1,3.8374695E-1,-1.3283853E-1,-4.85192E-1,3.1506866E-1,-2.782962E-1,2.0391665E-1,5.073612E-3,-2.612685E-1,1.7139176E-1,3.6338997E-1,-2.9712464E-3,-3.9157383E-2,1.5541257E-1,4.9833378E-1,2.363719E-1,1.3790743E-1,-4.8884496E-2,6.3620746E-1,1.545393E-1,2.1942843E-2,-1.8149172E-1,-1.1482016E-1,2.1220972E-1,3.2018967E-2,-1.5811156E-3,1.4101741E-2,2.1315041E-1,5.867551E-1,3.4102803E-1,2.6355904E-1,4.6824792E-1,3.6217958E-2,3.1152993E-1,-5.2908797E-2,2.373766E-2,3.066054E-1,1.02472894E-1,5.17302E-1,-2.2188263E-2,2.0658405E-1,-2.2831192E-2,7.5928545E-1,8.260781E-1,3.8429153E-1,-1.8166594E-2,1.0087404E0,1.582489E-3,2.0602903E-1,7.510448E-1,2.57413E-1,-3.5294265E-2,-7.837351E-1,1.1668632E0],"split_indices":[8,8,8,8,4,4,4,11,3,3,8,2,2,2,8,3,3,0,11,11,11,19,10,0,4,10,13,8,12,12,1,2,0,5,3,13,4,0,1,0,5,3,4,0,1,2,3,12,19,0,12,17,19,12,10,11,0,3,3,2,11,12,0,0,0,0,0,0,0,0,0,0,0,0,0,0,0,0,0,0,0,0,0,0,0,0,0,0,0,0,0,0,0,0,0,0,0,0,0,0,0,0,0,0,0,0,0,0,0,0,0,0,0,0,0,0,0,0,0],"split_type":[0,0,0,0,0,0,0,0,0,0,0,0,0,0,0,0,0,0,0,0,0,0,0,0,0,0,0,0,0,0,0,0,0,0,0,0,0,0,0,0,0,0,0,0,0,0,0,0,0,0,0,0,0,0,0,0,0,0,0,0,0,0,0,0,0,0,0,0,0,0,0,0,0,0,0,0,0,0,0,0,0,0,0,0,0,0,0,0,0,0,0,0,0,0,0,0,0,0,0,0,0,0,0,0,0,0,0,0,0,0,0,0,0,0,0,0,0,0,0],"sum_hessian":[1.485E4,1.2821E4,2.029E3,1.1014E4,1.807E3,6.33E2,1.396E3,9.45E3,1.564E3,1.334E3,4.73E2,4.67E2,1.66E2,1.083E3,3.13E2,7.653E3,1.797E3,4.65E2,1.099E3,2.8E2,1.054E3,3.72E2,1.01E2,3.45E2,1.22E2,1.47E2,1.9E1,9.57E2,1.26E2,2.13E2,1E2,8.13E2,6.84E3,1.2E1,1.785E3,3.44E2,1.21E2,1.075E3,2.4E1,1.06E2,1.74E2,8.39E2,2.15E2,1E0,3.71E2,9.5E1,6E0,3.4E1,3.11E2,1.4E1,1.08E2,1.18E2,2.9E1,6E0,1.3E1,4.97E2,4.6E2,6.4E1,6.2E1,1.67E2,4.6E1,9.9E1,1E0,8.08E2,5E0,4E0,8E0,1.96E2,1.589E3,1E1,3.34E2,3.9E1,8.2E1,1.071E3,4E0,4E0,2E1,4.4E1,6.2E1,1.17E2,5.7E1,2.17E2,6.22E2,4.1E1,1.74E2,1.7E1,3.54E2,8.8E1,7E0,3E0,3E0,1.9E1,1.5E1,9.5E1,2.16E2,4E0,1E1,9.1E1,1.7E1,4.6E1,7.2E1,8E0,2.1E1,3E0,3E0,1.2E1,1E0,4.4E1,4.53E2,4.6E1,1.8E1,5.7E1,5E0,1.29E2,3.8E1,4.3E1,3E0,1E0,9.8E1],"tree_param":{"num_deleted":"0","num_feature":"20","num_nodes":"119","size_leaf_vector":"1"}},{"base_weights":[-2.1471458E-2,-1.0715764E-1,6.0288036E-1,-1.3017784E-1,1.2714411E-1,4.7502396E-1,7.816532E-1,-1.3831173E-1,-3.094442E-2,1.8034594E-1,-1.11737065E-1,5.648458E-1,2.1250002E-1,5.2717394E-1,7.9728186E-1,-1.3936743E-1,1.4634149E-1,1.2723407E-1,-8.671169E-2,3.7873757E-1,8.876149E-2,-1.2860823E-1,5.7500023E-2,6.307574E-1,2.3750003E-1,1.6233769E-1,5.1184213E-1,2.857143E-1,7.019231E-1,8.0855656E-1,4.982143E-1,-1.4441405E-1,-9.951257E-2,4.3214288E-1,-1.7856912E-3,2.4433336E-1,-7.848835E-2,-1.0213462E-1,7.6724164E-2,1.5833336E-1,5.1037234E-1,3.1578973E-2,2.9471833E-1,-5.2272703E-2,-1.3757223E-1,-3.0555533E-2,3.3999998E-2,4.3903512E-1,6.7050564E-1,1.5136366E-1,6.391305E-1,5.2380955E-1,1.2559244E-1,-6.749999E-3,5.6857145E-1,6.000002E-2,4.371429E-2,-5.999999E-3,7.729167E-1,6.979839E-1,4.99235E-2,-5.999999E-3,5.480769E-1,-7.1727256E-3,-8.8335425E-3,-2.8499987E-3,-7.822537E-3,8.5714407E-4,4.4625003E-2,2.8800001E-2,-6.1249984E-3,-3.272726E-3,1.9550849E-2,2.325E-2,-5.9999987E-3,-6.468119E-3,8.785716E-3,1.166668E-3,4.0799998E-2,4.7934796E-3,2.7913043E-2,3.977027E-2,2.4469566E-2,-1.4117633E-3,9.401275E-3,2.5377551E-2,5.3333474E-4,-8.5499985E-3,3.3999998E-2,-8.566036E-3,-4.3999986E-3,-8.307691E-3,1.2500001E-2,1.5904762E-2,3.848077E-2,4.397389E-2,3.0532897E-2,3.8666666E-2,6.382354E-3,1.2500001E-2,4.4833332E-2,3.5684213E-2,-5.999999E-3,5.347152E-3,2.9368421E-2,4.0222224E-2,1.2000001E-2,-7.9999985E-3,1.8000001E-2,4.8571426E-2,2.325E-2,4.2292684E-2,-4.4999993E-3,-5.999999E-3,3.6375E-2],"categories":[],"categories_nodes":[],"categories_segments":[],"categories_sizes":[],"default_left":[0,0,0,0,0,0,0,0,0,0,0,0,0,0,0,0,0,0,0,0,0,0,0,0,0,0,0,0,0,0,0,0,0,0,0,0,0,0,0,0,0,0,0,0,0,0,0,0,0,0,0,0,0,0,0,0,0,0,0,0,0,0,0,0,0,0,0,0,0,0,0,0,0,0,0,0,0,0,0,0,0,0,0,0,0,0,0,0,0,0,0,0,0,0,0,0,0,0,0,0,0,0,0,0,0,0,0,0,0,0,0,0,0,0,0],"id":4,"left_children":[1,3,5,7,9,11,13,15,17,19,21,23,25,27,29,31,33,35,37,39,41,43,45,47,49,51,53,55,57,59,61,63,65,67,69,71,73,75,77,79,81,83,85,87,89,91,-1,93,95,97,99,101,103,-1,105,107,-1,-1,109,111,-1,-1,113,-1,-1,-1,-1,-1,-1,-1,-1,-1,-1,-1,-1,-1,-1,-1,-1,-1,-1,-1,-1,-1,-1,-1,-1,-1,-1,-1,-1,-1,-1,-1,-1,-1,-1,-1,-1,-1,-1,-1,-1,-1,-1,-1,-1,-1,-1,-1,-1,-1,-1,-1,-1],"loss_changes":[7.926422E2,7.0285324E1,4.0497498E1,9.570984E0,1.4838745E1,2.452147E1,2.5386658E0,3.3151855E0,7.9500957E0,1.730017E1,6.1555815E-1,1.6636246E1,3.9411154E0,1.7404146E0,1.9541626E0,2.1828003E0,1.7365046E0,5.680316E0,1.6865959E0,8.652061E0,7.692936E0,1.2555766E-1,9.1401386E-1,4.636139E0,4.469797E0,3.002441E0,1.4098673E0,2.0554287E0,1.5575066E0,1.1654968E0,8.90007E-1,6.602173E-1,1.9698915E0,1.8122766E0,1.4020149E0,3.6721992E0,9.0082854E-1,8.73683E-1,1.9909942E0,2.7071106E0,2.669014E0,3.54059E0,5.201253E0,1.3093446E0,4.7264576E-2,4.928419E-1,0E0,3.8420143E0,5.011963E0,2.3717155E0,9.153385E-1,9.886217E-1,2.756756E0,0E0,1.1791315E0,7.3600006E-1,0E0,0E0,2.492714E-2,7.1367264E-1,0E0,0E0,1.0408411E0,0E0,0E0,0E0,0E0,0E0,0E0,0E0,0E0,0E0,0E0,0E0,0E0,0E0,0E0,0E0,0E0,0E0,0E0,0E0,0E0,0E0,0E0,0E0,0E0,0E0,0E0,0E0,0E0,0E0,0E0,0E0,0E0,0E0,0E0,0E0,0E0,0E0,0E0,0E0,0E0,0E0,0E0,0E0,0E0,0E0,0E0,0E0,0E0,0E0,0E0,0E0,0E0],"parents":[2147483647,0,0,1,1,2,2,3,3,4,4,5,5,6,6,7,7,8,8,9,9,10,10,11,11,12,12,13,13,14,14,15,15,16,16,17,17,18,18,19,19,20,20,21,21,22,22,23,23,24,24,25,25,26,26,27,27,28,28,29,29,30,30,31,31,32,32,33,33,34,34,35,35,36,36,37,37,38,38,39,39,40,40,41,41,42,42,43,43,44,44,45,45,47,47,48,48,49,49,50,50,51,51,52,52,54,54,55,55,58,58,59,59,62,62],"right_children":[2,4,6,8,10,12,14,16,18,20,22,24,26,28,30,32,34,36,38,40,42,44,46,48,50,52,54,56,58,60,62,64,66,68,70,72,74,76,78,80,82,84,86,88,90,92,-1,94,96,98,100,102,104,-1,106,108,-1,-1,110,112,-1,-1,114,-1,-1,-1,-1,-1,-1,-1,-1,-1,-1,-1,-1,-1,-1,-1,-1,-1,-1,-1,-1,-1,-1,-1,-1,-1,-1,-1,-1,-1,-1,-1,-1,-1,-1,-1,-1,-1,-1,-1,-1,-1,-1,-1,-1,-1,-1,-1,-1,-1,-1,-1,-1],"split_conditions":[5.295E1,4.808E1,6.328E1,4.944E1,2.1E1,2E1,5.5521E4,6.696E1,2.231525E-1,1.7957897E-1,5.501E1,1.0374E4,6.0604584E1,4.867E3,3.192109E-1,4.293E1,4.7404E4,5E0,6.581179E4,5.5259E4,5.745E1,5.6730058E-2,6.3611E4,4.31E1,1.3E1,5.1419207E4,5.54745E4,7.101E1,4.5372E4,5.140917E1,3.2095256E-1,1.335574E-1,2.1530375E-1,3.55E1,3.3325893E1,4.036E1,1.731E3,7.375E1,4.735E1,5.591E1,1.0665281E-1,1.4E1,3.7360778E-1,5.9035707E4,5.293E1,5E0,2.701561E-2,5.473E1,2.9510412E-1,9E0,5.473E1,1.5383E4,4.78E2,-2.0771485E-2,2.0943655E-1,3E0,1.2076578E0,-2.6187012E-1,6.987E1,1.6684E4,1.8075562E0,-2.4783783E-2,5.6092E4,-4.8164108E-1,-6.1304486E-1,-6.28079E-2,-1.9843784E-1,1.6068006E-1,5.1356405E-1,1.5701248E-1,-9.6822314E-2,-7.579584E-2,1.8125924E-1,1.6940849E-1,-9.0702586E-2,-1.6410133E-1,9.617385E-2,1.1734463E-2,1.2442474E-1,3.2443937E-2,4.570331E-1,5.805269E-1,3.82196E-1,-1.2612841E-2,1.4390902E-1,4.5993543E-1,3.3392496E-2,-1.0088149E-1,2.4238586E-2,-1.1748995E-1,-1.3361774E-2,-1.427426E-1,4.2697904E-3,2.0287888E-1,7.719565E-1,8.320373E-1,3.510611E-1,4.1643736E-1,7.753361E-2,1.5574928E-1,6.378581E-1,4.6217293E-1,-1.3288559E-1,8.95795E-2,3.3867568E-1,2.9161924E-1,1.07814044E-1,-6.171918E-2,1.6911872E-1,5.4281664E-1,8.7373966E-1,1.1978664E0,-1.496743E-1,-5.7675015E-2,8.222833E-1],"split_indices":[8,8,8,9,4,4,0,11,3,3,9,2,12,1,3,8,15,5,18,0,11,3,0,11,4,18,18,8,16,12,3,3,3,10,13,8,1,9,8,9,3,4,3,18,10,5,0,9,3,4,8,1,2,0,3,5,0,0,10,2,0,0,17,0,0,0,0,0,0,0,0,0,0,0,0,0,0,0,0,0,0,0,0,0,0,0,0,0,0,0,0,0,0,0,0,0,0,0,0,0,0,0,0,0,0,0,0,0,0,0,0,0,0,0,0],"split_type":[0,0,0,0,0,0,0,0,0,0,0,0,0,0,0,0,0,0,0,0,0,0,0,0,0,0,0,0,0,0,0,0,0,0,0,0,0,0,0,0,0,0,0,0,0,0,0,0,0,0,0,0,0,0,0,0,0,0,0,0,0,0,0,0,0,0,0,0,0,0,0,0,0,0,0,0,0,0,0,0,0,0,0,0,0,0,0,0,0,0,0,0,0,0,0,0,0,0,0,0,0,0,0,0,0,0,0,0,0,0,0,0,0,0,0],"sum_hessian":[1.4814E4,1.3027E4,1.787E3,1.1862E4,1.165E3,1.044E3,7.43E2,1.0963E4,8.99E2,9.53E2,2.12E2,7.77E2,2.67E2,4.5E1,6.98E2,1.0923E4,4E1,2.34E2,6.65E2,3E2,6.53E2,1.93E2,1.9E1,6.46E2,1.31E2,2.3E2,3.7E1,2E1,2.5E1,6.71E2,2.7E1,9.693E3,1.23E3,1.3E1,2.7E1,1.49E2,8.5E1,6.08E2,5.7E1,1.13E2,1.87E2,5.12E2,1.41E2,2.1E1,1.72E2,1.7E1,2E0,1.13E2,5.33E2,1.09E2,2.2E1,2E1,2.1E2,3E0,3.4E1,1.4E1,6E0,2E0,2.3E1,1.23E2,5.48E2,2E0,2.5E1,9.89E2,8.704E3,4.59E2,7.71E2,6E0,7E0,4E0,2.3E1,3.2E1,1.17E2,3E0,8.2E1,5.95E2,1.3E1,5.3E1,4E0,9.1E1,2.2E1,7.3E1,1.14E2,3.56E2,1.56E2,9.7E1,4.4E1,1.9E1,2E0,1.58E2,1.4E1,1.2E1,5E0,6.2E1,5.1E1,3.82E2,1.51E2,8E0,1.01E2,5E0,1.7E1,1.8E1,2E0,1.92E2,1.8E1,2.6E1,8E0,8E0,6E0,2E1,3E0,1.22E2,1E0,2E0,2.3E1],"tree_param":{"num_deleted":"0","num_feature":"20","num_nodes":"115","size_leaf_vector":"1"}},{"base_weights":[-2.5417564E-2,-1.0396288E-1,5.856596E-1,-1.2865151E-1,1.1249079E-1,4.6286002E-1,7.635116E-1,-1.4104256E-1,-6.8161525E-2,5.4583795E-2,2.4790126E-1,3.0986488E-1,5.508621E-1,4.402174E-1,7.853169E-1,-1.471812E-1,-1.1665824E-1,-9.081689E-2,6.552903E-2,2.5029965E-2,2.6869568E-1,3.233227E-1,-8.6021265E-3,1.3218753E-1,4.43128E-1,5.930368E-1,3.6762297E-1,7.5000025E-2,5.818182E-1,7.987942E-1,4.3269232E-1,-1.290166E-1,-1.4899816E-1,-1.3999762E-3,-1.3319883E-1,-4.258441E-2,-1.2213191E-1,3.6854842E-1,-1.5732735E-2,8.175928E-2,-7.854728E-2,3.5178575E-1,4.2187523E-2,2.3236717E-1,4.9626172E-1,-3.72222E-2,3.8250003E-2,5.1250022E-2,3.6585367E-1,6.6210526E-1,2.6153848E-1,5.115772E-1,7.0068187E-1,1.9552241E-1,5.669643E-1,-7.874998E-3,3E-1,6.5500003E-1,-6.749999E-3,7.251163E-1,8.3566177E-1,-7.4999984E-3,5.714286E-1,-8.896859E-3,6.7222235E-3,-8.948238E-3,-1.333332E-3,-4.30357E-3,8.457833E-3,-8.319442E-3,-5.7455343E-3,-6.9542155E-3,4.292136E-3,-7.48259E-3,5.5384627E-3,4.6363637E-2,1.6557692E-2,-2.3835602E-3,2.1642858E-2,-1.1214939E-3,1.3677274E-2,-5.0918353E-3,3.3999998E-2,9.230782E-4,2.4458334E-2,2.19E-2,-5.9999987E-3,1.9794872E-2,6.2637376E-3,3.6629032E-2,1.9891305E-2,-4.7083315E-3,7.263159E-3,4.403684E-4,2.675E-2,2.6558824E-2,-3.7499875E-4,2.5818184E-2,4.6380956E-2,2.7918367E-2,6.78261E-3,2.5396228E-2,3.6492858E-2,3.2535214E-2,4.626E-2,4.0799998E-2,9.238096E-3,-5.999999E-3,3.561111E-2,-6.749999E-3,3.8250003E-2,-4.4999993E-3,4.0965516E-2,3.469355E-2,4.677273E-2,-4.4999993E-3,5.028501E-2,-5.999999E-3,3.8842104E-2],"categories":[],"categories_nodes":[],"categories_segments":[],"categories_sizes":[],"default_left":[0,0,0,0,0,0,0,0,0,0,0,0,0,0,0,0,0,0,0,0,0,0,0,0,0,0,0,0,0,0,0,0,0,0,0,0,0,0,0,0,0,0,0,0,0,0,0,0,0,0,0,0,0,0,0,0,0,0,0,0,0,0,0,0,0,0,0,0,0,0,0,0,0,0,0,0,0,0,0,0,0,0,0,0,0,0,0,0,0,0,0,0,0,0,0,0,0,0,0,0,0,0,0,0,0,0,0,0,0,0,0,0,0,0,0,0,0,0,0],"id":5,"left_children":[1,3,5,7,9,11,13,15,17,19,21,23,25,27,29,31,33,35,37,39,41,43,45,47,49,51,53,55,57,59,61,63,65,67,69,71,73,75,77,79,81,83,85,87,89,91,-1,93,95,97,99,101,103,105,107,-1,109,111,-1,113,115,-1,117,-1,-1,-1,-1,-1,-1,-1,-1,-1,-1,-1,-1,-1,-1,-1,-1,-1,-1,-1,-1,-1,-1,-1,-1,-1,-1,-1,-1,-1,-1,-1,-1,-1,-1,-1,-1,-1,-1,-1,-1,-1,-1,-1,-1,-1,-1,-1,-1,-1,-1,-1,-1,-1,-1,-1,-1],"loss_changes":[7.1555597E2,7.060802E1,3.67312E1,8.878342E0,1.0595631E1,1.3387436E1,4.5325317E0,1.4559021E0,6.118088E0,5.9983816E0,7.8378525E0,8.702221E0,4.712494E0,2.3352566E0,2.7292175E0,2.4014282E-1,3.7821884E0,2.6017513E0,7.220598E0,4.9127703E0,2.1495256E0,4.8081017E0,1.7434376E0,3.0072272E0,8.217037E0,4.1749725E0,4.0745716E0,6.890625E-1,1.7504663E0,1.0836182E0,2.0831041E0,3.369403E0,1.2257385E-1,2.5130877E0,3.4129715E-1,5.706345E0,5.8975315E-1,2.1068993E0,2.1097991E0,7.9343987E0,1.2544639E0,1.57201E0,1.5052968E0,2.5495996E0,1.8110218E0,5.970947E-1,0E0,2.0758924E0,1.174345E0,2.1097527E0,3.4876413E0,2.2856064E0,2.0328064E0,1.2441485E0,1.0511532E0,0E0,1.04625E0,6.5912056E-1,0E0,1.2681885E0,9.627075E-1,0E0,1.135489E0,0E0,0E0,0E0,0E0,0E0,0E0,0E0,0E0,0E0,0E0,0E0,0E0,0E0,0E0,0E0,0E0,0E0,0E0,0E0,0E0,0E0,0E0,0E0,0E0,0E0,0E0,0E0,0E0,0E0,0E0,0E0,0E0,0E0,0E0,0E0,0E0,0E0,0E0,0E0,0E0,0E0,0E0,0E0,0E0,0E0,0E0,0E0,0E0,0E0,0E0,0E0,0E0,0E0,0E0,0E0,0E0],"parents":[2147483647,0,0,1,1,2,2,3,3,4,4,5,5,6,6,7,7,8,8,9,9,10,10,11,11,12,12,13,13,14,14,15,15,16,16,17,17,18,18,19,19,20,20,21,21,22,22,23,23,24,24,25,25,26,26,27,27,28,28,29,29,30,30,31,31,32,32,33,33,34,34,35,35,36,36,37,37,38,38,39,39,40,40,41,41,42,42,43,43,44,44,45,45,47,47,48,48,49,49,50,50,51,51,52,52,53,53,54,54,56,56,57,57,59,59,60,60,62,62],"right_children":[2,4,6,8,10,12,14,16,18,20,22,24,26,28,30,32,34,36,38,40,42,44,46,48,50,52,54,56,58,60,62,64,66,68,70,72,74,76,78,80,82,84,86,88,90,92,-1,94,96,98,100,102,104,106,108,-1,110,112,-1,114,116,-1,118,-1,-1,-1,-1,-1,-1,-1,-1,-1,-1,-1,-1,-1,-1,-1,-1,-1,-1,-1,-1,-1,-1,-1,-1,-1,-1,-1,-1,-1,-1,-1,-1,-1,-1,-1,-1,-1,-1,-1,-1,-1,-1,-1,-1,-1,-1,-1,-1,-1,-1,-1,-1,-1,-1,-1,-1],"split_conditions":[5.361E1,4.797E1,6.464E1,4.151E1,5.205E1,4.831E1,5.5521E4,3.962E1,5.295E1,5.745E1,3.4277418E-1,1.6E1,3.0660772E-1,3.9774406E1,3.107437E-1,1.196898E-1,2.0582637E-1,2.2575349E-1,2.17355E-1,2.6955757E-1,6.2305875E4,5.295E1,8.484E1,5.455E1,1.9533534E-1,5.235E1,6.9272E4,4.867E3,1.5117E4,6.6195E4,6.1193E4,5.331E4,6.703829E4,5.7523E4,5.264E1,5.8097E4,6.685279E4,5.2735707E4,6.987E1,8E1,7.5122E4,4.9E1,2.9671308E-1,1.8320315E-1,1.2857E4,6.567E1,6.8670504E-2,6.8714E4,3.0863938E-1,4.738E1,6.73E3,5.695E1,1E0,5.2837E4,5.9973E4,-4.394673E-2,6.662E1,4.5643E4,-1.3584823E-2,6.764E1,5.422848E4,-2.3296738E-2,5.6092E4,-5.956968E-1,5.9621193E-2,-6.7657334E-1,-1.5623839E-1,-1.2845758E-1,6.965603E-2,-4.2067707E-1,-2.7875575E-1,-1.8882911E-1,6.0890786E-2,-2.0545818E-1,1.058251E-1,6.383747E-1,2.4293229E-1,-2.0094655E-2,2.5030246E-1,-1.1108686E-2,2.0454162E-1,-4.5599442E-2,3.9074156E-1,6.319301E-2,3.4000608E-1,5.112455E-1,-8.40562E-2,3.1166747E-1,1.1097551E-1,5.5872023E-1,3.3774242E-1,-1.3908221E-2,5.282149E-1,2.2293223E-2,2.9487473E-1,4.7885048E-1,1.14876874E-1,2.5750005E-1,8.0042386E-1,3.3950362E-1,1.4070041E-1,3.2981142E-1,6.216964E-1,7.578408E-1,8.278735E-1,7.936203E-1,2.1135618E-1,-3.489006E-2,2.935036E-1,-4.1576155E-2,4.122249E-1,-2.4360351E-2,6.0906744E-1,6.7578495E-1,1.5700625E0,-3.994446E-3,1.7528634E0,-5.4214552E-2,8.923281E-1],"split_indices":[8,8,8,8,9,9,0,11,11,11,3,2,3,13,3,3,3,3,3,3,19,11,11,11,3,11,16,1,1,0,15,0,18,0,10,0,18,18,10,2,15,8,3,3,1,11,0,17,3,11,2,9,2,14,0,0,8,0,0,8,19,0,17,0,0,0,0,0,0,0,0,0,0,0,0,0,0,0,0,0,0,0,0,0,0,0,0,0,0,0,0,0,0,0,0,0,0,0,0,0,0,0,0,0,0,0,0,0,0,0,0,0,0,0,0,0,0,0,0],"split_type":[0,0,0,0,0,0,0,0,0,0,0,0,0,0,0,0,0,0,0,0,0,0,0,0,0,0,0,0,0,0,0,0,0,0,0,0,0,0,0,0,0,0,0,0,0,0,0,0,0,0,0,0,0,0,0,0,0,0,0,0,0,0,0,0,0,0,0,0,0,0,0,0,0,0,0,0,0,0,0,0,0,0,0,0,0,0,0,0,0,0,0,0,0,0,0,0,0,0,0,0,0,0,0,0,0,0,0,0,0,0,0,0,0,0,0,0,0,0,0],"sum_hessian":[1.4906E4,1.3209E4,1.697E3,1.1857E4,1.352E3,1.006E3,6.91E2,9.84E3,2.017E3,9.48E2,4.04E2,3.69E2,6.37E2,4.5E1,6.46E2,7.857E3,1.983E3,1.725E3,2.92E2,8.34E2,1.14E2,3.12E2,9.2E1,1.59E2,2.1E2,5.16E2,1.21E2,1.3E1,3.2E1,6.21E2,2.5E1,7.21E2,7.136E3,2.49E2,1.734E3,6.8E2,1.045E3,6.1E1,2.31E2,5.39E2,2.95E2,8.3E1,3.1E1,2.06E2,1.06E2,8.9E1,3E0,1.19E2,4E1,9.4E1,1.16E2,2.97E2,2.19E2,6.6E1,5.5E1,7E0,6E0,2.9E1,3E0,2.14E2,4.07E2,5E0,2E1,6.68E2,5.3E1,7.128E3,8E0,1.67E2,8.2E1,1.511E3,2.23E2,4.14E2,2.66E2,1.033E3,1.2E1,1E1,5.1E1,2.18E2,1.3E1,3.2E2,2.19E2,2.93E2,2E0,1.2E1,7.1E1,9E0,2.2E1,1.16E2,9E1,6.1E1,4.5E1,7.1E1,1.8E1,1.08E2,1.1E1,3.3E1,7E0,3.2E1,6.2E1,4.8E1,6.8E1,1.58E2,1.39E2,7E1,1.49E2,4E0,6.2E1,2E0,5.3E1,3E0,3E0,1E0,2.8E1,6.1E1,1.53E2,1E0,4.06E2,2E0,1.8E1],"tree_param":{"num_deleted":"0","num_feature":"20","num_nodes":"119","size_leaf_vector":"1"}},{"base_weights":[-2.9617617E-2,-1.03050925E-1,5.687847E-1,-1.273309E-1,1.1264026E-1,4.4714442E-1,7.306196E-1,-1.3566509E-1,-3.4658488E-2,1.7279561E-1,-6.4264685E-2,5.337428E-1,1.9240509E-1,7.6811594E-1,4.060811E-1,-1.436434E-1,-9.378577E-2,-1.2859279E-1,1.3811752E-2,2.397309E-1,1.0921526E-2,-8.623415E-2,2.1600002E-1,5.97148E-1,2.602273E-1,1.6378507E-1,4.3958336E-1,5.86747E-1,7.946197E-1,8.055558E-2,5.017544E-1,-8.987581E-3,-1.3408962E-1,8.563832E-2,-1.03932224E-1,-1.4215326E-1,-6.5573744E-2,2.107914E-1,-3.990194E-2,-4.0416643E-2,2.9659286E-1,-3.1801447E-2,5.386364E-1,-1.218579E-1,-3.6940277E-2,1.5384638E-2,4.0000004E-1,2.4883723E-1,6.248555E-1,1.7247708E-1,6.479167E-1,1.1638421E-1,3.8026318E-1,1.1250002E-1,7.076923E-1,7.3452383E-1,4.25E-1,-4.4999993E-3,7.963755E-1,-8.181817E-3,3.6875004E-1,4.2159092E-1,7.178572E-1,4.1500013E-3,-8.250211E-3,-7.5319135E-3,1.74375E-2,-7.4629914E-3,-2.815067E-3,-4.941175E-3,-8.732556E-3,2.55E-2,-4.8499983E-3,-5.741378E-3,2.55E-2,-6.385025E-3,-8.3331906E-5,-4.9528284E-3,1.56000005E-2,2.4212534E-2,7.058825E-3,1.451613E-2,-4.0041306E-3,-5.999999E-3,3.645E-2,-7.938201E-3,1.2500001E-2,3.3999998E-2,-3.022726E-3,3.3999998E-2,-8.181817E-3,3.8666666E-2,-7.199999E-3,-8.249998E-3,2.315625E-2,4.2250745E-2,2.8670272E-2,5.223531E-3,2.7360002E-2,4.5450002E-2,4.800001E-3,4.6753386E-4,1.1881189E-2,-1.333332E-3,2.93E-2,2.8800001E-2,-7.874998E-3,-4.4999993E-3,4.675E-2,-4.4999993E-3,4.536585E-2,8.166668E-3,3.696E-2,4.7983143E-2,1.6800001E-2,4.0799998E-2,-6.749999E-3,2.913158E-2,8.5714407E-4,4.675E-2,1.4E-2],"categories":[],"categories_nodes":[],"categories_segments":[],"categories_sizes":[],"default_left":[0,0,0,0,0,0,0,0,0,0,0,0,0,0,0,0,0,0,0,0,0,0,0,0,0,0,0,0,0,0,0,0,0,0,0,0,0,0,0,0,0,0,0,0,0,0,0,0,0,0,0,0,0,0,0,0,0,0,0,0,0,0,0,0,0,0,0,0,0,0,0,0,0,0,0,0,0,0,0,0,0,0,0,0,0,0,0,0,0,0,0,0,0,0,0,0,0,0,0,0,0,0,0,0,0,0,0,0,0,0,0,0,0,0,0,0,0,0,0,0,0],"id":6,"left_children":[1,3,5,7,9,11,13,15,17,19,21,23,25,27,29,31,33,35,37,39,41,43,45,47,49,51,53,55,57,59,61,-1,63,65,67,69,71,73,75,77,79,81,83,85,87,89,91,93,95,97,99,101,103,105,107,109,111,-1,113,-1,115,117,119,-1,-1,-1,-1,-1,-1,-1,-1,-1,-1,-1,-1,-1,-1,-1,-1,-1,-1,-1,-1,-1,-1,-1,-1,-1,-1,-1,-1,-1,-1,-1,-1,-1,-1,-1,-1,-1,-1,-1,-1,-1,-1,-1,-1,-1,-1,-1,-1,-1,-1,-1,-1,-1,-1,-1,-1,-1,-1],"loss_changes":[6.516844E2,6.918956E1,3.158374E1,9.165375E0,1.4239162E1,2.0368988E1,8.133362E0,3.6261902E0,4.468287E0,1.0810802E1,2.1120973E0,1.1845474E1,1.604599E0,2.5188904E0,2.264245E0,5.1737976E-1,3.187523E0,2.7610397E-1,6.8645773E0,1.1258385E1,6.622975E0,5.504048E-1,9.16677E-1,5.2586365E0,4.378866E0,2.1516504E0,2.0250401E0,1.67173E0,8.826904E-1,1.1755524E0,6.8480015E-1,0E0,2.5019836E0,4.1054683E0,1.9215641E0,4.3549538E-2,4.9099654E-1,9.16614E0,1.3063207E0,1.5402669E0,1.1186619E1,2.6172125E0,1.0282841E0,6.587293E-1,1.1154978E0,1.1648018E0,1.729778E0,2.330645E0,5.7160645E0,2.6000664E0,1.4330206E0,1.5675573E0,1.6637254E0,1.1379375E0,7.8568935E-1,7.9021454E-1,2.233622E0,0E0,7.050171E-1,0E0,1.2748125E0,1.1388774E0,2.3407793E-1,0E0,0E0,0E0,0E0,0E0,0E0,0E0,0E0,0E0,0E0,0E0,0E0,0E0,0E0,0E0,0E0,0E0,0E0,0E0,0E0,0E0,0E0,0E0,0E0,0E0,0E0,0E0,0E0,0E0,0E0,0E0,0E0,0E0,0E0,0E0,0E0,0E0,0E0,0E0,0E0,0E0,0E0,0E0,0E0,0E0,0E0,0E0,0E0,0E0,0E0,0E0,0E0,0E0,0E0,0E0,0E0,0E0,0E0],"parents":[2147483647,0,0,1,1,2,2,3,3,4,4,5,5,6,6,7,7,8,8,9,9,10,10,11,11,12,12,13,13,14,14,15,15,16,16,17,17,18,18,19,19,20,20,21,21,22,22,23,23,24,24,25,25,26,26,27,27,28,28,29,29,30,30,32,32,33,33,34,34,35,35,36,36,37,37,38,38,39,39,40,40,41,41,42,42,43,43,44,44,45,45,46,46,47,47,48,48,49,49,50,50,51,51,52,52,53,53,54,54,55,55,56,56,58,58,60,60,61,61,62,62],"right_children":[2,4,6,8,10,12,14,16,18,20,22,24,26,28,30,32,34,36,38,40,42,44,46,48,50,52,54,56,58,60,62,-1,64,66,68,70,72,74,76,78,80,82,84,86,88,90,92,94,96,98,100,102,104,106,108,110,112,-1,114,-1,116,118,120,-1,-1,-1,-1,-1,-1,-1,-1,-1,-1,-1,-1,-1,-1,-1,-1,-1,-1,-1,-1,-1,-1,-1,-1,-1,-1,-1,-1,-1,-1,-1,-1,-1,-1,-1,-1,-1,-1,-1,-1,-1,-1,-1,-1,-1,-1,-1,-1,-1,-1,-1,-1,-1,-1,-1,-1,-1,-1],"split_conditions":[5.393E1,4.808E1,6.464E1,4.898E1,2E1,2E1,2.1E1,4.31E1,3.858E1,6.843E3,3.81E2,8.921E3,1.25E2,4.8499584E1,6.764E1,5.3064E4,4.1832E4,4.412958E1,8E0,5E0,1.5E1,5.6668E4,4.345E1,5E0,1.3E1,5.482107E1,3.540214E1,6.2355E4,4.5643E4,5.7769E4,6.181633E4,-6.361655E-1,4.9609E4,5.3443E4,4.4E1,4.917E1,4.4287083E1,5.8688E4,1.4E1,5.3833E4,6.7224E4,9E0,7.486E3,5.361E1,4.8994E4,4.5141E4,5.23E1,4.898E1,6.9934E4,5.544E1,6.7702E4,4.601E1,5.575292E1,2.5827858E1,4.076E1,2.7505E1,5.531E1,-2.2898711E-2,1.9176E4,-4.2584438E-2,5.245238E1,5.994839E1,6.016E1,3.2670137E-2,-3.9255264E-1,-2.1266855E-1,2.1662536E-1,-2.673721E-1,-5.172685E-2,-3.919293E-1,-4.3818554E-1,3.3294525E-2,-1.1228529E-1,-8.721432E-2,2.2834258E-1,-1.4803468E-1,6.536144E-4,-2.9866457E-2,2.8224826E-1,4.030894E-1,9.471314E-2,2.0139289E-1,-3.4483176E-2,-1.4416122E-2,4.3717462E-1,-1.1041872E-1,1.4311844E-1,1.8579598E-1,-1.6872207E-2,4.1050804E-1,-1.1771815E-2,2.995009E-1,-3.2185365E-2,-3.4813233E-2,1.4728086E-1,7.5550306E-1,3.4626982E-1,1.159124E-1,2.626077E-1,7.738008E-1,3.9315903E-1,4.0195E-3,1.6362974E-1,2.4411517E-1,2.148435E-1,1.1420306E0,-1.7061628E-2,-2.7037581E-2,3.9478195E-1,-5.9243244E-1,1.1574036E0,3.8255095E-1,9.462968E-1,1.6595111E0,5.210804E-1,6.4230126E-1,-2.1661835E-2,7.1687067E-1,5.573102E-1,5.772409E-1,4.5494637E-1],"split_indices":[8,8,8,9,4,4,4,11,8,2,2,2,2,12,8,0,15,12,4,4,4,16,10,4,4,13,13,14,0,17,19,0,14,0,8,9,12,0,4,16,14,4,2,8,14,15,10,9,14,9,16,11,12,13,11,12,11,0,2,0,13,13,10,0,0,0,0,0,0,0,0,0,0,0,0,0,0,0,0,0,0,0,0,0,0,0,0,0,0,0,0,0,0,0,0,0,0,0,0,0,0,0,0,0,0,0,0,0,0,0,0,0,0,0,0,0,0,0,0,0,0],"split_type":[0,0,0,0,0,0,0,0,0,0,0,0,0,0,0,0,0,0,0,0,0,0,0,0,0,0,0,0,0,0,0,0,0,0,0,0,0,0,0,0,0,0,0,0,0,0,0,0,0,0,0,0,0,0,0,0,0,0,0,0,0,0,0,0,0,0,0,0,0,0,0,0,0,0,0,0,0,0,0,0,0,0,0,0,0,0,0,0,0,0,0,0,0,0,0,0,0,0,0,0,0,0,0,0,0,0,0,0,0,0,0,0,0,0,0,0,0,0,0,0,0],"sum_hessian":[1.4828E4,1.3208E4,1.62E3,1.1872E4,1.336E3,9.27E2,6.93E2,1.0892E4,9.8E2,9.97E2,3.39E2,6.91E2,2.36E2,6.2E2,7.3E1,9.147E3,1.745E3,3.33E2,6.47E2,7.05E2,2.92E2,3.15E2,2.4E1,5.6E2,1.31E2,2.13E2,2.3E1,8.2E1,5.38E2,1.7E1,5.6E1,5.556E3,3.591E3,9.3E1,1.652E3,2.73E2,6E1,1.38E2,5.09E2,1.19E2,5.86E2,2.71E2,2.1E1,1.82E2,1.33E2,1.2E1,1.2E1,4.2E1,5.18E2,1.08E2,2.3E1,1.76E2,3.7E1,1.1E1,1.2E1,4.1E1,4.1E1,1E0,5.37E2,1E1,7E0,4.3E1,1.3E1,5.9E1,3.532E3,4.6E1,4.7E1,1.215E3,4.37E2,1.6E1,2.57E2,1E0,5.9E1,5.7E1,8.1E1,1.86E2,3.23E2,1.05E2,1.4E1,3.66E2,2.2E2,3E1,2.41E2,2E0,1.9E1,1.77E2,5E0,2E0,1.31E2,2E0,1E1,8E0,4E0,1.1E1,3.1E1,3.34E2,1.84E2,8.4E1,2.4E1,1.9E1,4E0,7.6E1,1E2,8E0,2.9E1,4E0,7E0,1E0,1.1E1,1E0,4E1,1.7E1,2.4E1,5.33E2,4E0,4E0,3E0,3.7E1,6E0,1.1E1,2E0],"tree_param":{"num_deleted":"0","num_feature":"20","num_nodes":"121","size_leaf_vector":"1"}},{"base_weights":[-3.3731148E-2,-1.05901144E-1,5.1100576E-1,-1.3081372E-1,4.942183E-2,3.4525865E-1,6.5532833E-1,-1.4149196E-1,-8.1473194E-2,1.9827192E-1,2.6753673E-3,4.183555E-1,1.3507111E-1,7.224306E-1,4.221429E-1,-1.2286024E-1,-1.4755486E-1,7.792644E-2,-1.0916761E-1,-3.3185603E-3,4.1531104E-1,4.2672437E-2,-1.20147035E-1,4.950658E-1,1.7755105E-1,9.274196E-2,4.3269232E-1,7.549168E-1,3.5250002E-1,2.880795E-1,7.525E-1,-1.456878E-1,-1.496257E-2,-1.4769612E-1,8.000002E-2,1.9925928E-1,-2.1818157E-2,-7.001592E-2,-1.315476E-1,-3.816423E-2,3.5750002E-1,6.2819153E-1,2.3922417E-1,-8.771365E-2,1.4835358E-1,-2.0312477E-2,-1.3009706E-1,1.3589746E-1,5.273924E-1,1.439286E-1,4.4625003E-2,4.0799998E-2,7.609893E-2,5.0869566E-1,-6.749999E-3,7.7419096E-1,4.670455E-1,3.9818186E-1,-7.4999984E-3,2.5664338E-1,4.5333333E-2,7.6637936E-1,2.3333335E-1,-8.772894E-3,2.55E-2,1.2981819E-2,-3.0950992E-3,-8.878504E-3,-3.391303E-3,2.55E-2,-6.749999E-3,-2.0377345E-3,2.0746987E-2,-5.4857126E-3,5.9016407E-3,-4.5482297E-3,3.25E-2,-7.9999985E-3,2.325E-2,-6.64122E-3,5.1428587E-3,3.1600002E-2,-7.4999984E-3,2.7552633E-2,4.3789476E-2,2.1932432E-2,9.767456E-4,-8.003225E-3,1.1320897E-4,3.2379325E-3,1.45729175E-2,-8.639999E-3,2.2125002E-2,-8.732556E-3,-3.057691E-3,1.6551737E-3,2.4545455E-2,4.4410255E-2,2.6592717E-2,3.4500003E-2,5.7165367E-3,1.609756E-2,1.2042267E-3,1.9384615E-2,4.090909E-2,-6.749999E-3,4.6721954E-2,1.1428572E-2,4.1375E-2,2.8883722E-2,5.5384627E-3,2.9111112E-2,1.2102565E-2,4.6875E-2,1.4E-2,-4.4999993E-3,2.55E-2],"categories":[],"categories_nodes":[],"categories_segments":[],"categories_sizes":[],"default_left":[0,0,0,0,0,0,0,0,0,0,0,0,0,0,0,0,0,0,0,0,0,0,0,0,0,0,0,0,0,0,0,0,0,0,0,0,0,0,0,0,0,0,0,0,0,0,0,0,0,0,0,0,0,0,0,0,0,0,0,0,0,0,0,0,0,0,0,0,0,0,0,0,0,0,0,0,0,0,0,0,0,0,0,0,0,0,0,0,0,0,0,0,0,0,0,0,0,0,0,0,0,0,0,0,0,0,0,0,0,0,0,0,0,0,0,0,0],"id":7,"left_children":[1,3,5,7,9,11,13,15,17,19,21,23,25,27,29,31,33,35,37,39,41,43,45,47,49,51,53,55,57,59,61,63,65,67,69,71,73,75,77,79,81,83,85,87,89,91,93,95,97,99,-1,-1,101,103,-1,105,107,109,-1,111,-1,113,115,-1,-1,-1,-1,-1,-1,-1,-1,-1,-1,-1,-1,-1,-1,-1,-1,-1,-1,-1,-1,-1,-1,-1,-1,-1,-1,-1,-1,-1,-1,-1,-1,-1,-1,-1,-1,-1,-1,-1,-1,-1,-1,-1,-1,-1,-1,-1,-1,-1,-1,-1,-1,-1,-1],"loss_changes":[5.8472687E2,5.0824554E1,4.1396362E1,5.951599E0,1.2635588E1,1.2419098E1,1.4231354E1,1.0327454E0,8.908102E0,1.8990187E1,6.7991643E0,1.1032349E1,2.6180608E0,8.386597E0,9.08387E0,5.6381874E0,2.3727417E-1,3.6229339E0,1.4961243E0,2.8551335E0,7.684181E0,1.4398655E1,3.3509874E-1,5.222801E0,2.6913915E0,1.7661715E0,1.1345754E0,3.3059692E0,1.3585563E0,2.0251312E0,2.5352097E-1,6.3066864E-1,3.4083233E0,1.6990662E-1,3.79875E-1,4.625035E0,1.3893328E0,2.2608685E0,1.0638084E0,1.8691785E0,1.6982918E0,1.2792168E0,3.2607975E0,1.9154761E0,5.135088E0,1.5930094E0,3.702712E-1,1.1427215E0,7.159073E0,2.881424E0,0E0,0E0,1.9544505E0,5.188203E-1,0E0,2.558014E0,2.576725E0,1.3554716E0,0E0,1.6974573E0,0E0,2.77462E-1,2.0916665E-1,0E0,0E0,0E0,0E0,0E0,0E0,0E0,0E0,0E0,0E0,0E0,0E0,0E0,0E0,0E0,0E0,0E0,0E0,0E0,0E0,0E0,0E0,0E0,0E0,0E0,0E0,0E0,0E0,0E0,0E0,0E0,0E0,0E0,0E0,0E0,0E0,0E0,0E0,0E0,0E0,0E0,0E0,0E0,0E0,0E0,0E0,0E0,0E0,0E0,0E0,0E0,0E0,0E0,0E0],"parents":[2147483647,0,0,1,1,2,2,3,3,4,4,5,5,6,6,7,7,8,8,9,9,10,10,11,11,12,12,13,13,14,14,15,15,16,16,17,17,18,18,19,19,20,20,21,21,22,22,23,23,24,24,25,25,26,26,27,27,28,28,29,29,30,30,31,31,32,32,33,33,34,34,35,35,36,36,37,37,38,38,39,39,40,40,41,41,42,42,43,43,44,44,45,45,46,46,47,47,48,48,49,49,52,52,53,53,55,55,56,56,57,57,59,59,61,61,62,62],"right_children":[2,4,6,8,10,12,14,16,18,20,22,24,26,28,30,32,34,36,38,40,42,44,46,48,50,52,54,56,58,60,62,64,66,68,70,72,74,76,78,80,82,84,86,88,90,92,94,96,98,100,-1,-1,102,104,-1,106,108,110,-1,112,-1,114,116,-1,-1,-1,-1,-1,-1,-1,-1,-1,-1,-1,-1,-1,-1,-1,-1,-1,-1,-1,-1,-1,-1,-1,-1,-1,-1,-1,-1,-1,-1,-1,-1,-1,-1,-1,-1,-1,-1,-1,-1,-1,-1,-1,-1,-1,-1,-1,-1,-1,-1,-1,-1,-1,-1],"split_conditions":[5.317E1,4.615E1,6.029E1,4.284E1,9E0,2E1,2E1,2.17355E-1,2.0582637E-1,5.8097E4,2.1E1,7.123E3,6.0604584E1,3.107437E-1,7.327E1,5.4109E4,6.082381E1,8E0,3.6412925E-1,5.413E1,8E0,1.4E1,5.6730058E-2,3E0,1.6E1,4.8894E4,6.322441E4,1.1052E4,4.0509817E-1,1.4E2,6.9764E4,6.224E1,5.0761E4,6.330407E4,7.104E3,3.858E1,2.216E3,7.2671E4,8.048E1,5.025E1,5.8483434E4,4.808E1,2.7982026E-1,5.054E1,4.946E1,4.353E1,5.245238E1,5.2532E4,1.2624082E-1,9E0,9.4889987E-1,1.5180564E-1,3.721E3,5.834E1,-2.7924499E-2,5.0541E4,4.9777916E1,5.98425E1,-2.2800751E-2,5.3479625E4,8.970997E-1,1.8449E4,6.9934E4,-4.8007494E-1,1.9494666E-1,8.881811E-2,-8.686158E-2,-5.5521584E-1,-2.7534905E-1,1.4288726E-1,-2.2286841E-1,-3.3472534E-2,2.3265254E-1,-9.648361E-2,6.839511E-2,-7.3117286E-2,2.0138443E-1,-3.5207722E-1,2.5259283E-1,-6.2574804E-2,8.240031E-2,3.0009836E-1,-2.8362578E-2,2.3576917E-1,6.3717276E-1,2.0031333E-1,1.9013425E-2,-1.1503818E-1,1.3844878E-3,3.8674086E-2,1.9817561E-1,-1.01932056E-1,5.375872E-2,-1.3086472E-1,-1.5615359E-2,2.6206156E-2,3.021172E-1,6.77552E-1,4.1723174E-1,3.9994648E-1,1.0763052E-1,1.232159E-1,3.4144875E-2,2.1481694E-1,2.244106E-1,-2.1524735E-2,1.3820702E0,4.7052094E-1,8.275832E-1,4.8786202E-1,1.5728197E-1,3.621692E-1,2.2672382E-1,1.1030711E0,3.159819E-1,-1.3362442E-1,9.289755E-1],"split_indices":[8,8,8,11,4,4,4,3,3,0,4,2,12,3,8,0,13,4,3,11,4,4,3,4,4,14,19,2,3,2,0,9,14,19,1,8,2,15,9,8,19,8,3,8,8,11,13,15,3,4,0,0,1,8,0,0,13,12,0,18,0,1,0,0,0,0,0,0,0,0,0,0,0,0,0,0,0,0,0,0,0,0,0,0,0,0,0,0,0,0,0,0,0,0,0,0,0,0,0,0,0,0,0,0,0,0,0,0,0,0,0,0,0,0,0,0,0],"split_type":[0,0,0,0,0,0,0,0,0,0,0,0,0,0,0,0,0,0,0,0,0,0,0,0,0,0,0,0,0,0,0,0,0,0,0,0,0,0,0,0,0,0,0,0,0,0,0,0,0,0,0,0,0,0,0,0,0,0,0,0,0,0,0,0,0,0,0,0,0,0,0,0,0,0,0,0,0,0,0,0,0,0,0,0,0,0,0,0,0,0,0,0,0,0,0,0,0,0,0,0,0,0,0,0,0,0,0,0,0,0,0,0,0,0,0,0,0],"sum_hessian":[1.4871E4,1.3132E4,1.739E3,1.1317E4,1.815E3,8.11E2,9.28E2,9.302E3,2.015E3,4.33E2,1.382E3,6.01E2,2.1E2,7.19E2,2.09E2,2.289E3,7.013E3,2.98E2,1.717E3,2.25E2,2.08E2,1.043E3,3.39E2,4.55E2,1.46E2,1.85E2,2.5E1,6.6E2,5.9E1,1.5E2,5.9E1,1.889E3,4E2,7.009E3,4E0,1.34E2,1.64E2,6.26E2,1.091E3,2.06E2,1.9E1,9.3E1,1.15E2,4.67E2,5.76E2,3.1E1,3.08E2,3.8E1,4.17E2,1.39E2,7E0,4E0,1.81E2,2.2E1,3E0,6.17E2,4.3E1,5.4E1,5E0,1.42E2,8E0,5.7E1,2E0,1.888E3,1E0,5.4E1,3.46E2,6.987E3,2.2E1,1E0,3E0,5.2E1,8.2E1,1.04E2,6E1,6.21E2,5E0,1.088E3,3E0,1.3E2,7.6E1,1.4E1,5E0,3.7E1,5.6E1,7.3E1,4.2E1,3.09E2,1.58E2,2.89E2,2.87E2,2.4E1,7E0,2.57E2,5.1E1,2.8E1,1E1,1.16E2,3.01E2,1.3E1,1.26E2,4E1,1.41E2,1.2E1,1E1,3E0,6.14E2,2E1,2.3E1,4.2E1,1.2E1,2.6E1,1.16E2,5.5E1,2E0,1E0,1E0],"tree_param":{"num_deleted":"0","num_feature":"20","num_nodes":"117","size_leaf_vector":"1"}},{"base_weights":[-3.7307255E-2,-1.0184367E-1,5.3078187E-1,-1.23671815E-1,1.0560347E-1,4.140709E-1,7.134291E-1,-1.3712952E-1,-5.2664228E-2,1.4769305E-1,-1.02790676E-1,4.8089492E-1,2.0592108E-1,6.3132024E-1,8.337553E-1,-1.46194E-1,-1.0965637E-1,4.3040708E-2,-8.309473E-2,2.6250002E-1,8.769673E-2,-1.4108525E-1,-4.482756E-2,5.4163796E-1,1.9520003E-1,1.564767E-1,4.652778E-1,7.030576E-1,3.708861E-1,8.3792377E-1,-4.4999993E-3,-1.26215E-1,-1.4811629E-1,-1.1996472E-1,-2.0643916E-2,-8.959457E-3,2.1646343E-1,-9.457962E-2,5.6696452E-2,9.316772E-2,3.9485297E-1,2.2425376E-1,5.521204E-2,1.3750002E-1,-8.92857E-3,1.9444467E-2,-8.735293E-3,3.8715085E-1,6.090796E-1,1.1359226E-1,5.521739E-1,9.259493E-4,2.1535717E-1,2.0750003E-1,7.411765E-1,-7.199999E-3,7.1551096E-1,-7.199999E-3,3.9866668E-1,5.0523605E-2,3.8750002E-1,-8.888348E-3,5.6612915E-3,-8.90367E-3,-5.513512E-3,-8.856346E-3,-6.1071413E-3,3.582735E-3,-6.5476177E-3,2.2778573E-2,5.607618E-5,-8.547845E-3,-4.3897745E-3,1.43157905E-2,-7.767856E-3,2.6222237E-3,2.0222222E-2,3.8152173E-2,1.9358492E-2,-8.059687E-4,2.7308825E-2,-2.3470016E-3,1.0476001E-2,-5.999999E-3,2.55E-2,-8.624999E-3,8.709678E-3,2.8512001E-2,1.0800001E-2,3.1596E-2,4.4392157E-2,1.3980001E-2,5.5556957E-5,3.7142858E-2,-5.999999E-3,-3.4666653E-3,1.59E-2,1.8956523E-2,6.9583342E-3,3.25E-2,3.600001E-3,-4.4999993E-3,4.78125E-2,4.4632412E-2,2.140909E-2,4.36E-2,1.8688526E-2,3.3999998E-2,-4.4999993E-3],"categories":[],"categories_nodes":[],"categories_segments":[],"categories_sizes":[],"default_left":[0,0,0,0,0,0,0,0,0,0,0,0,0,0,0,0,0,0,0,0,0,0,0,0,0,0,0,0,0,0,0,0,0,0,0,0,0,0,0,0,0,0,0,0,0,0,0,0,0,0,0,0,0,0,0,0,0,0,0,0,0,0,0,0,0,0,0,0,0,0,0,0,0,0,0,0,0,0,0,0,0,0,0,0,0,0,0,0,0,0,0,0,0,0,0,0,0,0,0,0,0,0,0,0,0,0,0,0,0],"id":8,"left_children":[1,3,5,7,9,11,13,15,17,19,21,23,25,27,29,31,33,35,37,39,41,43,45,47,49,51,53,55,57,59,-1,61,63,65,67,-1,69,71,73,75,77,79,81,83,-1,85,-1,87,89,91,93,95,97,99,101,-1,103,-1,105,-1,107,-1,-1,-1,-1,-1,-1,-1,-1,-1,-1,-1,-1,-1,-1,-1,-1,-1,-1,-1,-1,-1,-1,-1,-1,-1,-1,-1,-1,-1,-1,-1,-1,-1,-1,-1,-1,-1,-1,-1,-1,-1,-1,-1,-1,-1,-1,-1,-1],"loss_changes":[5.469843E2,6.0677155E1,3.2148926E1,1.1576569E1,1.1207261E1,1.2850647E1,5.32251E0,2.521576E0,5.6331477E0,7.2920322E0,4.709053E-1,1.2111465E1,2.8510056E0,6.390335E0,9.606323E-1,2.7545166E-1,2.320816E0,1.5611661E1,2.360612E0,8.121048E0,3.0883913E0,2.9805136E-1,5.662509E-1,5.807129E0,3.5787573E0,1.767468E0,2.4065456E0,2.9353333E0,1.1251717E0,1.1338806E-1,0E0,3.2974873E0,9.5565796E-2,1.1251144E0,1.8835981E0,0E0,8.651434E0,1.3801918E0,3.8235059E0,1.9273734E0,3.3452873E0,7.3600664E0,6.3809614E0,3.15625E-1,0E0,1.1287466E0,0E0,3.179325E0,3.9469604E0,1.3854672E0,1.0650105E0,8.524259E-1,1.3628869E0,9.532917E-1,8.325825E-1,0E0,2.5220947E0,0E0,1.9185658E0,0E0,3.7395835E-1,0E0,0E0,0E0,0E0,0E0,0E0,0E0,0E0,0E0,0E0,0E0,0E0,0E0,0E0,0E0,0E0,0E0,0E0,0E0,0E0,0E0,0E0,0E0,0E0,0E0,0E0,0E0,0E0,0E0,0E0,0E0,0E0,0E0,0E0,0E0,0E0,0E0,0E0,0E0,0E0,0E0,0E0,0E0,0E0,0E0,0E0,0E0,0E0],"parents":[2147483647,0,0,1,1,2,2,3,3,4,4,5,5,6,6,7,7,8,8,9,9,10,10,11,11,12,12,13,13,14,14,15,15,16,16,17,17,18,18,19,19,20,20,21,21,22,22,23,23,24,24,25,25,26,26,27,27,28,28,29,29,31,31,32,32,33,33,34,34,36,36,37,37,38,38,39,39,40,40,41,41,42,42,43,43,45,45,47,47,48,48,49,49,50,50,51,51,52,52,53,53,54,54,56,56,58,58,60,60],"right_children":[2,4,6,8,10,12,14,16,18,20,22,24,26,28,30,32,34,36,38,40,42,44,46,48,50,52,54,56,58,60,-1,62,64,66,68,-1,70,72,74,76,78,80,82,84,-1,86,-1,88,90,92,94,96,98,100,102,-1,104,-1,106,-1,108,-1,-1,-1,-1,-1,-1,-1,-1,-1,-1,-1,-1,-1,-1,-1,-1,-1,-1,-1,-1,-1,-1,-1,-1,-1,-1,-1,-1,-1,-1,-1,-1,-1,-1,-1,-1,-1,-1,-1,-1,-1,-1,-1,-1,-1,-1,-1,-1],"split_conditions":[5.473E1,4.881E1,6.662E1,4.263E1,2.1E1,2E1,7.609E1,3.622E1,9E0,1.7957897E-1,4.652E1,8.921E3,1.3E1,2E1,1.8449E4,1.405224E-1,4.975E1,6E0,5.968E1,1E0,9E0,4.4674E4,1.4162E4,1E0,1.3E1,3.9568214E1,5.302219E4,3.668363E1,3.1288393E1,2.2E1,-1.0948173E-1,5.4109E4,6.3004344E4,5.2949E4,3.2285032E-1,-1.4134507E-1,8E0,1.4E1,3.7879625E-1,5.649E1,5.0999E4,6.0678E4,1.4E1,4.4112E4,-1.02011256E-1,4.0844463E1,-7.816884E-2,1.9E1,1.4E1,6.507E4,6.8466E4,1.6890506E-1,1.0398E4,6.682292E-2,5.5521E4,-5.49646E-2,3.0050886E-1,-5.641502E-2,3.693E1,1.849676E0,7.67E3,-6.282989E-1,7.4790254E-2,-6.8548596E-1,-5.469903E-1,-3.7766683E-1,-1.94862E-1,4.0771745E-2,-1.9284442E-1,2.4858882E-1,6.3530076E-4,-2.0254463E-1,-6.635024E-2,1.23239964E-1,-1.3317731E-1,4.2512488E-2,5.355412E-1,6.7901105E-1,2.806707E-1,-4.3514483E-3,3.9970306E-1,-1.8840062E-2,1.4928167E-1,-1.6762619E-1,4.2249754E-2,-7.9381384E-2,8.106522E-2,5.6168914E-1,3.1128705E-1,4.2770067E-1,7.003382E-1,2.2443329E-1,8.939029E-3,6.312487E-1,-8.319122E-2,-1.6893236E-2,1.8010427E-1,1.8156463E-1,1.2559754E-1,8.6595243E-1,5.551384E-1,-6.534805E-2,4.0759546E-1,8.639362E-1,5.419615E-1,4.379989E-1,3.1720242E-1,4.4608635E-1,-1.2536979E-1],"split_indices":[8,8,8,8,4,4,8,8,4,3,9,2,2,4,1,3,9,4,10,2,4,0,1,2,4,13,19,13,13,4,0,0,19,0,3,0,4,4,3,9,16,15,4,0,0,13,0,4,4,14,0,3,1,3,0,0,3,0,10,0,1,0,0,0,0,0,0,0,0,0,0,0,0,0,0,0,0,0,0,0,0,0,0,0,0,0,0,0,0,0,0,0,0,0,0,0,0,0,0,0,0,0,0,0,0,0,0,0,0],"split_type":[0,0,0,0,0,0,0,0,0,0,0,0,0,0,0,0,0,0,0,0,0,0,0,0,0,0,0,0,0,0,0,0,0,0,0,0,0,0,0,0,0,0,0,0,0,0,0,0,0,0,0,0,0,0,0,0,0,0,0,0,0,0,0,0,0,0,0,0,0,0,0,0,0,0,0,0,0,0,0,0,0,0,0,0,0,0,0,0,0,0,0,0,0,0,0,0,0,0,0,0,0,0,0,0,0,0,0,0,0],"sum_hessian":[1.4917E4,1.3396E4,1.521E3,1.2121E4,1.275E3,9.3E2,5.91E2,1.0189E4,1.932E3,1.061E3,2.14E2,7.03E2,2.27E2,3.55E2,2.36E2,7.658E3,2.531E3,4.66E2,1.466E3,3.63E2,6.98E2,1.28E2,8.6E1,5.79E2,1.24E2,1.92E2,3.5E1,2.77E2,7.8E1,2.35E2,1E0,6.78E2,6.98E3,2.268E3,2.63E2,2.21E2,2.45E2,1.355E3,1.11E2,1.6E2,2.03E2,1.33E2,5.65E2,3E0,1.25E2,5.3E1,3.3E1,1.78E2,4.01E2,1.02E2,2.2E1,5.3E1,1.39E2,1.9E1,1.6E1,4E0,2.73E2,4E0,7.4E1,2.32E2,3E0,6.17E2,6.1E1,6.944E3,3.6E1,8.97E2,1.371E3,1.38E2,1.25E2,1.39E2,1.06E2,4.17E2,9.38E2,5.6E1,5.5E1,1.34E2,2.6E1,4.5E1,1.58E2,6.6E1,6.7E1,3.16E2,2.49E2,2E0,1E0,2.3E1,3E1,1.24E2,5.4E1,2.49E2,1.52E2,4.9E1,5.3E1,2E1,2E0,4.4E1,9E0,6.8E1,7.1E1,5E0,1.4E1,1E0,1.5E1,2.52E2,2.1E1,1.4E1,6E1,2E0,1E0],"tree_param":{"num_deleted":"0","num_feature":"20","num_nodes":"109","size_leaf_vector":"1"}},{"base_weights":[-4.15082E-2,-1.05419055E-1,4.5721072E-1,-1.301344E-1,3.9535515E-2,3.4883922E-1,6.9732314E-1,-1.4352241E-1,-8.8180125E-2,8.726252E-2,-9.72782E-2,4.151899E-1,1.5220341E-1,7.3683083E-1,3.6140352E-1,-1.4632119E-1,-1.1853995E-1,-2.0171935E-2,-1.1430023E-1,1.4657983E-1,-2.1956064E-2,-1.0908117E-1,9.6551746E-2,4.7379264E-1,1.6415665E-1,4.575E-1,1.2952901E-1,6.3075E-1,8.132463E-1,2.4390246E-1,6.2352943E-1,-1.4977112E-1,-1.3966893E-1,-1.375652E-1,-8.0276795E-2,-1.2617369E-1,1.16314225E-1,-1.4701386E-1,-9.530495E-2,-7.1257465E-2,1.9456956E-1,-5.053877E-2,3.276316E-1,-1.22671545E-1,-1.639342E-2,-8.307691E-3,2.7058825E-1,5.76676E-1,3.6628243E-1,1.3757963E-1,5.65E-1,5.2500004E-1,-5.999999E-3,8.1106015E-2,3.025E-1,4.7183102E-1,7.126923E-1,8.203774E-1,1.3750002E-1,3.8636386E-2,4.575E-1,7.178572E-1,1.3750002E-1,-8.99819E-3,-7.591835E-3,7.5000017E-3,-8.535534E-3,-8.357141E-3,2.55E-2,3.2000013E-3,-6.269386E-3,5.714287E-3,-8.238914E-3,-2.7052008E-3,1.7471699E-2,-1.333332E-3,-8.903088E-3,2.8800001E-2,-5.8526555E-3,-6.4897947E-3,1.1428572E-2,2.562914E-2,8.171902E-3,-6.7276102E-3,2.0101536E-3,4.1052643E-3,3.345E-2,1.4E-2,-7.4999984E-3,-5.513512E-3,5.7600015E-3,2.7900001E-2,-3.7499875E-4,5.5434797E-3,3.8760383E-2,9.972223E-3,2.7287502E-2,-8.4374985E-3,1.0077466E-2,-4.4999993E-3,3.8666666E-2,1.909091E-2,4.4625003E-2,-6.1333315E-3,7.699423E-3,3.875001E-3,2.691892E-2,9.807694E-3,3.8152173E-2,4.452101E-2,2.175E-2,2.325E-2,4.9431298E-2,2.55E-2,-5.999999E-3,2.25E-2,-4.941175E-3,3.15E-2,-5.999999E-3,1.4E-2,4.675E-2,-5.999999E-3,2.55E-2],"categories":[],"categories_nodes":[],"categories_segments":[],"categories_sizes":[],"default_left":[0,0,0,0,0,0,0,0,0,0,0,0,0,0,0,0,0,0,0,0,0,0,0,0,0,0,0,0,0,0,0,0,0,0,0,0,0,0,0,0,0,0,0,0,0,0,0,0,0,0,0,0,0,0,0,0,0,0,0,0,0,0,0,0,0,0,0,0,0,0,0,0,0,0,0,0,0,0,0,0,0,0,0,0,0,0,0,0,0,0,0,0,0,0,0,0,0,0,0,0,0,0,0,0,0,0,0,0,0,0,0,0,0,0,0,0,0,0,0,0,0,0,0],"id":9,"left_children":[1,3,5,7,9,11,13,15,17,19,21,23,25,27,29,31,33,35,37,39,41,43,45,47,49,51,53,55,57,59,61,63,65,67,69,71,73,75,77,79,81,83,85,87,89,-1,91,93,95,97,99,101,-1,103,105,107,109,111,113,115,117,119,121,-1,-1,-1,-1,-1,-1,-1,-1,-1,-1,-1,-1,-1,-1,-1,-1,-1,-1,-1,-1,-1,-1,-1,-1,-1,-1,-1,-1,-1,-1,-1,-1,-1,-1,-1,-1,-1,-1,-1,-1,-1,-1,-1,-1,-1,-1,-1,-1,-1,-1,-1,-1,-1,-1,-1,-1,-1,-1,-1,-1],"loss_changes":[4.727967E2,4.7109207E1,4.360266E1,6.2967224E0,1.251941E1,1.5110367E1,6.6746826E0,5.779724E-1,4.8294506E0,9.209242E0,1.145266E0,1.2706299E1,1.9828544E0,3.272644E0,1.6035242E0,1.546936E-1,6.1719036E-1,1.09523115E1,1.2070484E0,9.641954E0,5.0226307E0,5.875101E-1,1.2235919E0,7.575714E0,1.6907015E0,8.0512476E-1,2.2871795E0,2.2681808E0,1.1786194E0,1.7799416E0,6.806774E-1,4.2419434E-3,1.8192482E0,6.157341E-1,9.405165E-1,1.0639658E0,9.355907E0,1.1988163E-1,1.6520243E0,1.6337366E0,1.0191807E1,2.4053946E0,2.226059E0,3.6737156E-1,5.2643895E-1,0E0,9.1785645E-1,1.1960403E1,6.0693703E0,1.3504786E0,5.5677795E-1,5.776987E-1,0E0,1.8915428E0,2.0572968E0,3.4875574E0,1.0660095E0,7.9696655E-2,3.15625E-1,9.2620313E-1,8.0512476E-1,2.3407793E-1,3.15625E-1,0E0,0E0,0E0,0E0,0E0,0E0,0E0,0E0,0E0,0E0,0E0,0E0,0E0,0E0,0E0,0E0,0E0,0E0,0E0,0E0,0E0,0E0,0E0,0E0,0E0,0E0,0E0,0E0,0E0,0E0,0E0,0E0,0E0,0E0,0E0,0E0,0E0,0E0,0E0,0E0,0E0,0E0,0E0,0E0,0E0,0E0,0E0,0E0,0E0,0E0,0E0,0E0,0E0,0E0,0E0,0E0,0E0,0E0,0E0,0E0],"parents":[2147483647,0,0,1,1,2,2,3,3,4,4,5,5,6,6,7,7,8,8,9,9,10,10,11,11,12,12,13,13,14,14,15,15,16,16,17,17,18,18,19,19,20,20,21,21,22,22,23,23,24,24,25,25,26,26,27,27,28,28,29,29,30,30,31,31,32,32,33,33,34,34,35,35,36,36,37,37,38,38,39,39,40,40,41,41,42,42,43,43,44,44,46,46,47,47,48,48,49,49,50,50,51,51,53,53,54,54,55,55,56,56,57,57,58,58,59,59,60,60,61,61,62,62],"right_children":[2,4,6,8,10,12,14,16,18,20,22,24,26,28,30,32,34,36,38,40,42,44,46,48,50,52,54,56,58,60,62,64,66,68,70,72,74,76,78,80,82,84,86,88,90,-1,92,94,96,98,100,102,-1,104,106,108,110,112,114,116,118,120,122,-1,-1,-1,-1,-1,-1,-1,-1,-1,-1,-1,-1,-1,-1,-1,-1,-1,-1,-1,-1,-1,-1,-1,-1,-1,-1,-1,-1,-1,-1,-1,-1,-1,-1,-1,-1,-1,-1,-1,-1,-1,-1,-1,-1,-1,-1,-1,-1,-1,-1,-1,-1,-1,-1,-1,-1,-1,-1,-1,-1],"split_conditions":[5.361E1,4.6E1,6.764E1,3.999E1,2E1,2E1,2.1E1,4.238E1,8E0,5.954E3,3.81E2,8.569E3,5.1419207E4,7.327E1,7.609E1,5.3064E4,3.997E1,5.5259E4,3.68E1,5E0,1.6E1,5.245238E1,3.312208E1,6.754E4,1.5E1,6.04E1,5E0,5.5E1,1.7598E4,6.1456E4,5.531E1,4.432E1,4.8894E4,6.6709664E4,5.208143E4,3.8012E4,3.793E1,4.8040355E4,2.0255178E1,5.3833E4,8E0,4.975E1,4.808E1,4.583569E4,5.8221E4,-2.9625988E-2,5.9019E4,5E0,5.649E1,3.380613E1,2.925E1,4.9121E4,-1.5699646E-1,5.501E1,5.678E4,5.575292E1,8.421E3,5.4385E4,6.5182E4,4.7411E4,6.016E1,4.8485E4,5.123E1,-6.003536E-1,-2.3868622E-1,8.503169E-2,-4.238997E-1,-3.3259368E-1,7.61245E-2,6.3696995E-2,-1.04706325E-1,9.0575844E-2,-2.3046553E-1,-3.3747394E-2,1.52245E-1,-1.04893215E-1,-4.8286834E-1,3.9485207E-1,-1.4697799E-1,-4.552885E-2,1.2983154E-1,4.413636E-1,1.14623174E-1,-1.3597257E-1,3.2531887E-2,2.4889993E-2,4.4136658E-1,1.7574485E-1,-9.4775066E-2,-5.6245994E-2,5.9524614E-2,2.2913226E-1,5.9716013E-4,4.9533293E-2,7.038046E-1,8.249363E-2,2.742778E-1,-8.055872E-2,1.3212448E-1,-3.2696687E-2,7.3633903E-1,1.5987219E-1,4.2555088E-1,-3.7372682E-2,8.606104E-2,2.459206E-1,3.8279864E-1,2.5989443E-1,5.4575986E-1,7.9573554E-1,3.3949795E-1,5.0803596E-1,1.6824155E0,3.4956345E-1,-1.2418121E-1,3.7476104E-1,-1.5386228E-2,3.2675254E-1,-8.24176E-2,2.7406037E-1,8.175419E-1,-5.640564E-3,6.711374E-1],"split_indices":[8,8,8,11,4,4,4,9,4,2,2,2,18,8,8,0,8,0,8,4,4,13,13,14,4,9,2,11,2,14,11,8,14,18,19,15,8,19,13,16,4,8,8,19,15,0,0,4,8,13,9,0,0,8,15,12,2,0,0,16,10,15,9,0,0,0,0,0,0,0,0,0,0,0,0,0,0,0,0,0,0,0,0,0,0,0,0,0,0,0,0,0,0,0,0,0,0,0,0,0,0,0,0,0,0,0,0,0,0,0,0,0,0,0,0,0,0,0,0,0,0,0,0],"split_type":[0,0,0,0,0,0,0,0,0,0,0,0,0,0,0,0,0,0,0,0,0,0,0,0,0,0,0,0,0,0,0,0,0,0,0,0,0,0,0,0,0,0,0,0,0,0,0,0,0,0,0,0,0,0,0,0,0,0,0,0,0,0,0,0,0,0,0,0,0,0,0,0,0,0,0,0,0,0,0,0,0,0,0,0,0,0,0,0,0,0,0,0,0,0,0,0,0,0,0,0,0,0,0,0,0,0,0,0,0,0,0,0,0,0,0,0,0,0,0,0,0,0,0],"sum_hessian":[1.4831E4,1.3147E4,1.684E3,1.1232E4,1.915E3,1.162E3,5.22E2,8.513E3,2.719E3,1.42E3,4.95E2,8.68E2,2.94E2,4.66E2,5.6E1,7.651E3,8.62E2,7.55E2,1.964E3,9.2E2,5E2,4.67E2,2.8E1,7.03E2,1.65E2,1.9E1,2.75E2,1.99E2,2.67E2,4E1,1.6E1,5.024E3,2.627E3,5.74E2,2.88E2,4.25E2,3.3E2,7.19E2,1.245E3,1.66E2,7.54E2,4.63E2,3.7E1,4.07E2,6E1,1.2E1,1.6E1,3.57E2,3.46E2,1.56E2,9E0,1.7E1,2E0,2.16E2,5.9E1,7E1,1.29E2,2.64E2,3E0,2.1E1,1.9E1,1.3E1,3E0,4.976E3,4.8E1,2.5E1,2.602E3,5.73E2,1E0,4.4E1,2.44E2,2E1,4.05E2,1.72E2,1.58E2,8E0,7.11E2,4E0,1.241E3,1.46E2,2E1,1.5E2,6.04E2,2.67E2,1.96E2,1.8E1,1.9E1,2E0,4.05E2,3.6E1,2.4E1,9E0,7E0,4.5E1,3.12E2,1.07E2,2.39E2,1.5E1,1.41E2,1E0,8E0,1E1,7E0,4.4E1,1.72E2,2.3E1,3.6E1,2.5E1,4.5E1,1.18E2,1.1E1,3E0,2.61E2,1E0,2E0,5E0,1.6E1,1.7E1,2E0,2E0,1.1E1,2E0,1E0],"tree_param":{"num_deleted":"0","num_feature":"20","num_nodes":"123","size_leaf_vector":"1"}},{"base_weights":[-4.435318E-2,-1.022585E-1,4.6370545E-1,-1.321241E-1,3.1655E-2,3.554275E-1,7.005274E-1,-1.422338E-1,-8.608271E-2,7.610771E-2,-9.204366E-2,4.3127692E-1,2.0115945E-1,5.9106386E-1,8.047917E-1,-1.4588293E-1,-1.1610399E-1,6.542971E-2,-1.0880796E-1,1.7898643E-1,-9.33331E-3,-1.1808298E-1,5.51473E-3,5.510689E-1,2.4765345E-1,1.3818495E-1,5.37963E-1,6.7206705E-1,3.2631582E-1,8.24E-1,4.8437503E-1,-1.3039915E-1,-1.4807549E-1,-4.4962663E-2,-1.3896258E-1,1.13118835E-1,-1.1090907E-1,-6.4321585E-2,-1.3270096E-1,-3.9942507E-2,2.3860066E-1,-3.767521E-2,1.9291669E-1,-1.23217896E-1,4.6875022E-2,5.857143E-1,-2.5769208E-2,-6.896529E-3,5.9083974E-1,1.853306E-1,6.5972227E-1,1.8108699E-1,-2.0634897E-2,2.4782611E-1,7.296875E-1,7.196875E-1,2.5750002E-1,5.7500005E-1,2.3977275E-1,5.9333336E-1,8.364929E-1,-5.999999E-3,5.7500005E-1,-8.52857E-3,1.7205897E-3,-8.893154E-3,-2.7272713E-3,2.0955894E-3,-7.578946E-3,-8.407989E-3,8.250001E-3,1.4958906E-2,2.146155E-3,-7.722221E-3,2.55E-2,-4.043696E-3,3.3999998E-2,-8.15677E-3,-6.999986E-4,-8.233332E-3,3.811766E-3,3.3467893E-2,1.0335228E-2,-2.8667452E-3,1.8875001E-2,1.9890413E-2,-1.3124986E-3,-7.97857E-3,-3.8749985E-3,-8.099998E-3,1.8000001E-2,-4.4999993E-3,4.25E-2,1.2260871E-2,-4.472221E-3,2.325E-2,-4.03846E-3,3.82614E-2,2.0676924E-2,3.5777777E-2,7.9861125E-3,4.378125E-2,4.800001E-3,8.056702E-3,2.5297299E-2,2.4545455E-2,-6.5660365E-3,3.39E-2,2.1428704E-4,-4.4999993E-3,4.5483872E-2,1.96E-2,4.530822E-2,-7.9999985E-3,3.175E-2,-6.749999E-3,4.6363637E-2,-2.2105249E-3,2.5961539E-2,4.2461537E-2,-5.999999E-3,1.4E-2,5.0468903E-2,4.090909E-2,8.250001E-3],"categories":[],"categories_nodes":[],"categories_segments":[],"categories_sizes":[],"default_left":[0,0,0,0,0,0,0,0,0,0,0,0,0,0,0,0,0,0,0,0,0,0,0,0,0,0,0,0,0,0,0,0,0,0,0,0,0,0,0,0,0,0,0,0,0,0,0,0,0,0,0,0,0,0,0,0,0,0,0,0,0,0,0,0,0,0,0,0,0,0,0,0,0,0,0,0,0,0,0,0,0,0,0,0,0,0,0,0,0,0,0,0,0,0,0,0,0,0,0,0,0,0,0,0,0,0,0,0,0,0,0,0,0,0,0,0,0,0,0,0,0,0,0,0,0],"id":10,"left_children":[1,3,5,7,9,11,13,15,17,19,21,23,25,27,29,31,33,35,37,39,41,43,45,47,49,51,53,55,57,59,61,63,65,67,69,71,73,75,77,79,81,83,85,87,89,91,93,95,97,99,101,103,105,107,109,111,113,115,117,119,121,-1,123,-1,-1,-1,-1,-1,-1,-1,-1,-1,-1,-1,-1,-1,-1,-1,-1,-1,-1,-1,-1,-1,-1,-1,-1,-1,-1,-1,-1,-1,-1,-1,-1,-1,-1,-1,-1,-1,-1,-1,-1,-1,-1,-1,-1,-1,-1,-1,-1,-1,-1,-1,-1,-1,-1,-1,-1,-1,-1,-1,-1,-1,-1],"loss_changes":[4.353354E2,5.312828E1,3.8573914E1,5.043167E0,1.3330454E1,1.2094131E1,4.934143E0,8.32077E-1,6.7488213E0,1.5674349E1,1.6290183E0,1.5195175E1,7.243123E0,4.8203735E0,1.0779877E0,2.4580383E-1,1.7760553E0,2.1653633E0,1.8016052E0,1.0568016E1,5.5961137E0,4.34381E-1,2.4836195E0,9.3463745E0,6.991455E0,1.9933352E0,2.8229876E0,3.3484802E0,1.0888782E0,1.5206909E-1,9.0484405E-1,1.8292408E0,9.403992E-2,1.7462056E0,2.8754807E-1,2.1190956E0,5.7919526E-1,1.1959212E0,4.3322182E-1,1.7601526E0,1.3372967E1,3.0616868E0,3.5794134E0,2.723484E-1,7.770937E-1,6.202383E-1,1.4741311E0,7.170341E-1,4.3137665E0,5.114973E0,1.4017992E0,2.532977E0,2.4488006E0,1.7798198E0,7.875633E-1,1.9825058E0,2.1940832E0,1.990057E0,2.3639758E0,1.2601027E0,3.9620972E-1,0E0,5.605111E-1,0E0,0E0,0E0,0E0,0E0,0E0,0E0,0E0,0E0,0E0,0E0,0E0,0E0,0E0,0E0,0E0,0E0,0E0,0E0,0E0,0E0,0E0,0E0,0E0,0E0,0E0,0E0,0E0,0E0,0E0,0E0,0E0,0E0,0E0,0E0,0E0,0E0,0E0,0E0,0E0,0E0,0E0,0E0,0E0,0E0,0E0,0E0,0E0,0E0,0E0,0E0,0E0,0E0,0E0,0E0,0E0,0E0,0E0,0E0,0E0,0E0,0E0],"parents":[2147483647,0,0,1,1,2,2,3,3,4,4,5,5,6,6,7,7,8,8,9,9,10,10,11,11,12,12,13,13,14,14,15,15,16,16,17,17,18,18,19,19,20,20,21,21,22,22,23,23,24,24,25,25,26,26,27,27,28,28,29,29,30,30,31,31,32,32,33,33,34,34,35,35,36,36,37,37,38,38,39,39,40,40,41,41,42,42,43,43,44,44,45,45,46,46,47,47,48,48,49,49,50,50,51,51,52,52,53,53,54,54,55,55,56,56,57,57,58,58,59,59,60,60,62,62],"right_children":[2,4,6,8,10,12,14,16,18,20,22,24,26,28,30,32,34,36,38,40,42,44,46,48,50,52,54,56,58,60,62,64,66,68,70,72,74,76,78,80,82,84,86,88,90,92,94,96,98,100,102,104,106,108,110,112,114,116,118,120,122,-1,124,-1,-1,-1,-1,-1,-1,-1,-1,-1,-1,-1,-1,-1,-1,-1,-1,-1,-1,-1,-1,-1,-1,-1,-1,-1,-1,-1,-1,-1,-1,-1,-1,-1,-1,-1,-1,-1,-1,-1,-1,-1,-1,-1,-1,-1,-1,-1,-1,-1,-1,-1,-1,-1,-1,-1,-1,-1,-1,-1,-1,-1,-1],"split_conditions":[5.473E1,4.492E1,6.876E1,4.204E1,2E1,1.9E1,7.609E1,4.17E1,2.0144011E-1,2.4574393E-1,1E0,3.955E3,4.7E1,2E1,2.4983768E-1,1.405224E-1,2.17355E-1,2E1,3.6412925E-1,6E0,6.567E1,5.421E1,2E0,5.1172E4,1.4E1,1.5917E4,5.764E4,2.8612116E-1,3.693E1,5.6663E4,4.625875E1,5.4214E4,6.703829E4,5E0,6.6709664E4,1.96E2,7E1,7.2413E4,6.987E1,5.002E1,8E0,6.6709664E4,3.7879625E-1,5.293369E1,2.2E1,1.856E3,3.329E3,7E-2,1.982E4,9E0,6.8498E4,5.3857796E1,3.5166668E1,3.261E3,3.4152916E1,4.353E1,3E0,3.147E1,5.048E1,7.67E3,3.7413216E1,-5.4457854E-2,6.7482E4,-4.2882013E-1,4.7416553E-2,-5.213444E-1,-2.1429259E-1,2.6674716E-2,-1.8795323E-1,-2.758456E-1,7.1556926E-2,1.5833206E-1,3.0891158E-2,-2.953223E-1,7.2071E-2,-6.9916725E-2,2.0210083E-1,-3.5193503E-1,-2.8145164E-2,-8.596296E-2,3.6110297E-2,4.835749E-1,1.2729783E-1,-2.6668973E-2,1.2615053E-1,3.678279E-1,-2.0832782E-4,-1.1840421E-1,-2.0510644E-2,-1.00308724E-1,3.231318E-1,-8.9069366E-1,4.9135666E-2,1.350686E-1,-6.115827E-2,8.6253864E-1,-1.1894387E-2,5.694821E-1,2.0132668E-1,4.027077E-1,8.631496E-2,5.9381026E-1,1.4502181E-1,1.4826842E-1,2.1172127E-1,3.4362137E-1,-5.4254357E-2,6.6694075E-1,5.7220683E-2,-5.4220274E-2,7.3475856E-1,8.4159195E-1,8.562639E-1,-3.767848E-2,5.132119E-1,-2.4582595E-2,5.051177E-1,-2.9790064E-2,2.581752E-1,1.1546463E0,-1.0426437E-1,1.4698732E0,1.6980801E0,7.273558E-1,8.269702E-1],"split_indices":[8,8,8,11,4,4,8,9,3,3,2,2,2,4,3,3,3,4,3,4,11,8,2,17,4,1,17,3,10,17,12,15,18,5,18,2,11,15,10,8,4,18,3,13,4,1,1,11,1,4,16,13,12,1,12,11,5,9,10,1,13,0,17,0,0,0,0,0,0,0,0,0,0,0,0,0,0,0,0,0,0,0,0,0,0,0,0,0,0,0,0,0,0,0,0,0,0,0,0,0,0,0,0,0,0,0,0,0,0,0,0,0,0,0,0,0,0,0,0,0,0,0,0,0,0],"split_type":[0,0,0,0,0,0,0,0,0,0,0,0,0,0,0,0,0,0,0,0,0,0,0,0,0,0,0,0,0,0,0,0,0,0,0,0,0,0,0,0,0,0,0,0,0,0,0,0,0,0,0,0,0,0,0,0,0,0,0,0,0,0,0,0,0,0,0,0,0,0,0,0,0,0,0,0,0,0,0,0,0,0,0,0,0,0,0,0,0,0,0,0,0,0,0,0,0,0,0,0,0,0,0,0,0,0,0,0,0,0,0,0,0,0,0,0,0,0,0,0,0,0,0,0,0],"sum_hessian":[1.4795E4,1.3282E4,1.513E3,1.086E4,2.422E3,1.04E3,4.73E2,8.903E3,1.957E3,1.782E3,6.4E2,6.96E2,3.44E2,2.34E2,2.39E2,7.808E3,1.095E3,2.55E2,1.702E3,8.08E2,9.74E2,5.05E2,1.35E2,4.2E2,2.76E2,2.91E2,5.3E1,1.78E2,5.6E1,2.24E2,1.5E1,9.76E2,6.832E3,2.67E2,8.28E2,2.01E2,5.4E1,5.96E2,1.106E3,1.73E2,6.35E2,8.55E2,1.19E2,4.9E2,1.5E1,6E0,1.29E2,2.8E1,3.92E2,2.41E2,3.5E1,2.29E2,6.2E1,2.2E1,3.1E1,1.59E2,1.9E1,1.3E1,4.3E1,1.4E1,2.1E2,2E0,1.3E1,9.09E2,6.7E1,6.822E3,1E1,1.35E2,1.32E2,8.25E2,3E0,7.2E1,1.29E2,5.3E1,1E0,5.94E2,2E0,1.077E3,2.9E1,8.9E1,8.4E1,1.08E2,5.27E2,8.32E2,2.3E1,7.2E1,4.7E1,4.19E2,7.1E1,9E0,6E0,1E0,5E0,2.2E1,1.07E2,3E0,2.5E1,3.28E2,6.4E1,2.6E1,2.15E2,3.1E1,4E0,1.93E2,3.6E1,1E1,5.2E1,9E0,1.3E1,1E0,3E1,1.4E1,1.45E2,8E0,1.1E1,3E0,1E1,1.8E1,2.5E1,1.2E1,2E0,2E0,2.08E2,1E1,3E0],"tree_param":{"num_deleted":"0","num_feature":"20","num_nodes":"125","size_leaf_vector":"1"}},{"base_weights":[-4.5582753E-2,-9.925499E-2,4.708961E-1,-1.2100451E-1,1.07349515E-1,3.8979036E-1,7.6688963E-1,-1.397561E-1,-6.959665E-2,6.807538E-2,2.3640943E-1,2.553776E-1,4.7806355E-1,8.027574E-1,3.9107144E-1,-1.4548609E-1,-1.1260448E-1,-9.154819E-2,1.8962871E-2,-1.46825155E-2,1.19669445E-1,3.1385285E-1,-3.0147035E-2,1.8485807E-1,4.3801656E-1,6.0695654E-1,3.3627763E-1,3.625E-1,8.199234E-1,-7.199999E-3,4.8125002E-1,-1.457509E-1,3.5714507E-3,-3.733679E-2,-1.3708438E-1,-1.3184547E-1,-5.8860295E-2,9.896452E-2,-6.860839E-2,-7.852562E-2,3.0044867E-2,2.0147495E-1,1.5355829E-2,3.9636365E-1,1.05970174E-1,-1.0699998E-1,1.7368424E-1,-2.941174E-2,2.2509366E-1,1.07500024E-1,4.9852943E-1,-4.5454524E-2,6.265672E-1,3.989848E-1,2.3140498E-1,5.3333336E-1,-6.749999E-3,4.9413126E-2,2.3333335E-1,-5.999999E-3,5.386364E-1,-7.689529E-3,-8.878632E-3,-8.249998E-3,3.3999998E-2,-6.3219494E-3,2.4469288E-3,-8.274977E-3,1.4E-2,-8.576085E-3,-3.4870117E-3,2.6875015E-3,-6.1934507E-3,3.4500003E-2,4.689232E-3,9.652175E-3,-5.2055735E-3,-5.435063E-3,3.3999998E-2,1.2210527E-2,-1.7604775E-3,9.864079E-3,3.3870965E-2,3.5227413E-4,3.8250003E-2,1.1107144E-2,3.647561E-2,-1.9772712E-3,2.1375E-2,-7.591835E-3,2.55E-2,3.2E-2,-8.181817E-3,-6.7741917E-3,5.714287E-3,1.854962E-2,8.583943E-3,2.19E-2,-8.181817E-3,3.4612503E-2,1.2260871E-2,2.55E-2,-8.099998E-3,3.0102743E-2,4.3152634E-2,9.230782E-4,2.5427029E-2,5.089287E-3,2.1136364E-2,8.250001E-3,4.25E-2,2.55E-2,-4.4999993E-3,4.6363637E-2,1.6750002E-2],"categories":[],"categories_nodes":[],"categories_segments":[],"categories_sizes":[],"default_left":[0,0,0,0,0,0,0,0,0,0,0,0,0,0,0,0,0,0,0,0,0,0,0,0,0,0,0,0,0,0,0,0,0,0,0,0,0,0,0,0,0,0,0,0,0,0,0,0,0,0,0,0,0,0,0,0,0,0,0,0,0,0,0,0,0,0,0,0,0,0,0,0,0,0,0,0,0,0,0,0,0,0,0,0,0,0,0,0,0,0,0,0,0,0,0,0,0,0,0,0,0,0,0,0,0,0,0,0,0,0,0,0,0,0,0],"id":11,"left_children":[1,3,5,7,9,11,13,15,17,19,21,23,25,27,29,31,33,35,37,39,41,43,45,47,49,51,53,55,57,-1,59,61,63,65,67,69,71,73,75,77,79,81,83,85,87,89,91,93,95,97,99,101,103,105,107,109,-1,-1,111,-1,113,-1,-1,-1,-1,-1,-1,-1,-1,-1,-1,-1,-1,-1,-1,-1,-1,-1,-1,-1,-1,-1,-1,-1,-1,-1,-1,-1,-1,-1,-1,-1,-1,-1,-1,-1,-1,-1,-1,-1,-1,-1,-1,-1,-1,-1,-1,-1,-1,-1,-1,-1,-1,-1,-1],"loss_changes":[4.1078247E2,6.0329895E1,3.319049E1,1.16978E1,6.466795E0,1.289386E1,3.7165222E0,1.3679504E0,6.3159065E0,4.194717E0,6.161089E0,5.5474186E0,1.1875824E1,1.7584076E0,1.3482051E0,2.9040527E-1,2.8600407E0,3.4209995E0,4.532566E0,1.0817513E0,5.159629E0,3.9202404E0,1.0838064E0,2.739564E0,2.3664684E0,4.4424667E0,1.9923515E0,1.03375E0,3.6338806E-1,0E0,8.54404E-1,2.6815796E-1,1.1900297E0,2.0396955E0,3.9364624E-1,9.441929E-1,6.621728E0,3.303495E0,1.3010324E0,1.265047E0,2.3031735E0,4.469881E0,1.5717666E0,7.261572E0,2.3413334E0,5.732898E-1,2.1913877E0,5.415198E-1,1.7969522E0,1.3056704E0,2.232998E0,5.207727E-1,3.5141144E0,1.8675213E0,2.113903E0,5.2604175E-1,0E0,0E0,2.0916665E-1,0E0,1.1205492E0,0E0,0E0,0E0,0E0,0E0,0E0,0E0,0E0,0E0,0E0,0E0,0E0,0E0,0E0,0E0,0E0,0E0,0E0,0E0,0E0,0E0,0E0,0E0,0E0,0E0,0E0,0E0,0E0,0E0,0E0,0E0,0E0,0E0,0E0,0E0,0E0,0E0,0E0,0E0,0E0,0E0,0E0,0E0,0E0,0E0,0E0,0E0,0E0,0E0,0E0,0E0,0E0,0E0,0E0],"parents":[2147483647,0,0,1,1,2,2,3,3,4,4,5,5,6,6,7,7,8,8,9,9,10,10,11,11,12,12,13,13,14,14,15,15,16,16,17,17,18,18,19,19,20,20,21,21,22,22,23,23,24,24,25,25,26,26,27,27,28,28,30,30,31,31,32,32,33,33,34,34,35,35,36,36,37,37,38,38,39,39,40,40,41,41,42,42,43,43,44,44,45,45,46,46,47,47,48,48,49,49,50,50,51,51,52,52,53,53,54,54,55,55,58,58,60,60],"right_children":[2,4,6,8,10,12,14,16,18,20,22,24,26,28,30,32,34,36,38,40,42,44,46,48,50,52,54,56,58,-1,60,62,64,66,68,70,72,74,76,78,80,82,84,86,88,90,92,94,96,98,100,102,104,106,108,110,-1,-1,112,-1,114,-1,-1,-1,-1,-1,-1,-1,-1,-1,-1,-1,-1,-1,-1,-1,-1,-1,-1,-1,-1,-1,-1,-1,-1,-1,-1,-1,-1,-1,-1,-1,-1,-1,-1,-1,-1,-1,-1,-1,-1,-1,-1,-1,-1,-1,-1,-1,-1,-1,-1,-1,-1,-1,-1],"split_conditions":[5.544E1,4.918E1,7.327E1,3.923E1,5.544E1,5.088E1,2.4983768E-1,3.962E1,4.994E1,4.412E1,3.4018E-1,5.978E1,2.0943655E-1,5.5521E4,6.3098E4,6.685279E4,3.0050886E-1,1E0,2.9510412E-1,5.695E4,2.6955757E-1,6.5464E4,6.696E1,5.4385E4,4.1511192E1,5.0743E4,3.0231228E-1,5.455E4,1.6357E4,-5.1190335E-2,3.228E1,1.405224E-1,5.796E4,5.614E4,6.989E1,6.1847E4,2.2996242E-1,4.1646E4,3.506875E1,6.052E4,6.2727E4,6.303E1,5.501E1,5.912E4,6.03769E4,7.3148E4,3.714055E-1,5.023E1,6.507E4,6.1965E4,2.57748E-1,4.588E4,5.816E1,3.7563572E1,6.803E1,4.75325E1,-7.4580915E-2,1.5088954E0,2.2766015E-1,-5.1704407E-2,5.98425E1,-4.2309195E-1,-5.368556E-1,-5.680482E-1,1.2939605E-1,-1.7619549E-1,2.8384227E-2,-3.890963E-1,9.7803496E-2,-2.1406932E-1,-7.389798E-2,3.0613467E-2,-1.3161801E-1,2.111913E-1,4.331699E-2,1.0133509E-1,-8.714051E-2,-3.1571697E-2,9.988769E-2,1.386651E-1,-1.6563594E-2,1.2713438E-1,5.4438365E-1,4.6947845E-3,2.4870665E-1,2.797852E-1,4.519382E-1,-2.2725068E-2,2.695933E-1,-3.240046E-2,3.3282164E-2,5.9083384E-1,-6.1919153E-2,-4.7792155E-2,3.3088937E-2,2.7831835E-1,9.9327706E-2,4.68616E-1,-5.8827166E-2,4.9126852E-1,2.088266E-1,1.129129E-1,-7.1718745E-2,4.1729957E-1,7.7251977E-1,1.588873E-1,2.6123258E-1,1.04699574E-1,2.467938E-1,3.151719E-1,7.856282E-1,2.2048508E-1,-2.491809E-1,6.9593793E-1,7.842832E-1],"split_indices":[8,8,8,8,9,11,3,11,9,11,3,9,3,0,0,18,3,2,3,0,3,14,11,0,13,17,3,0,1,0,9,3,0,0,9,17,3,16,12,17,14,11,9,0,19,15,3,9,14,0,3,0,11,13,11,12,0,0,3,0,12,0,0,0,0,0,0,0,0,0,0,0,0,0,0,0,0,0,0,0,0,0,0,0,0,0,0,0,0,0,0,0,0,0,0,0,0,0,0,0,0,0,0,0,0,0,0,0,0,0,0,0,0,0,0],"split_type":[0,0,0,0,0,0,0,0,0,0,0,0,0,0,0,0,0,0,0,0,0,0,0,0,0,0,0,0,0,0,0,0,0,0,0,0,0,0,0,0,0,0,0,0,0,0,0,0,0,0,0,0,0,0,0,0,0,0,0,0,0,0,0,0,0,0,0,0,0,0,0,0,0,0,0,0,0,0,0,0,0,0,0,0,0,0,0,0,0,0,0,0,0,0,0,0,0,0,0,0,0,0,0,0,0,0,0,0,0,0,0,0,0,0,0],"sum_hessian":[1.4816E4,1.3422E4,1.394E3,1.2144E4,1.278E3,1.096E3,2.98E2,8.897E3,3.247E3,9.81E2,2.97E2,4.36E2,6.6E2,2.71E2,2.7E1,7.343E3,1.554E3,2.602E3,6.45E2,3.77E2,6.04E2,2.3E2,6.7E1,3.16E2,1.2E2,3.44E2,3.16E2,1.1E1,2.6E2,4E0,2.3E1,7.33E3,1.3E1,3.82E2,1.172E3,1.164E3,1.438E3,3.37E2,3.08E2,1.55E2,2.22E2,3.38E2,2.66E2,1.64E2,6.6E1,4.9E1,1.8E1,5E1,2.66E2,1.9E1,1.01E2,1E1,3.34E2,1.96E2,1.2E2,8E0,3E0,2.58E2,2E0,2E0,2.1E1,8.3E2,6.5E3,1.1E1,2E0,2.04E2,1.78E2,1.17E3,2E0,1.011E3,1.53E2,4.31E2,1.007E3,1.3E1,3.24E2,2.2E1,2.86E2,1.53E2,2E0,5.6E1,1.66E2,3.08E2,3E1,2.63E2,3E0,8.3E1,8.1E1,4.3E1,2.3E1,4.8E1,1E0,8E0,1E1,3E1,2E1,1.3E2,1.36E2,9E0,1E1,7.9E1,2.2E1,1E0,9E0,1.45E2,1.89E2,1.2E1,1.84E2,5.5E1,6.5E1,3E0,5E0,1E0,1E0,1E1,1.1E1],"tree_param":{"num_deleted":"0","num_feature":"20","num_nodes":"115","size_leaf_vector":"1"}},{"base_weights":[-5.0057214E-2,-9.87639E-2,4.2505434E-1,-1.2946966E-1,3.2589134E-2,3.4291518E-1,7.5565696E-1,-1.4451331E-1,-9.643168E-2,-2.5651278E-2,1.150426E-1,2.5994986E-1,4.3933466E-1,7.8286856E-1,4.3958336E-1,-1.2306608E-1,-1.4673783E-1,-1.339107E-1,-6.7066155E-2,-5.3426374E-2,7.8322805E-2,1.7089668E-1,2.2875024E-2,1.623482E-1,3.276989E-1,5.03937E-1,2.4809162E-1,3.625E-1,8.00625E-1,5.4210526E-1,4.1666687E-2,-1.4656547E-1,4.941863E-2,-1.4744218E-1,-9.0116255E-2,2.0833336E-1,-1.3519382E-1,5.6458336E-1,-7.502635E-2,-1.1507126E-1,-9.609803E-3,1.3638395E-1,-6.236557E-2,6.1839104E-2,3.8191965E-1,1.03735656E-1,-3.9207026E-2,4.8125002E-1,1.2745538E-1,4.0895835E-1,1.5221241E-1,5.306686E-1,2.4868423E-1,3.5227295E-2,3.5170457E-1,5.3333336E-1,-6.749999E-3,4.8264705E-2,2.3333335E-1,6.2352943E-1,-5.999999E-3,2.55E-2,-7.199999E-3,-8.985147E-3,-2.8571414E-3,3.7125003E-2,-5.3164415E-4,-8.895549E-3,-7.774085E-3,-8.148147E-3,3.25E-2,-6.749999E-3,3.3999998E-2,-8.73499E-3,-5.8912374E-3,4.4833332E-2,8.5714407E-4,4.0527325E-4,-6.806975E-3,-7.873271E-3,4.6551862E-4,6.896553E-3,-5.0902762E-3,2.2611953E-3,1.6813187E-2,3.25E-2,-6.170453E-3,7.2256237E-4,1.2750001E-2,3.1640287E-2,8.546513E-3,1.0619611E-4,1.7274195E-2,1.6800001E-2,-2.7712989E-3,1.7812502E-2,4.5333333E-2,4.25E-2,6.657535E-3,3.0212766E-2,1.6290002E-2,6.9339634E-3,3.7125003E-2,2.115E-2,3.397895E-2,-2.7272713E-3,2.1321429E-2,2.8800001E-2,-1.2749985E-3,8.464287E-3,2.6557377E-2,-4.4999993E-3,3.7125003E-2,2.55E-2,-4.4999993E-3,8.250001E-3,4.307143E-2],"categories":[],"categories_nodes":[],"categories_segments":[],"categories_sizes":[],"default_left":[0,0,0,0,0,0,0,0,0,0,0,0,0,0,0,0,0,0,0,0,0,0,0,0,0,0,0,0,0,0,0,0,0,0,0,0,0,0,0,0,0,0,0,0,0,0,0,0,0,0,0,0,0,0,0,0,0,0,0,0,0,0,0,0,0,0,0,0,0,0,0,0,0,0,0,0,0,0,0,0,0,0,0,0,0,0,0,0,0,0,0,0,0,0,0,0,0,0,0,0,0,0,0,0,0,0,0,0,0,0,0,0,0,0,0,0,0],"id":12,"left_children":[1,3,5,7,9,11,13,15,17,19,21,23,25,27,29,31,33,35,37,39,41,43,45,47,49,51,53,55,57,59,61,63,65,67,69,71,73,75,77,79,81,83,85,87,89,91,93,95,97,99,101,103,105,107,109,111,-1,-1,113,115,-1,-1,-1,-1,-1,-1,-1,-1,-1,-1,-1,-1,-1,-1,-1,-1,-1,-1,-1,-1,-1,-1,-1,-1,-1,-1,-1,-1,-1,-1,-1,-1,-1,-1,-1,-1,-1,-1,-1,-1,-1,-1,-1,-1,-1,-1,-1,-1,-1,-1,-1,-1,-1,-1,-1,-1,-1],"loss_changes":[3.4368738E2,5.4332703E1,3.7242523E1,5.41243E0,1.22627735E1,8.749207E0,2.012497E0,3.3976746E-1,3.7539368E0,4.327356E0,5.437458E0,3.90102E0,6.188263E0,1.5832977E0,9.564967E-1,2.8891287E0,2.5750732E-1,6.87315E-1,9.691187E0,3.1915562E0,2.5897603E0,1.5119366E1,2.0120647E0,2.6871257E0,4.9572525E0,2.4677124E0,2.8768816E0,1.03375E0,3.278656E-1,1.0557275E0,4.2283332E-1,1.9027233E-1,2.858986E0,7.8704834E-2,2.5558429E0,7.535416E-1,5.6087875E-1,2.4014635E0,5.9585447E0,9.750109E-1,6.4936814E0,3.169393E0,2.3294067E0,3.2609725E0,7.7255745E0,3.2669983E0,5.1879716E-1,9.894967E-1,2.0678678E0,2.983738E0,1.8604436E0,1.985199E0,1.2084651E0,1.1154602E0,1.6227951E0,5.1406264E-1,0E0,0E0,2.0916665E-1,6.806774E-1,0E0,0E0,0E0,0E0,0E0,0E0,0E0,0E0,0E0,0E0,0E0,0E0,0E0,0E0,0E0,0E0,0E0,0E0,0E0,0E0,0E0,0E0,0E0,0E0,0E0,0E0,0E0,0E0,0E0,0E0,0E0,0E0,0E0,0E0,0E0,0E0,0E0,0E0,0E0,0E0,0E0,0E0,0E0,0E0,0E0,0E0,0E0,0E0,0E0,0E0,0E0,0E0,0E0,0E0,0E0,0E0,0E0],"parents":[2147483647,0,0,1,1,2,2,3,3,4,4,5,5,6,6,7,7,8,8,9,9,10,10,11,11,12,12,13,13,14,14,15,15,16,16,17,17,18,18,19,19,20,20,21,21,22,22,23,23,24,24,25,25,26,26,27,27,28,28,29,29,30,30,31,31,32,32,33,33,34,34,35,35,36,36,37,37,38,38,39,39,40,40,41,41,42,42,43,43,44,44,45,45,46,46,47,47,48,48,49,49,50,50,51,51,52,52,53,53,54,54,55,55,58,58,59,59],"right_children":[2,4,6,8,10,12,14,16,18,20,22,24,26,28,30,32,34,36,38,40,42,44,46,48,50,52,54,56,58,60,62,64,66,68,70,72,74,76,78,80,82,84,86,88,90,92,94,96,98,100,102,104,106,108,110,112,-1,-1,114,116,-1,-1,-1,-1,-1,-1,-1,-1,-1,-1,-1,-1,-1,-1,-1,-1,-1,-1,-1,-1,-1,-1,-1,-1,-1,-1,-1,-1,-1,-1,-1,-1,-1,-1,-1,-1,-1,-1,-1,-1,-1,-1,-1,-1,-1,-1,-1,-1,-1,-1,-1,-1,-1,-1,-1,-1,-1],"split_conditions":[5.544E1,4.492E1,7.327E1,3.6E1,5.002E1,5.591E1,2.4574393E-1,1.465585E-1,5.5259E4,5.23E1,6.5302E4,1E0,2.5194016E-1,5.5521E4,6.767E1,5.2326E4,6.2588066E4,3.6739E4,5.0761E4,1E0,3.8105354E-1,6.029E4,1.421E3,5.2433043E4,7.628E3,5.847E3,5.245238E1,5.827E4,1.6357E4,6.9026E4,3.9459583E1,5.2407E4,4.6193457E4,4.732E1,6.4283E4,4.202E4,4.408E1,1.8951026E-1,2.8397936E-1,6.4671E4,2.2996242E-1,4.4671726E1,2.3630833E1,3.14E2,6.843E3,7.0661E4,2.3214703E1,5.7037E4,1.4E-1,6.9108E4,7.1967E4,5.7769E4,7.123E3,5.6408E4,1E0,1.281E3,-7.0106044E-2,1.3923422E0,2.2766015E-1,6.4671E4,-4.5950315E-3,8.051765E-1,-1.9227447E-2,-5.2810866E-1,-1.7579773E-1,2.2475018E-1,-3.7951898E-2,-5.9704375E-1,-3.295911E-1,-5.0997514E-1,1.474887E-1,-3.758876E-1,1.734906E-1,-2.8421733E-1,-1.451378E-1,4.2120776E-1,1.4407002E-2,5.663778E-3,-2.1199745E-1,-1.2206594E-1,1.3111766E-2,9.071967E-2,-7.832291E-2,1.6190115E-2,1.6986224E-1,8.7762676E-2,-9.8930605E-2,2.1581294E-3,2.8661317E-1,4.9355724E-1,1.709962E-1,9.69395E-3,2.6880088E-1,1.6362602E-1,-1.44450655E-2,3.2530048E-1,4.3413305E-1,3.0000183E-1,9.59203E-2,5.750477E-1,1.340831E-1,1.6103205E-1,2.0893042E-1,4.3612483E-1,5.4001886E-1,-1.1559316E-2,4.9650472E-1,1.6988799E-1,-2.0262697E-3,1.7844589E-1,2.3083176E-1,-1.8494819E-1,6.730871E-1,2.0725615E-1,-2.3422988E-1,5.728766E-1,7.111131E-1],"split_indices":[8,8,8,8,8,9,3,3,0,10,14,2,3,0,10,0,19,15,14,2,3,0,2,18,2,2,13,14,1,17,12,17,18,9,17,0,9,3,3,17,3,13,12,2,2,15,13,17,9,14,14,17,2,14,2,1,0,0,3,0,0,0,0,0,0,0,0,0,0,0,0,0,0,0,0,0,0,0,0,0,0,0,0,0,0,0,0,0,0,0,0,0,0,0,0,0,0,0,0,0,0,0,0,0,0,0,0,0,0,0,0,0,0,0,0,0,0],"split_type":[0,0,0,0,0,0,0,0,0,0,0,0,0,0,0,0,0,0,0,0,0,0,0,0,0,0,0,0,0,0,0,0,0,0,0,0,0,0,0,0,0,0,0,0,0,0,0,0,0,0,0,0,0,0,0,0,0,0,0,0,0,0,0,0,0,0,0,0,0,0,0,0,0,0,0,0,0,0,0,0,0,0,0,0,0,0,0,0,0,0,0,0,0,0,0,0,0,0,0,0,0,0,0,0,0,0,0,0,0,0,0,0,0,0,0,0,0],"sum_hessian":[1.4849E4,1.3469E4,1.38E3,1.0917E4,2.552E3,1.107E3,2.73E2,7.499E3,3.418E3,1.496E3,1.056E3,5.97E2,5.1E2,2.5E2,2.3E1,7.1E2,6.789E3,1.5E3,1.918E3,1.181E3,3.15E2,6.57E2,3.99E2,2.46E2,3.51E2,3.8E2,1.3E2,1.1E1,2.39E2,1.8E1,5E0,6.25E2,8.5E1,6.704E3,8.5E1,5E0,1.495E3,2.3E1,1.895E3,4.9E2,6.91E2,2.23E2,9.2E1,4.34E2,2.23E2,1.73E2,2.26E2,2.3E1,2.23E2,2.39E2,1.12E2,3.43E2,3.7E1,4.3E1,8.7E1,8E0,3E0,2.37E2,2E0,1.6E1,2E0,1E0,4E0,6.05E2,2E1,7E0,7.8E1,6.404E3,3E2,8E1,5E0,3E0,2E0,1.165E3,3.3E2,1.7E1,6E0,6.06E2,1.289E3,4.33E2,5.7E1,2.6E2,4.31E2,1.33E2,9E1,5E0,8.7E1,3.27E2,1.07E2,1.38E2,8.5E1,1.12E2,6.1E1,4E0,2.22E2,1.5E1,8E0,5E0,2.18E2,1.4E2,9.9E1,1.05E2,7E0,5.9E1,2.84E2,1E1,2.7E1,4E0,3.9E1,2.7E1,6E1,1E0,7E0,1E0,1E0,3E0,1.3E1],"tree_param":{"num_deleted":"0","num_feature":"20","num_nodes":"117","size_leaf_vector":"1"}},{"base_weights":[-5.2718353E-2,-9.8297864E-2,3.9589393E-1,-1.24318995E-1,4.4423193E-2,3.3555374E-1,8.0539775E-1,-1.3761123E-1,-6.961176E-2,1.8502069E-1,2.023685E-3,3.996154E-1,1.3476029E-1,8.218024E-1,8.000002E-2,-1.4794846E-1,-1.22711614E-1,5.7056325E-4,-1.2249606E-1,-1.869367E-2,3.562738E-1,3.741859E-2,-1.12664886E-1,4.665408E-1,2.2008035E-1,3.0808827E-1,8.17778E-2,3.8750002E-1,8.2721895E-1,2.55E-2,-6.749999E-3,-1.38505E-1,-8.972197E-3,-1.2416908E-1,1.5750003E-1,9.9684566E-2,-4.7916643E-2,2.55E-2,-1.23257615E-1,-5.02475E-2,2.857143E-1,2.2513969E-1,6.2823534E-1,-7.077065E-2,1.19942635E-1,-1.1994607E-1,2.0000002E-1,5.672727E-1,3.2535973E-1,1.477723E-1,5.1979166E-1,2.0462966E-1,6.6E-1,6.886366E-2,5.416667E-1,3.3999998E-2,-4.4999993E-3,3.8750002E-1,4.9969878E-2,-8.822068E-3,-3.0416653E-3,-8.6399345E-3,-6.285188E-3,2.4545455E-2,-8.099998E-3,-3.7499985E-3,1.1539605E-2,-3.2096258E-3,4.0799998E-2,-7.441221E-3,2.55E-2,-6.289472E-3,1.2134846E-3,2.76E-2,-7.714284E-3,3.062069E-2,1.0132452E-2,1.0153847E-2,4.208219E-2,3.8250003E-2,-4.559545E-3,9.952473E-3,-1.2732543E-3,4.6153984E-4,-8.07207E-3,-7.4999984E-3,3.8250003E-2,2.0357156E-3,3.6444135E-2,1.5039131E-2,4.0163264E-2,3.4285717E-2,5.8846166E-3,4.617391E-2,1.673077E-2,4.7250013E-3,3.1600002E-2,4.307143E-2,-4.4999993E-3,3.25E-2,3.3209317E-3,4.0799998E-2,-4.4999993E-3,3.3999998E-2,-4.4999993E-3],"categories":[],"categories_nodes":[],"categories_segments":[],"categories_sizes":[],"default_left":[0,0,0,0,0,0,0,0,0,0,0,0,0,0,0,0,0,0,0,0,0,0,0,0,0,0,0,0,0,0,0,0,0,0,0,0,0,0,0,0,0,0,0,0,0,0,0,0,0,0,0,0,0,0,0,0,0,0,0,0,0,0,0,0,0,0,0,0,0,0,0,0,0,0,0,0,0,0,0,0,0,0,0,0,0,0,0,0,0,0,0,0,0,0,0,0,0,0,0,0,0,0,0,0,0],"id":13,"left_children":[1,3,5,7,9,11,13,15,17,19,21,23,25,27,29,31,33,35,37,39,41,43,45,47,49,51,53,55,57,-1,-1,59,-1,61,63,65,67,-1,69,71,73,75,77,79,81,83,85,87,89,91,93,95,97,99,101,-1,-1,103,-1,-1,-1,-1,-1,-1,-1,-1,-1,-1,-1,-1,-1,-1,-1,-1,-1,-1,-1,-1,-1,-1,-1,-1,-1,-1,-1,-1,-1,-1,-1,-1,-1,-1,-1,-1,-1,-1,-1,-1,-1,-1,-1,-1,-1,-1,-1],"loss_changes":[3.050547E2,5.0297318E1,3.3730057E1,8.31955E0,1.2452707E1,1.5394836E1,2.0286255E0,1.4009857E0,8.317638E0,1.6891832E1,6.523598E0,1.083139E1,2.6563425E0,8.40683E-2,3.79875E-1,6.0791016E-2,1.5633049E0,4.6375303E0,5.852394E-1,2.1467195E0,9.238041E0,1.0972336E1,8.868098E-1,9.230026E0,5.3194027E0,2.3407092E0,1.2989895E0,3.7395835E-1,9.435272E-2,0E0,0E0,5.8873177E-1,0E0,1.4329567E0,1.5270342E0,4.7749867E0,2.6670485E0,0E0,5.867233E-1,7.7904564E-1,1.5754285E0,2.7862663E0,2.7346802E0,2.0160048E0,4.522806E0,6.918535E-1,1.359375E0,8.21949E0,6.977232E0,4.196814E0,2.6741362E0,2.1475716E0,6.917138E-1,1.3757838E0,5.628332E-1,0E0,0E0,3.7395835E-1,0E0,0E0,0E0,0E0,0E0,0E0,0E0,0E0,0E0,0E0,0E0,0E0,0E0,0E0,0E0,0E0,0E0,0E0,0E0,0E0,0E0,0E0,0E0,0E0,0E0,0E0,0E0,0E0,0E0,0E0,0E0,0E0,0E0,0E0,0E0,0E0,0E0,0E0,0E0,0E0,0E0,0E0,0E0,0E0,0E0,0E0,0E0],"parents":[2147483647,0,0,1,1,2,2,3,3,4,4,5,5,6,6,7,7,8,8,9,9,10,10,11,11,12,12,13,13,14,14,15,15,16,16,17,17,18,18,19,19,20,20,21,21,22,22,23,23,24,24,25,25,26,26,27,27,28,28,31,31,33,33,34,34,35,35,36,36,38,38,39,39,40,40,41,41,42,42,43,43,44,44,45,45,46,46,47,47,48,48,49,49,50,50,51,51,52,52,53,53,54,54,57,57],"right_children":[2,4,6,8,10,12,14,16,18,20,22,24,26,28,30,32,34,36,38,40,42,44,46,48,50,52,54,56,58,-1,-1,60,-1,62,64,66,68,-1,70,72,74,76,78,80,82,84,86,88,90,92,94,96,98,100,102,-1,-1,104,-1,-1,-1,-1,-1,-1,-1,-1,-1,-1,-1,-1,-1,-1,-1,-1,-1,-1,-1,-1,-1,-1,-1,-1,-1,-1,-1,-1,-1,-1,-1,-1,-1,-1,-1,-1,-1,-1,-1,-1,-1,-1,-1,-1,-1,-1,-1],"split_conditions":[5.544E1,4.636E1,8.015E1,4.204E1,9E0,2E1,2.6595998E-1,3.246E1,3.489377E-1,5.6573E4,2.1E1,5.659E3,5.5053625E4,3.7413216E1,3.859E3,2.17355E-1,6.547E1,8E0,6.63E2,7E0,4.8499584E1,1.4E1,6.2804165E1,6.9587E4,1.3E1,6.876E1,1.142E3,5.614E4,5.5521E4,4.3123353E-1,-4.7448575E-2,5.3693E4,-7.8262526E-1,5.2949E4,7.11E1,5.4799E4,7.3487E4,1.3220374E-1,6.4949165E1,5.025E1,2.5398847E-1,1.2414632E-1,6E0,7.02E2,2E1,5.6730058E-2,5.317E1,5E0,7.101E1,9E0,6.491E4,5.7037E4,6.0515E4,2.267125E1,6.0709E4,1.2076067E0,-4.511151E-1,5.455E4,1.5348309E0,-6.6524893E-1,-2.7072445E-1,-2.9228646E-1,-1.7403984E-1,2.3301356E-1,-1.2132956E-1,-7.5457536E-2,1.1504501E-1,-6.1967053E-2,2.0712845E-1,-2.5936294E-1,2.3549812E-1,-6.5955125E-2,1.0209988E-2,2.018573E-1,-3.124634E-2,4.5648667E-1,1.026538E-1,4.7188286E-2,6.121331E-1,5.9479386E-1,-4.023288E-2,1.356375E-1,-7.984675E-3,2.001144E-3,-8.687589E-2,-2.1597061E-2,3.0247742E-1,7.543602E-2,6.387477E-1,1.6586186E-1,5.281376E-1,7.3445994E-1,6.890571E-2,5.690181E-1,1.5125807E-1,2.6140526E-1,3.0369192E-1,3.6605453E-1,-1.5730408E-1,1.5273857E-1,4.5753077E-2,8.3846736E-1,-9.50029E-2,6.9810516E-1,-6.5899655E-2],"split_indices":[8,8,8,11,4,4,3,8,3,0,4,2,18,13,1,3,10,4,1,4,12,4,12,14,4,8,2,0,0,0,0,0,0,0,10,0,16,0,12,8,3,3,4,2,4,3,8,4,8,4,15,17,15,12,0,0,0,0,0,0,0,0,0,0,0,0,0,0,0,0,0,0,0,0,0,0,0,0,0,0,0,0,0,0,0,0,0,0,0,0,0,0,0,0,0,0,0,0,0,0,0,0,0,0,0],"split_type":[0,0,0,0,0,0,0,0,0,0,0,0,0,0,0,0,0,0,0,0,0,0,0,0,0,0,0,0,0,0,0,0,0,0,0,0,0,0,0,0,0,0,0,0,0,0,0,0,0,0,0,0,0,0,0,0,0,0,0,0,0,0,0,0,0,0,0,0,0,0,0,0,0,0,0,0,0,0,0,0,0,0,0,0,0,0,0,0,0,0,0,0,0,0,0,0,0,0,0,0,0,0,0,0,0],"sum_hessian":[1.4916E4,1.3541E4,1.375E3,1.1453E4,2.088E3,1.2E3,1.75E2,9.213E3,2.24E3,4.83E2,1.605E3,9.09E2,2.91E2,1.71E2,4E0,5.434E3,3.779E3,9.63E2,1.277E3,2.21E2,2.62E2,1.227E3,3.78E2,6.61E2,2.48E2,6.7E1,2.24E2,3E0,1.68E2,1E0,3E0,7.95E2,4.639E3,3.76E3,1.9E1,3.16E2,6.47E2,1E0,1.276E3,2.01E2,2E1,1.78E2,8.4E1,5.31E2,6.96E2,3.7E2,8E0,3.84E2,2.77E2,2.01E2,4.7E1,5.3E1,1.4E1,2.19E2,5E0,2E0,1E0,3E0,1.65E2,7.24E2,7.1E1,1.857E3,1.903E3,1E1,9E0,1.15E2,2.01E2,6.43E2,4E0,1.275E3,1E0,1.13E2,8.8E1,1.4E1,6E0,2.8E1,1.5E2,1.2E1,7.2E1,3E0,5.28E2,5.25E2,1.71E2,3.8E1,3.32E2,5E0,3E0,2.7E1,3.57E2,2.29E2,4.8E1,2E1,1.81E2,2.2E1,2.5E1,3.9E1,1.4E1,1.3E1,1E0,5E0,2.14E2,4E0,1E0,2E0,1E0],"tree_param":{"num_deleted":"0","num_feature":"20","num_nodes":"105","size_leaf_vector":"1"}},{"base_weights":[-5.3789385E-2,-1.1074139E-1,2.7236068E-1,-1.3225555E-1,-3.7834063E-2,2.0257929E-1,6.4582133E-1,-1.4002757E-1,-8.655874E-2,2.6336657E-2,-1.0892463E-1,1.1296514E-1,2.7929145E-1,5.022857E-1,7.8728324E-1,-1.485396E-1,-1.2788263E-1,-1.47338165E-2,-1.2862721E-1,-7.010558E-3,1.252618E-1,-1.1795688E-1,-9.565194E-3,6.882936E-2,3.1809214E-1,4.0354908E-1,1.6517177E-1,1.8787882E-1,5.713287E-1,8.035503E-1,8.000002E-2,-1.3502905E-1,-8.971665E-3,-1.4267217E-1,-1.08922645E-1,-1.1119045E-1,4.921138E-2,-1.3150054E-1,-1.8749977E-2,8.3278716E-2,-4.0180698E-2,4.2173916E-1,1.05972245E-1,-1.268629E-1,-5.9281413E-2,2.9130438E-1,-8.387095E-2,1.1391216E-1,-2.4353424E-2,5.190476E-1,1.738889E-1,4.8000002E-1,2.6800004E-1,9.704863E-2,2.4725741E-1,4.8437503E-1,-8.611109E-2,6.1269236E-1,1.464286E-1,3.8750002E-1,8.0873495E-1,2.55E-2,-6.749999E-3,-8.790907E-3,7.6000015E-3,2.55E-2,-8.59119E-3,1.4423078E-2,-6.897176E-3,1.59E-2,-7.7611925E-3,1.7735295E-2,1.1725366E-3,-8.394066E-3,-5.6927693E-3,1.8000001E-2,-8.499999E-3,4.090909E-2,3.6406794E-3,-3.2814895E-3,1.0415095E-2,-3.7499875E-4,3.65625E-2,3.0810826E-3,1.4617648E-2,-1.7142718E-4,-7.85185E-3,6.477287E-4,-8.137498E-3,8.166668E-3,4.25E-2,-8.028167E-3,4.434784E-3,-7.597388E-4,1.0412309E-2,-2.3524216E-3,3.25E-2,1.4869566E-2,3.9512195E-2,3.3559336E-3,2.315625E-2,1.3423078E-2,3.393421E-2,2.3168318E-2,6.3200016E-3,3.2E-2,4.9607153E-3,1.700481E-2,-6.999986E-4,1.2000001E-2,4.4625003E-2,8.250001E-3,-8.399998E-3,2.6942307E-2,4.2759493E-2,3.25E-2,-7.9999985E-3,3.3999998E-2,-4.4999993E-3,3.5600003E-2,4.9480263E-2],"categories":[],"categories_nodes":[],"categories_segments":[],"categories_sizes":[],"default_left":[0,0,0,0,0,0,0,0,0,0,0,0,0,0,0,0,0,0,0,0,0,0,0,0,0,0,0,0,0,0,0,0,0,0,0,0,0,0,0,0,0,0,0,0,0,0,0,0,0,0,0,0,0,0,0,0,0,0,0,0,0,0,0,0,0,0,0,0,0,0,0,0,0,0,0,0,0,0,0,0,0,0,0,0,0,0,0,0,0,0,0,0,0,0,0,0,0,0,0,0,0,0,0,0,0,0,0,0,0,0,0,0,0,0,0,0,0,0,0,0,0],"id":14,"left_children":[1,3,5,7,9,11,13,15,17,19,21,23,25,27,29,31,33,35,37,39,41,43,45,47,49,51,53,55,57,59,61,63,-1,65,67,69,71,73,75,77,79,81,83,85,87,89,91,93,95,97,99,101,103,105,107,109,111,113,115,117,119,-1,-1,-1,-1,-1,-1,-1,-1,-1,-1,-1,-1,-1,-1,-1,-1,-1,-1,-1,-1,-1,-1,-1,-1,-1,-1,-1,-1,-1,-1,-1,-1,-1,-1,-1,-1,-1,-1,-1,-1,-1,-1,-1,-1,-1,-1,-1,-1,-1,-1,-1,-1,-1,-1,-1,-1,-1,-1,-1,-1],"loss_changes":[2.7575598E2,1.9818222E1,5.738492E1,3.4534912E0,1.3145796E1,1.2761887E1,6.650345E0,8.429718E-1,4.291748E0,4.998678E0,1.2256718E0,7.764064E0,1.4141945E1,3.6914864E0,1.9261475E0,4.5173645E-2,9.499092E-1,3.2498074E0,2.8041458E-1,3.399572E0,2.1399336E0,6.472511E-1,2.595411E0,2.9812405E0,4.3144636E0,4.8351746E0,2.9061756E0,2.72253E0,2.4235687E0,5.117035E-2,3.79875E-1,1.0525737E0,0E0,6.246605E-1,3.214651E0,1.4691365E0,2.3114243E0,2.5529385E-1,9.828126E-1,4.0844927E0,2.5840778E0,1.8508492E0,2.694275E0,5.3897667E-1,8.949006E-1,1.3921498E0,7.425854E-1,3.6097455E0,1.9717625E0,2.2202396E0,2.2295434E0,6.5621414E0,3.322339E0,1.7614999E0,2.222024E0,1.0314062E0,2.3615277E-1,1.8067665E0,1.6202382E0,3.7395835E-1,8.0513E-2,0E0,0E0,0E0,0E0,0E0,0E0,0E0,0E0,0E0,0E0,0E0,0E0,0E0,0E0,0E0,0E0,0E0,0E0,0E0,0E0,0E0,0E0,0E0,0E0,0E0,0E0,0E0,0E0,0E0,0E0,0E0,0E0,0E0,0E0,0E0,0E0,0E0,0E0,0E0,0E0,0E0,0E0,0E0,0E0,0E0,0E0,0E0,0E0,0E0,0E0,0E0,0E0,0E0,0E0,0E0,0E0,0E0,0E0,0E0,0E0],"parents":[2147483647,0,0,1,1,2,2,3,3,4,4,5,5,6,6,7,7,8,8,9,9,10,10,11,11,12,12,13,13,14,14,15,15,16,16,17,17,18,18,19,19,20,20,21,21,22,22,23,23,24,24,25,25,26,26,27,27,28,28,29,29,30,30,31,31,33,33,34,34,35,35,36,36,37,37,38,38,39,39,40,40,41,41,42,42,43,43,44,44,45,45,46,46,47,47,48,48,49,49,50,50,51,51,52,52,53,53,54,54,55,55,56,56,57,57,58,58,59,59,60,60],"right_children":[2,4,6,8,10,12,14,16,18,20,22,24,26,28,30,32,34,36,38,40,42,44,46,48,50,52,54,56,58,60,62,64,-1,66,68,70,72,74,76,78,80,82,84,86,88,90,92,94,96,98,100,102,104,106,108,110,112,114,116,118,120,-1,-1,-1,-1,-1,-1,-1,-1,-1,-1,-1,-1,-1,-1,-1,-1,-1,-1,-1,-1,-1,-1,-1,-1,-1,-1,-1,-1,-1,-1,-1,-1,-1,-1,-1,-1,-1,-1,-1,-1,-1,-1,-1,-1,-1,-1,-1,-1,-1,-1,-1,-1,-1,-1,-1,-1,-1,-1,-1,-1],"split_conditions":[5.102E1,4.284E1,7.101E1,4.238E1,3.5118327E-1,4.997E1,8.015E1,3.172E1,2.4983768E-1,5.295E1,6.2760043E4,5.978E1,2.1339819E-1,6.0386E4,2.6595998E-1,1.405224E-1,5.4109E4,5.2949E4,6.547E1,5.829E3,9.630788E-2,4.8030834E1,2.706E1,8.023E3,1.5372291E-1,6.676E4,6.467E1,5.9266E4,9.18E3,3.7413216E1,6.4909E4,5.3693E4,-7.494636E-1,-4E1,5.1085E4,4.3512543E4,5.1715E4,4.024E1,5.011825E4,4.0056E4,5.692E1,3.4E1,4.4395E1,6.5666666E0,4.3391794E-1,4.05E1,7.0807E4,5.5692E4,7.5122E4,5.8832E4,5.199012E1,5.764E4,8.48E2,2.55025E1,4.2594078E-1,5.5088E4,3.987512E1,1E0,5.295E1,5.614E4,5.9534E4,4.5143646E-1,-4.4601746E-2,-7.037539E-1,1.4990333E-1,1.5158524E-1,-3.051157E-1,1.596567E-1,-1.8809104E-1,1.3931088E-1,-1.3151449E-1,1.20209865E-1,6.741899E-3,-1.9185463E-1,-1.3517235E-1,1.0601029E-1,-2.7583886E-2,5.3337157E-1,5.038637E-2,-4.6634756E-2,9.1740444E-2,8.406946E-2,4.1123524E-1,3.323474E-2,3.1076193E-1,-1.9034196E-2,-2.3138036E-1,1.9590821E-2,-1.7390579E-1,6.613187E-2,1.3561364E-1,-1.920207E-1,1.0016247E-1,-9.44444E-3,1.6302085E-1,-1.9375458E-2,3.2626328E-1,2.0056343E-1,4.206778E-1,1.3046974E-1,2.6906854E-1,2.723765E-1,6.074527E-1,2.6359972E-1,4.3048557E-2,1.24152526E-1,7.174626E-2,2.2395714E-1,-1.0412049E-2,2.7357098E-1,1.1480477E0,1.6728516E-1,-2.8737133E-2,4.6540895E-1,7.3933744E-1,2.840625E-1,-3.5872668E-2,1.1351504E0,-4.24048E-1,6.2731643E0,1.4039212E0],"split_indices":[8,11,8,9,3,11,8,8,3,11,19,9,3,17,3,3,0,0,10,1,3,12,10,1,3,14,11,14,2,13,0,0,0,9,14,18,14,11,18,15,10,10,13,12,3,9,0,0,15,17,13,17,2,12,3,0,13,2,9,0,17,0,0,0,0,0,0,0,0,0,0,0,0,0,0,0,0,0,0,0,0,0,0,0,0,0,0,0,0,0,0,0,0,0,0,0,0,0,0,0,0,0,0,0,0,0,0,0,0,0,0,0,0,0,0,0,0,0,0,0,0],"split_type":[0,0,0,0,0,0,0,0,0,0,0,0,0,0,0,0,0,0,0,0,0,0,0,0,0,0,0,0,0,0,0,0,0,0,0,0,0,0,0,0,0,0,0,0,0,0,0,0,0,0,0,0,0,0,0,0,0,0,0,0,0,0,0,0,0,0,0,0,0,0,0,0,0,0,0,0,0,0,0,0,0,0,0,0,0,0,0,0,0,0,0,0,0,0,0,0,0,0,0,0,0,0,0,0,0,0,0,0,0,0,0,0,0,0,0,0,0,0,0,0,0],"sum_hessian":[1.4843E4,1.2637E4,2.206E3,9.757E3,2.88E3,1.86E3,3.46E2,8.337E3,1.42E3,1.514E3,1.366E3,8.59E2,1.001E3,1.74E2,1.72E2,4.895E3,3.442E3,5.25E2,8.95E2,1.133E3,3.81E2,1.252E3,1.14E2,7.08E2,1.51E2,4.78E2,5.23E2,3.2E1,1.42E2,1.68E2,4E0,3.43E2,4.552E3,1.93E3,1.512E3,2.09E2,3.16E2,8.72E2,2.3E1,3.04E2,8.29E2,2.2E1,3.59E2,1.086E3,1.66E2,2.2E1,9.2E1,4.77E2,2.31E2,